{"moveNetwork":{"layers":[{"out_depth":320,"out_sx":1,"out_sy":1,"layer_type":"input"},{"out_depth":50,"out_sx":1,"out_sy":1,"layer_type":"fc","num_inputs":320,"l1_decay_mul":0,"l2_decay_mul":1,"filters":[{"sx":1,"sy":1,"depth":320,"w":{"0":-6.538001468149753e-36,"1":-3.7130513445162273e-36,"2":-1.2441347792017451e-36,"3":-6.501001553898922e-37,"4":9.959838349010445e-37,"5":-2.0946957039755855e-37,"6":-1.957929132113614e-36,"7":2.0789699846889403e-36,"8":1.8383170911174388e-37,"9":-2.086452546654581e-36,"10":-4.706424439143293e-36,"11":-2.2660180493368955e-36,"12":-8.994044696098702e-36,"13":-2.8797374168126357e-36,"14":-1.2520200133162176e-35,"15":-2.8951732252093622e-37,"16":-2.847382585006167e-36,"17":-2.2778756531361483e-36,"18":6.667672451318343e-36,"19":-1.2924848481080308e-37,"20":3.7756956419928e-36,"21":-1.6829121779915646e-36,"22":1.000970230750653e-35,"23":-1.347028412584811e-36,"24":-8.276171871099502e-36,"25":8.603763105189006e-38,"26":-8.754401551533215e-36,"27":-3.124391891411283e-36,"28":-5.2899842378810935e-36,"29":-3.226601574231351e-36,"30":3.31265040417907e-36,"31":8.526173911892727e-37,"32":-4.748534196530735e-37,"33":-9.327284306806717e-37,"34":-1.4857784726669649e-36,"35":-2.0906208779786597e-36,"36":-1.7484814974808015e-36,"37":-7.721130416733464e-37,"38":-5.36814844624213e-36,"39":4.720222893348378e-37,"40":-1.0483784200212638e-36,"41":-4.541674741857049e-36,"42":-5.200539016089095e-36,"43":-2.480781262180189e-36,"44":1.1473879575348728e-37,"45":-1.7996764567642004e-36,"46":-2.0808977154275296e-36,"47":-3.019660082055551e-36,"48":3.213976037405418e-36,"49":-1.6210254149349773e-36,"50":6.730781366277262e-36,"51":-2.0841463754114655e-36,"52":9.095198482766643e-36,"53":-3.160739118129409e-36,"54":4.12670342261621e-36,"55":1.2493697472152408e-36,"56":-1.5931221208760848e-35,"57":2.0133300559402416e-37,"58":1.3699422584807205e-35,"59":-2.739644700071028e-36,"60":-5.455426529766185e-36,"61":-1.822474269897734e-36,"62":1.8561456520537873e-36,"63":7.528017374648139e-37,"64":-9.442265677487309e-36,"65":-1.548705831240113e-36,"66":-1.747156796928493e-35,"67":-2.1283336895838423e-36,"68":-1.6905955310395287e-35,"69":-5.6105357631115346e-36,"70":-1.0081331169811262e-35,"71":-4.5379794107488064e-36,"72":-1.9421421352646535e-36,"73":5.574737842644186e-37,"74":-7.128473791846749e-36,"75":-2.016146646617434e-37,"76":-1.1507368956657409e-35,"77":-4.288563873423903e-36,"78":-2.9841627254044235e-36,"79":-1.7104418625374768e-37,"80":-4.154918395560751e-36,"81":-3.064978568930455e-37,"82":4.083394381281434e-37,"83":-7.262665967351872e-36,"84":1.2602171786072806e-35,"85":3.352636353165072e-36,"86":1.7639068960403135e-36,"87":3.5392330307688743e-37,"88":-8.505105417090319e-36,"89":-5.413100008318511e-36,"90":5.8854947608990985e-36,"91":2.2215509988533116e-37,"92":-1.0025707770545059e-35,"93":2.502212536630288e-36,"94":-1.0342802276645969e-36,"95":-7.839989331802635e-36,"96":-1.6102084667777134e-36,"97":-8.649067414887272e-37,"98":8.217778555596495e-36,"99":1.5375913127393567e-36,"100":9.178186789795327e-37,"101":-7.495615090882883e-36,"102":-1.728242351410189e-35,"103":1.0591623747781647e-36,"104":6.673191161681933e-36,"105":-1.4013850379763323e-36,"106":-7.193978223344044e-36,"107":-9.557152290337488e-36,"108":-9.553519455131016e-36,"109":3.815043023571394e-37,"110":-1.3178188672145394e-35,"111":-1.9907683673101526e-36,"112":-1.4627492394456363e-35,"113":-1.014836692252881e-35,"114":-1.1612654928531354e-36,"115":1.3392200734216514e-36,"116":1.3535879682882414e-36,"117":-2.068761696486882e-36,"118":-1.0522885767348974e-36,"119":4.774106239032272e-36,"120":9.1746530899329e-36,"121":-8.694710968296302e-37,"122":9.652782866653486e-36,"123":1.4126433955435751e-36,"124":9.975657288319777e-36,"125":1.2815256612539872e-35,"126":6.690843603959004e-36,"127":3.6341558690997994e-36,"128":8.332535839059816e-36,"129":1.270014136272121e-36,"130":2.557428908743743e-36,"131":5.4801431843438355e-37,"132":1.1883820619368045e-36,"133":-8.51453888506684e-37,"134":3.720390266483319e-37,"135":2.1811777606718968e-36,"136":1.4651016399564938e-36,"137":4.441420139859008e-37,"138":1.7250300935796644e-36,"139":-3.79422143877303e-36,"140":2.3500656227442962e-36,"141":2.9471653859989786e-36,"142":-1.9568915281388636e-36,"143":-1.195934598669305e-36,"144":-4.820930626548882e-37,"145":3.379701844019879e-36,"146":-2.3669018570631514e-36,"147":-1.6553952442955305e-37,"148":-4.49239177784048e-37,"149":2.5042594305473858e-36,"150":1.767404645361853e-36,"151":9.45115662826621e-37,"152":7.296592416962838e-37,"153":4.3883287860298454e-37,"154":4.029281670994836e-37,"155":1.2204152607408042e-36,"156":-6.38779402566336e-37,"157":2.9454775430439205e-38,"158":-1.9982835282581843e-36,"159":-6.11730680270507e-37,"160":-7.141645552551021e-37,"161":-1.6878207886025467e-36,"162":3.087635678655706e-36,"163":-2.140587143962953e-37,"164":1.1112838266171637e-36,"165":-7.038647880811135e-37,"166":-2.7346745380593122e-36,"167":1.0832270259528338e-37,"168":-3.5316414763591197e-37,"169":-3.542378766242967e-37,"170":1.3699388659220258e-36,"171":5.679291908853233e-37,"172":-1.0973385884286826e-37,"173":-1.2196951226757675e-37,"174":-1.208846198040633e-36,"175":1.8662212564680584e-36,"176":-1.3805681168061776e-36,"177":2.2825436046361865e-37,"178":-4.865639315247784e-37,"179":-2.3660684513228415e-36,"180":-8.321154972698398e-38,"181":-2.9831055025040277e-36,"182":-1.4405176620518124e-36,"183":1.819331009885677e-37,"184":1.707371670841988e-36,"185":-3.0837658075053774e-36,"186":-9.07840223145361e-37,"187":-2.3508703162142475e-36,"188":-1.3909752439690624e-36,"189":-3.7165772119434133e-38,"190":-8.550801369165194e-36,"191":-7.293698926542494e-36,"192":-1.6588175020262298e-36,"193":-1.0798084447318202e-35,"194":1.8482872290663863e-37,"195":7.364777994631067e-37,"196":7.123818219228354e-36,"197":1.487561452502003e-35,"198":1.2843226792925401e-36,"199":-3.1230446483940396e-37,"200":-3.3363970595574177e-37,"201":-2.3601026408490567e-36,"202":-3.0461331741566486e-37,"203":-2.412460378112818e-37,"204":4.498854992801501e-37,"205":-1.2865363690869584e-36,"206":-8.097445753359722e-36,"207":-6.60533489656987e-39,"208":-6.234908625105795e-36,"209":-2.3703317665040267e-36,"210":4.704147139577149e-37,"211":1.1063143488032091e-36,"212":1.002981322657392e-36,"213":2.9901381444679404e-37,"214":5.798237740673439e-38,"215":1.366867556059278e-36,"216":-6.763721039255701e-37,"217":8.947005767856337e-37,"218":-9.284384922500817e-37,"219":1.276194922070884e-36,"220":1.0676851854480616e-36,"221":-1.6198884964048753e-36,"222":2.1089623443342924e-37,"223":-3.208577526115775e-36,"224":-2.1015813867583423e-36,"225":-6.481639534850323e-36,"226":-5.696521548412856e-36,"227":-7.583984053548962e-36,"228":-7.708299977439031e-36,"229":-4.969310035836472e-36,"230":-9.511838286352339e-36,"231":-1.0566960392806298e-35,"232":-8.245168291038704e-36,"233":-1.1576668380564258e-35,"234":-6.377620482006562e-36,"235":-2.785703772014338e-36,"236":2.8979121533949267e-36,"237":7.680873917344544e-37,"238":-1.3015253346784436e-36,"239":1.441650608884715e-36,"240":-2.2605972926073092e-36,"241":-8.254390262103285e-37,"242":8.951876919963879e-37,"243":-1.2038118233814428e-36,"244":2.8576989653194966e-37,"245":-9.798577398605669e-37,"246":1.258079319024376e-37,"247":2.0080702027123352e-36,"248":1.4131115551696578e-38,"249":9.30087679760567e-37,"250":-1.7385770384737477e-36,"251":5.386341182604486e-38,"252":-7.304799039197644e-37,"253":8.9030125706439e-37,"254":-6.312284080246833e-37,"255":-1.454518276603701e-37,"256":-5.486059675688726e-37,"257":-1.2369555220977352e-36,"258":2.609107694116137e-37,"259":-2.125061880078406e-36,"260":9.844896871479177e-37,"261":-1.8526638880554357e-36,"262":9.318539355392295e-37,"263":-1.96882608608525e-36,"264":2.1037326957462147e-36,"265":-6.19802009855965e-37,"266":1.0783758459473207e-36,"267":9.572925792455042e-38,"268":-1.7506820859519937e-37,"269":2.30854805242903e-37,"270":-2.610078350581647e-37,"271":2.546951867867926e-36,"272":-9.11154236412516e-38,"273":-9.359944662774272e-37,"274":2.693320768689251e-37,"275":-7.397999068870891e-37,"276":-2.5985322985000192e-36,"277":-6.778228327944099e-37,"278":-1.2567395649339344e-36,"279":1.3519179700453622e-36,"280":-6.37779449718574e-37,"281":-1.636624661816015e-36,"282":1.2672643087883679e-36,"283":1.6107472748911783e-36,"284":1.3716699569366292e-36,"285":-2.364366503940556e-36,"286":-1.5208884355828864e-36,"287":1.6958037892582447e-36,"288":-1.0087998057461227e-36,"289":1.232667210764631e-36,"290":1.1475242623905305e-36,"291":-7.371563894615533e-37,"292":-6.846389375844185e-39,"293":-4.18366850630497e-37,"294":-1.2792415998640491e-36,"295":-3.4712957672540297e-37,"296":-2.6937386862629925e-36,"297":-2.319491028871372e-36,"298":8.05215080598819e-37,"299":-2.9565594515135314e-37,"300":7.300258900959066e-37,"301":2.8453040015839272e-36,"302":-2.0274100755441417e-36,"303":-4.505424051203431e-37,"304":1.597416599135376e-36,"305":-9.484347234851157e-37,"306":-7.181119373224979e-37,"307":2.1114239797701702e-36,"308":1.6988831232862956e-36,"309":-1.5300516116221427e-36,"310":-1.1560196926324757e-36,"311":-1.4846126539103683e-36,"312":-2.8345401287356e-36,"313":1.7973619801373172e-36,"314":7.479813328151784e-37,"315":8.433008603956152e-37,"316":-8.851520855267825e-37,"317":1.9691492578611127e-37,"318":-1.1382581559645814e-36,"319":-2.0989372897493424e-36}},{"sx":1,"sy":1,"depth":320,"w":{"0":-4.110773039324692e-31,"1":-3.283601536603224e-31,"2":-8.374161412047925e-37,"3":1.2563684123766251e-36,"4":1.931450076135864e-36,"5":3.2055836514243146e-38,"6":-4.084433140377458e-34,"7":2.0682871221671025e-37,"8":1.041123669810103e-37,"9":-1.4085807465491494e-36,"10":-1.2039760609718694e-31,"11":-1.5507640439200637e-31,"12":-1.3381276551339791e-31,"13":-8.348761626802548e-32,"14":-3.5858993621273506e-31,"15":-3.662836263228167e-32,"16":-2.822467723117488e-31,"17":-1.7801443358023288e-31,"18":-1.425696265976308e-31,"19":-6.552745783998149e-32,"20":-2.5808615833437285e-31,"21":-4.871585330429635e-32,"22":-1.7207556407301745e-31,"23":-1.966754792791998e-31,"24":-1.9426071444343474e-31,"25":-5.756502166730163e-32,"26":-2.3568583532239074e-31,"27":-4.908333133647572e-32,"28":-1.11828142258468e-31,"29":-2.1068754530732317e-31,"30":-1.8822921071936198e-31,"31":-5.867270904893187e-32,"32":-3.66876711812862e-31,"33":-4.818412800795146e-32,"34":-1.3746547895160774e-31,"35":-2.2052452699514755e-31,"36":-1.5807832568156409e-31,"37":-5.342005448473679e-32,"38":-2.5000728851459513e-31,"39":-5.030271930563394e-32,"40":-1.7226792658483513e-31,"41":-2.364381955620878e-31,"42":-1.638712184477278e-31,"43":-5.548068756474173e-32,"44":-2.899100606734226e-31,"45":-4.9199816505590477e-32,"46":-1.877571225968096e-31,"47":-2.453978571105635e-31,"48":-1.9262691618507126e-31,"49":-6.195828194754061e-32,"50":-3.1489809983890673e-31,"51":-5.35709919039534e-32,"52":-1.788784920937182e-31,"53":-2.6194585164302537e-31,"54":-2.408284034453712e-31,"55":-6.094856610331012e-32,"56":-2.8882902463987207e-31,"57":-5.054386320203376e-32,"58":-1.817626523398597e-31,"59":-2.7502731808035935e-31,"60":-1.295513849268717e-31,"61":-5.263592013123483e-32,"62":-2.864899213631838e-31,"63":-4.5631157899840407e-32,"64":-2.2722566090698795e-31,"65":-2.9038819196940145e-31,"66":-1.7178293408744564e-31,"67":-5.051708576108903e-32,"68":-3.7359040739554444e-31,"69":-4.441777455153845e-32,"70":-2.4086046366428144e-31,"71":-3.023455757195611e-31,"72":-1.9506648684089603e-31,"73":-5.629841845361003e-32,"74":-3.1193438386601164e-31,"75":-5.785517312403548e-32,"76":-3.0275290298132597e-31,"77":-3.2278257433781526e-31,"78":-2.552947629651793e-31,"79":-5.602833106763101e-32,"80":-2.2760113478073397e-31,"81":-5.136659126095705e-32,"82":-1.7290583869469005e-31,"83":-3.3780769996240223e-31,"84":-1.0417763225186975e-31,"85":-4.0570881140940484e-32,"86":-2.913726034912888e-31,"87":-5.687101131791555e-32,"88":-2.1252014475492584e-31,"89":-3.5275975692035684e-31,"90":-1.3979711001543555e-31,"91":-3.6014307913193663e-32,"92":-3.5641670490291913e-31,"93":-6.212711934337033e-32,"94":-1.6030257645170609e-31,"95":-3.6339632503279516e-31,"96":-1.3591063652564533e-31,"97":-4.6973915280955325e-32,"98":-2.6491029792620284e-31,"99":-5.230261747803582e-32,"100":-1.6035396163205142e-31,"101":-3.864776683521776e-31,"102":-2.083002778778587e-31,"103":-3.90548797730913e-32,"104":-2.4251607171877726e-31,"105":-4.248243841822073e-32,"106":-2.4089502870083015e-31,"107":-3.978239795576376e-31,"108":-1.687798636251309e-31,"109":-3.68246744074984e-32,"110":-2.60291620840793e-31,"111":-5.507397579707446e-32,"112":-1.1384204212292866e-31,"113":-3.1343614032638126e-31,"114":-1.7469537049619193e-31,"115":-4.1236786794713867e-32,"116":-1.765612035625766e-31,"117":-4.1281865960120877e-32,"118":-9.507358173152178e-32,"119":-1.9036110374714643e-31,"120":-4.8546490524020995e-32,"121":-1.723713019013183e-32,"122":-1.0260603488737948e-31,"123":-3.0649682819130665e-32,"124":-4.540614361747167e-32,"125":-1.0417634494981666e-31,"126":-5.270954646293795e-32,"127":-8.022760323367544e-33,"128":-1.057891281888165e-31,"129":-1.0543905167540254e-32,"130":1.0769445134617758e-36,"131":-1.2263105283296072e-36,"132":1.0437026067254762e-36,"133":3.5401061138075134e-37,"134":-2.5877248550165462e-36,"135":-1.1779637889532732e-36,"136":-1.013708771062822e-36,"137":-1.551348366700403e-36,"138":-1.5251824878298453e-36,"139":-1.3561079891341654e-36,"140":1.0582183680751812e-36,"141":2.8183741580208723e-38,"142":-3.511452753131673e-37,"143":-7.016798556489212e-37,"144":-2.9399179468803695e-36,"145":1.0780376177081897e-36,"146":-2.430843691809147e-37,"147":-3.190560815895589e-37,"148":-1.335352789993734e-36,"149":-1.5163349443022793e-37,"150":-1.5676102849096735e-36,"151":-1.419488750152714e-36,"152":4.113305298794469e-37,"153":-1.0526045848363568e-36,"154":1.2440114439428765e-36,"155":-7.001123746127471e-37,"156":5.38825581944884e-37,"157":-8.182677592282713e-37,"158":-7.0603377865244926e-37,"159":4.632630641473819e-37,"160":-2.681294091359725e-37,"161":-2.73712758338208e-37,"162":-2.016693252970106e-36,"163":1.968548834969406e-36,"164":7.073283753419662e-37,"165":2.8681281861649446e-39,"166":-8.008283759896169e-37,"167":1.891839280926411e-36,"168":-1.42586916078788e-36,"169":5.910087571958625e-37,"170":-2.4100551501567423e-36,"171":1.1983393341441141e-36,"172":-1.1476299295094255e-36,"173":-2.786930192085308e-36,"174":-3.9027089259411855e-37,"175":-9.638948018198724e-37,"176":1.652338382425692e-36,"177":-1.497805725833685e-36,"178":7.91319925323628e-37,"179":-6.28312151674814e-37,"180":9.70904639742886e-37,"181":-2.1159712819652986e-36,"182":3.664558259969095e-38,"183":1.0455987268457458e-36,"184":1.626740518987242e-36,"185":-5.200327275410418e-37,"186":1.5152977524439288e-36,"187":2.52834852577392e-37,"188":-1.9657378252852443e-36,"189":6.32116448667888e-37,"190":-3.3527296406413324e-31,"191":-2.4511964197959384e-31,"192":-2.8004323405036e-32,"193":-2.075787476451484e-31,"194":-1.299071978793617e-31,"195":-2.2759864053739423e-32,"196":7.368378726285402e-35,"197":9.80581404597991e-35,"198":4.030433759726583e-36,"199":-3.3266423858375916e-36,"200":-1.6951738797208176e-37,"201":-1.565697499454648e-36,"202":2.407161839473428e-36,"203":-2.204497436225688e-37,"204":1.7907924181305752e-38,"205":-2.214654975199628e-31,"206":-2.3529475412211187e-31,"207":-2.942510336777997e-33,"208":-2.596856709849281e-31,"209":-1.9943224785430903e-31,"210":-1.967166518901659e-33,"211":-1.6677110837125377e-32,"212":-1.2480141164961134e-32,"213":-1.2340854504088718e-34,"214":-1.1755796401870064e-36,"215":-3.1945273377048784e-37,"216":1.8002010591879283e-36,"217":-1.099413098198617e-36,"218":1.8452372913954838e-36,"219":8.024389759144057e-37,"220":-1.9599106395099557e-31,"221":-1.964675954784535e-31,"222":-1.838560362885425e-31,"223":-2.6080523383897065e-31,"224":-8.539902209412318e-32,"225":-1.5306976957476717e-31,"226":-1.5503813737519466e-31,"227":-1.5218464658169186e-31,"228":-2.374981650484599e-31,"229":-1.1745652774739099e-31,"230":-1.539333111079564e-31,"231":-1.0414479540294788e-31,"232":-1.5474712856754495e-31,"233":-1.9890840438103154e-31,"234":-1.0674082496396133e-31,"235":-5.516667070403194e-32,"236":-6.944725209957542e-32,"237":-5.519661518232435e-32,"238":-8.551409834077832e-32,"239":-3.2449932060209046e-32,"240":-8.804835993310955e-33,"241":-1.4998793537494023e-32,"242":-8.553618833034291e-33,"243":-1.3097152420560655e-32,"244":-3.982282877215829e-33,"245":-6.01029549517943e-37,"246":1.56362576467802e-36,"247":1.2562572368976712e-37,"248":-4.370441780382398e-37,"249":-1.537143653324936e-36,"250":1.2044443606949505e-36,"251":6.932089625377924e-37,"252":-4.89859731687739e-38,"253":-9.088071025064682e-37,"254":8.680389768619754e-37,"255":3.060449087677774e-37,"256":-1.0084291791275726e-36,"257":-2.0614599189932165e-37,"258":3.260833503697877e-36,"259":2.362312048127569e-37,"260":-9.328122356688233e-37,"261":-1.8232960131776607e-36,"262":1.3489467463437837e-36,"263":-1.7040180287835137e-36,"264":-1.7498187711909265e-36,"265":-3.528412114478541e-37,"266":-2.129847184137565e-36,"267":7.826846337424406e-37,"268":4.852327670129075e-38,"269":-4.7009735773565606e-37,"270":4.2835969666075215e-37,"271":1.3011392804233167e-36,"272":9.702033171599042e-37,"273":1.3117623879678283e-36,"274":2.239787387013725e-36,"275":-3.3813672196075893e-37,"276":-4.839360994267155e-37,"277":-7.396762881527977e-38,"278":1.823264176072901e-36,"279":-7.047093061522157e-37,"280":-2.6890298469802103e-37,"281":1.964141140099696e-36,"282":-1.3847212821450515e-36,"283":-4.488467300256742e-37,"284":1.1910399195122713e-36,"285":2.125821893011559e-36,"286":-5.561534156805668e-37,"287":2.304137890374054e-36,"288":-1.5940795542246348e-36,"289":-7.386553946608138e-37,"290":1.0243751106834516e-36,"291":3.791094318090542e-37,"292":5.282638788300379e-37,"293":3.2892468062501244e-36,"294":-1.5032049842984358e-36,"295":1.4622876330059963e-36,"296":-3.762817049034186e-37,"297":-3.308467016092243e-37,"298":1.1101941326827631e-36,"299":-9.647616239593094e-37,"300":-2.2590161605235724e-36,"301":-6.5010928951302476e-37,"302":-7.910404633990984e-37,"303":5.206201665225342e-38,"304":2.331742503852665e-37,"305":-1.4624526342704645e-36,"306":1.4652011597874705e-37,"307":-2.220927715942877e-36,"308":6.257303700413982e-37,"309":-1.368114440797988e-36,"310":2.4338336857808217e-37,"311":-8.103555716781608e-37,"312":1.5509900347952967e-36,"313":6.125333384534517e-37,"314":3.844593397125611e-36,"315":-5.2255600912720715e-37,"316":1.1964419212018373e-36,"317":1.6364004183578766e-36,"318":9.72151060710601e-38,"319":-3.4688241298575547e-36}},{"sx":1,"sy":1,"depth":320,"w":{"0":-1.2182752051136353e-35,"1":-6.990132671116886e-36,"2":1.2253019937704357e-36,"3":-2.4729172617746148e-36,"4":-4.572778665281781e-37,"5":2.0675477016108557e-36,"6":-8.26222527214015e-37,"7":-7.433423318556141e-37,"8":-1.3890567635888991e-36,"9":-1.5094913295028768e-36,"10":-1.0355087895581465e-35,"11":-1.2141729692760353e-36,"12":-3.720437186436653e-36,"13":-2.0838363573401558e-36,"14":-1.2340195966289308e-35,"15":2.460775860207366e-36,"16":-1.0536516325647534e-35,"17":-4.771021801755078e-36,"18":4.334742840686129e-36,"19":-1.7657759725124765e-36,"20":1.606531084003708e-36,"21":-7.114196204310237e-37,"22":-6.764935423714263e-36,"23":-3.852353854912487e-36,"24":-1.1766296473109166e-35,"25":-2.677110467547661e-36,"26":-1.3177287440793615e-35,"27":-7.832196502369747e-38,"28":1.4835903669320833e-36,"29":-5.463964753133417e-36,"30":-1.7359770471553688e-36,"31":-6.808713304021325e-37,"32":3.583218839114497e-37,"33":-2.231645275624168e-36,"34":8.687463344913851e-37,"35":-5.401245894851208e-36,"36":-1.2067464612824121e-36,"37":-1.7587949616058468e-36,"38":-1.281450371894154e-35,"39":-9.179029128752312e-37,"40":-6.104767651637667e-36,"41":-7.910197321403177e-36,"42":-8.450487789701986e-36,"43":-3.2851631010267317e-36,"44":-1.0257090488617541e-35,"45":-3.3746841677763965e-36,"46":-8.129361918950658e-36,"47":-7.363596255020785e-36,"48":-5.04735127328868e-36,"49":-2.849541663126983e-36,"50":-3.105726791493159e-36,"51":-1.839273574713371e-36,"52":6.182552374668764e-36,"53":-7.966107181832972e-36,"54":-1.0375944706952022e-36,"55":-1.3415197170162856e-37,"56":-1.3441543242464577e-35,"57":-9.47598987762764e-37,"58":1.4302875366801808e-36,"59":-6.470796776629982e-36,"60":-1.0422547286569571e-35,"61":-3.802492981729036e-36,"62":-1.3820342422441756e-35,"63":-1.9591204048635752e-36,"64":-2.653838308250298e-36,"65":-6.078665226796248e-36,"66":-6.888283880581509e-36,"67":-1.1155673978507218e-36,"68":-9.558228606803226e-36,"69":-2.9504801827667524e-38,"70":-1.342738117092598e-35,"71":-1.2794011707603076e-35,"72":-9.5047408655838e-36,"73":-1.3153575427982408e-36,"74":-1.289091765816298e-35,"75":-1.325402137089914e-36,"76":-1.49808078324674e-35,"77":-1.109943605699581e-35,"78":-3.042637154780851e-36,"79":-4.0995638905909075e-36,"80":-5.487314581050131e-36,"81":-1.3399586997415859e-36,"82":-4.516914388305793e-36,"83":-8.252939435134762e-36,"84":-3.9950507803470156e-36,"85":-8.094043105514737e-37,"86":-1.2076964352609838e-35,"87":2.3247832752094965e-36,"88":-5.350201008531775e-36,"89":-1.2955448541399696e-35,"90":-6.923750694864412e-36,"91":-2.7496262285507853e-37,"92":-1.21419901831485e-35,"93":-7.817354739908642e-36,"94":-6.382257110055399e-36,"95":-1.0549041901658327e-35,"96":-3.0416324119763224e-37,"97":-4.308349414517542e-36,"98":-5.657658841328211e-36,"99":-1.3485568728018603e-36,"100":1.1168718371614431e-36,"101":-1.2518040707469956e-35,"102":-1.2562455892025064e-35,"103":1.4952177999427836e-36,"104":-2.8505710004183642e-36,"105":8.776605603236152e-38,"106":-1.0528494876762076e-35,"107":-1.0767247060753444e-35,"108":-9.598687513230905e-36,"109":4.9370220907758144e-37,"110":-1.3317486003690146e-35,"111":-9.455245422374552e-37,"112":-9.415152591141024e-36,"113":-1.0663941417129588e-35,"114":-6.653870612508885e-36,"115":-2.3511313502572943e-36,"116":-3.5439341320366996e-36,"117":-9.740635483435323e-37,"118":1.883552666034196e-36,"119":7.391659939494864e-36,"120":8.47353093066642e-36,"121":9.408813279924178e-37,"122":5.178986127629092e-36,"123":8.609957862603651e-37,"124":2.9399298518335054e-36,"125":1.0381653718999469e-35,"126":4.4820970042602505e-36,"127":4.6646109165947496e-37,"128":6.039652327307016e-36,"129":1.6470534201279637e-36,"130":2.4886670542727977e-36,"131":-1.2035328581410453e-36,"132":-1.9692441141132032e-36,"133":3.2517754733798476e-37,"134":-1.7582515980079015e-36,"135":2.019058826498662e-36,"136":1.130195456753444e-37,"137":1.1558191867186658e-36,"138":-2.356348679612233e-37,"139":1.0697746078522284e-36,"140":1.2826487537251635e-36,"141":9.324010766353809e-37,"142":1.3694157472450081e-36,"143":-2.7343032693666997e-37,"144":2.978878557274277e-37,"145":2.5270046891417294e-36,"146":7.915744982141963e-37,"147":1.9341441476999185e-36,"148":1.8727503977498192e-37,"149":1.263387766919185e-36,"150":-2.299158550813543e-36,"151":3.278724427088144e-36,"152":-1.804747149339986e-36,"153":3.120842771181991e-36,"154":-7.299871412696783e-37,"155":5.997719113997158e-37,"156":-1.4253383425349986e-36,"157":5.67366598073103e-37,"158":1.0636993584895278e-37,"159":-7.1351183969850554e-37,"160":-8.711210711110639e-37,"161":2.7709149735353663e-36,"162":-4.051765820491233e-37,"163":1.4596211029393323e-36,"164":1.9447010711554247e-36,"165":2.1023010851508712e-36,"166":7.85013863838562e-37,"167":4.046051425238163e-37,"168":3.5304884440362477e-37,"169":-2.0182508796773782e-36,"170":1.599666517411435e-36,"171":7.707149416868802e-37,"172":5.965086131152249e-37,"173":-7.8925982430023e-37,"174":-8.318269626927174e-37,"175":3.800507302744966e-36,"176":-1.4940613750648611e-36,"177":1.0062141166043555e-36,"178":-1.2777692477253984e-36,"179":3.972098368047069e-37,"180":-1.3728174932138469e-36,"181":4.31728923433297e-37,"182":-1.6346911881284237e-36,"183":-2.880966484686751e-36,"184":-4.37230148639432e-37,"185":1.1514177947962163e-36,"186":1.4675916474582354e-37,"187":1.6407809177749187e-36,"188":2.224114554439497e-37,"189":-2.287943952300784e-37,"190":-1.1290929685528443e-35,"191":-7.85808437807523e-36,"192":8.248026540832824e-38,"193":-1.655601885679267e-35,"194":-6.953199649460578e-36,"195":-2.8804203674953886e-36,"196":5.510979561676051e-36,"197":7.589790268271318e-36,"198":-1.3749745252330504e-36,"199":-6.1211922587841475e-37,"200":-7.900711295125227e-37,"201":-3.1067977523288996e-37,"202":-1.1935816169156936e-36,"203":2.3462319644641122e-36,"204":-5.294355165660838e-37,"205":-8.252740981768305e-36,"206":-6.770983432495415e-36,"207":1.8771473613030643e-36,"208":-8.691230057767721e-36,"209":-4.5739981075741404e-36,"210":3.7184750617560324e-38,"211":-6.90492618280639e-37,"212":-1.452434466208269e-36,"213":8.48630459545533e-37,"214":5.83699751124114e-37,"215":8.195727502242166e-37,"216":-7.657640391161293e-37,"217":-9.07938815514383e-37,"218":1.2148947487981094e-36,"219":-1.9762902977164472e-36,"220":-7.056251862672621e-36,"221":-9.431538603628198e-36,"222":-6.36471284008438e-36,"223":-7.033136912439712e-36,"224":-1.7950175599648634e-36,"225":-4.2202383013192383e-36,"226":-6.386141775856934e-36,"227":-6.296328541942621e-36,"228":-1.1292646849418492e-35,"229":-3.238822288841809e-36,"230":-7.665668172721381e-36,"231":-1.0923779650458234e-35,"232":-9.618891592126868e-36,"233":-1.1689684046495532e-35,"234":-2.931538761030191e-36,"235":-1.4673726599442667e-36,"236":-1.8097697262409233e-36,"237":1.9651199046248287e-37,"238":9.630267927968653e-38,"239":-1.2903356191430572e-36,"240":-8.633826451985261e-37,"241":2.4018256972360554e-37,"242":3.606914889289889e-37,"243":-3.002402631605365e-37,"244":7.222676196679517e-37,"245":-6.168219300406644e-37,"246":-2.10509952273495e-36,"247":4.421189859890977e-37,"248":-8.190941366662e-37,"249":-1.5393494574664828e-36,"250":6.888542674263201e-37,"251":-1.5132515699089824e-36,"252":-2.357574091551985e-37,"253":-1.080744848539909e-36,"254":-1.5760385870211155e-36,"255":1.1422152545148492e-36,"256":4.024357657268806e-37,"257":8.79582846842642e-37,"258":7.762250762425301e-37,"259":7.751165259243892e-37,"260":2.375899697802595e-37,"261":-1.7395912018805636e-36,"262":-1.4037100172424602e-36,"263":-1.999602632685069e-36,"264":-2.0710367709058406e-36,"265":-1.9542083017452055e-37,"266":1.1106288322018328e-36,"267":1.569433803633159e-36,"268":7.806666986605781e-37,"269":-6.174259083522769e-37,"270":1.2423196458667413e-36,"271":-1.6734110457600935e-36,"272":1.7151902998665177e-36,"273":3.6732339477126854e-37,"274":6.989576085342687e-37,"275":-1.5011618015890771e-36,"276":-1.2124037994694154e-36,"277":-1.8046544072285923e-38,"278":1.2824239132120537e-36,"279":1.0391547704317808e-36,"280":1.171139615438208e-36,"281":-2.922643748803832e-36,"282":-6.253809997577423e-37,"283":-3.438004132554682e-37,"284":1.6807691703718187e-36,"285":-3.3696847919891686e-36,"286":1.1525043106994304e-36,"287":-2.6876915299388076e-37,"288":-8.051426563353139e-37,"289":-1.622661902498794e-36,"290":-3.5356905190773366e-37,"291":-1.957623801273925e-36,"292":4.147728349099569e-37,"293":-3.140713976074152e-36,"294":-4.9503681784891605e-37,"295":-2.1405055216272885e-36,"296":-6.317596635032724e-37,"297":-1.0639829500057457e-36,"298":-2.0215334600278707e-36,"299":-1.11268308908534e-36,"300":1.526802790337522e-36,"301":-1.5654708730484746e-37,"302":-7.08263579888996e-37,"303":-9.451615519880562e-37,"304":7.418033330595615e-37,"305":2.4561005982962297e-37,"306":-2.943109611418363e-37,"307":4.382443714450014e-37,"308":4.395334506408894e-37,"309":-1.0052179361959196e-36,"310":-4.712792361587142e-37,"311":1.817001520761551e-36,"312":2.0782447168044036e-36,"313":4.272439008137077e-37,"314":2.460903767300513e-36,"315":-8.902808457376497e-37,"316":-1.3827931432499173e-36,"317":5.50193546509121e-37,"318":1.6505384531453858e-36,"319":2.096317395027109e-36}},{"sx":1,"sy":1,"depth":320,"w":{"0":-6.2484970632701726e-31,"1":-5.434500927822813e-31,"2":3.8745980478756306e-37,"3":2.9551195647905988e-36,"4":-3.719153047012125e-36,"5":-1.2028062616628585e-36,"6":-4.573570291773314e-34,"7":-1.9113303426960846e-36,"8":2.6680930252825508e-37,"9":1.536218537720138e-36,"10":-2.5504713315756527e-31,"11":-2.352919140109818e-31,"12":-2.348574946258769e-31,"13":-1.1474740641145513e-31,"14":-4.525816592571765e-31,"15":-6.049500383424724e-32,"16":-3.185340212390436e-31,"17":-2.6279543350441855e-31,"18":-2.999905174562582e-31,"19":-9.666621415948143e-32,"20":-3.945374806076118e-31,"21":-6.988473966203816e-32,"22":-3.5060387270687e-31,"23":-2.8436524502891102e-31,"24":-2.4991215899646283e-31,"25":-7.395495200915615e-32,"26":-3.5551064585555295e-31,"27":-5.514454756894569e-32,"28":-2.889570774054961e-31,"29":-3.005973732467959e-31,"30":-2.854178136287691e-31,"31":-7.438602577234872e-32,"32":-4.711086751635963e-31,"33":-5.868030968105313e-32,"34":-3.389132892479918e-31,"35":-3.1263373870489e-31,"36":-2.1668556869733906e-31,"37":-7.276379601970352e-32,"38":-4.500694189962895e-31,"39":-6.161177715950548e-32,"40":-4.02382639921598e-31,"41":-3.2855236803416645e-31,"42":-1.7152958355157932e-31,"43":-7.726524546971764e-32,"44":-4.639718628397187e-31,"45":-6.416178020381089e-32,"46":-2.9442321801365056e-31,"47":-3.4554915829523717e-31,"48":-3.4702366627927215e-31,"49":-7.947810550413583e-32,"50":-4.85875527261184e-31,"51":-6.717509340205288e-32,"52":-3.7258959633092343e-31,"53":-3.6636404408944846e-31,"54":-4.095049139794265e-31,"55":-9.044816102247873e-32,"56":-4.569705005714307e-31,"57":-7.299345859989251e-32,"58":-3.7727615584759156e-31,"59":-3.8608997723382194e-31,"60":-1.6524568339035525e-31,"61":-8.004866547676138e-32,"62":-4.264042555160371e-31,"63":-7.235658333936515e-32,"64":-3.8107241274685144e-31,"65":-4.063464357689444e-31,"66":-1.988619353878595e-31,"67":-6.582112655836896e-32,"68":-5.102680049500578e-31,"69":-6.388635598591778e-32,"70":-3.247341522518302e-31,"71":-4.254539858342868e-31,"72":-2.9670057707241014e-31,"73":-8.13657395987892e-32,"74":-5.22187183603146e-31,"75":-7.838642548726497e-32,"76":-4.256257177843284e-31,"77":-4.534963910256867e-31,"78":-3.272393121832733e-31,"79":-8.358628663127616e-32,"80":-4.019858639220105e-31,"81":-9.032663949568128e-32,"82":-2.7239144130517523e-31,"83":-4.719197887888804e-31,"84":-2.3231062909257634e-31,"85":-7.447610335182648e-32,"86":-4.236898192332148e-31,"87":-9.511349995538914e-32,"88":-3.282569641783532e-31,"89":-4.890966743263314e-31,"90":-2.4332860147381847e-31,"91":-6.70962382202667e-32,"92":-5.4602908460791865e-31,"93":-1.0531233523190534e-31,"94":-2.489240262359575e-31,"95":-5.074536432191549e-31,"96":-2.5693816510951036e-31,"97":-7.759436207680908e-32,"98":-4.819405307729457e-31,"99":-1.2258519948068809e-31,"100":-2.525913785003649e-31,"101":-5.365848130995597e-31,"102":-2.956669967333587e-31,"103":-6.929893236177621e-32,"104":-4.205921269937601e-31,"105":-6.621351852434444e-32,"106":-2.9961148942574695e-31,"107":-5.539614272541302e-31,"108":-2.644006860102486e-31,"109":-6.972872638726118e-32,"110":-4.306741783048344e-31,"111":-7.601844907168791e-32,"112":-1.5117590949221576e-31,"113":-4.995151700338274e-31,"114":-3.138187895867225e-31,"115":-6.94841724783403e-32,"116":-3.337017790383456e-31,"117":-7.261876836283831e-32,"118":-1.863261384228765e-31,"119":-4.045654326853975e-31,"120":-2.0293585155958567e-31,"121":-4.457318878101015e-32,"122":-2.7305103014548787e-31,"123":-9.080274807179459e-32,"124":-2.016226169319481e-31,"125":-3.1789736612999535e-31,"126":-2.1412203297686222e-31,"127":-2.8006464743549686e-32,"128":-1.9380387845039248e-31,"129":-3.0716196696347764e-32,"130":3.5507332596351197e-37,"131":1.6255211963826153e-37,"132":3.002188660923283e-37,"133":6.013433863290781e-37,"134":5.6670075927998496e-37,"135":-2.2416391766182413e-36,"136":1.1132664377047371e-36,"137":1.527852363136682e-36,"138":2.3463961619961143e-37,"139":3.0208807977069814e-37,"140":-9.36806616396199e-37,"141":-6.663378779049569e-37,"142":9.803806018801686e-37,"143":5.585707507568977e-37,"144":-1.2377687729414677e-36,"145":1.5115197243636735e-36,"146":-8.856399931079442e-37,"147":9.925727588199504e-37,"148":2.6053937847169e-36,"149":-2.6524622828167626e-36,"150":-2.130490635159354e-37,"151":2.2033613202046027e-37,"152":-7.4836676201210644e-37,"153":-1.7021975561914804e-37,"154":-6.764238701331884e-37,"155":-1.694678608090395e-37,"156":9.731143778600158e-37,"157":8.527654122846764e-37,"158":-5.53755945866891e-37,"159":-1.0528866452093108e-36,"160":-2.2764420211994858e-36,"161":7.807683525924643e-37,"162":-1.6220479083193952e-36,"163":-2.342532798586973e-36,"164":-9.94908232017294e-38,"165":1.631638543410187e-36,"166":5.901510325082504e-37,"167":-3.154821142041514e-36,"168":1.9716272641349223e-36,"169":2.955589011402238e-36,"170":-2.470931770553384e-36,"171":-4.534001963789774e-37,"172":-5.6539787281243866e-37,"173":-6.652894279573725e-37,"174":5.81701331218286e-37,"175":4.662896905135716e-37,"176":3.967414996110886e-37,"177":2.9547847537708614e-38,"178":-1.5858049208463551e-37,"179":1.512709410587718e-36,"180":1.0419511640130616e-37,"181":-9.027747018382519e-38,"182":1.425802597064192e-36,"183":6.380657194576285e-37,"184":-6.767260562771567e-37,"185":1.6659528864888076e-36,"186":1.3810430160340115e-36,"187":4.872724045738761e-37,"188":2.379004467117445e-37,"189":-1.3846499203892986e-37,"190":-4.876458135657134e-31,"191":-2.2803769002953127e-31,"192":-3.6417584487862856e-32,"193":-2.170700617210369e-31,"194":-1.8230609276339359e-31,"195":-4.7832987898816886e-32,"196":-1.5723073259072522e-31,"197":-2.2445565275956687e-31,"198":-1.288515931579992e-32,"199":1.1111112609379227e-36,"200":2.8016624899749905e-36,"201":3.0207817456078426e-36,"202":1.0307123439735137e-36,"203":1.8474762389588063e-36,"204":8.788277484937283e-37,"205":-3.938103627828388e-31,"206":-2.3875086630835985e-31,"207":-5.361012997865705e-33,"208":-3.519710667633294e-31,"209":-2.891690723589641e-31,"210":-3.0194405171269174e-33,"211":-1.3628126889774494e-32,"212":-1.0195218559712776e-32,"213":-1.0046170899208918e-34,"214":-1.1965503432705718e-36,"215":1.591864231470507e-36,"216":1.8323312190070324e-36,"217":-6.396271477636095e-37,"218":-6.710359116771792e-37,"219":-1.0358318248789827e-36,"220":-3.0021967930232017e-31,"221":-2.2737192203619704e-31,"222":-2.88495706198067e-31,"223":-3.881181744829769e-31,"224":-1.237718943472472e-31,"225":-2.733232346897528e-31,"226":-2.225552651481285e-31,"227":-1.6644240171689898e-31,"228":-2.9372206192304164e-31,"229":-1.3064547410803527e-31,"230":-1.277115758265582e-31,"231":-1.005660892571277e-31,"232":-1.2823126919224755e-31,"233":-1.85108290720699e-31,"234":-9.057580558656781e-32,"235":-5.150854558660923e-32,"236":-6.805211470238463e-32,"237":-5.128494927606035e-32,"238":-7.880535801907383e-32,"239":-2.8766520636337134e-32,"240":-8.362396862243238e-33,"241":-1.922610581144611e-32,"242":-8.26147668511294e-33,"243":-1.9513965543003006e-32,"244":-5.606449539131791e-33,"245":-1.2157037442270746e-36,"246":-1.1801974416495296e-37,"247":7.081098332069248e-37,"248":2.7581214860742322e-37,"249":7.244850670028233e-37,"250":3.554827264148729e-36,"251":-1.336818769180044e-36,"252":-3.0752941513526115e-36,"253":2.5739257471629655e-36,"254":1.066226246727391e-36,"255":-3.4264570854363986e-37,"256":2.7308862328854365e-38,"257":1.9982035430785932e-36,"258":-2.4626890677841557e-36,"259":2.18436083671895e-37,"260":-1.1273655054980222e-36,"261":-1.0772784457543284e-36,"262":3.4919597290150124e-37,"263":1.8322373244466574e-36,"264":-9.267748493756785e-37,"265":-1.566862076484369e-36,"266":2.847541683017803e-37,"267":-4.948675235831936e-37,"268":-8.345136638658568e-37,"269":-8.83009493445005e-37,"270":3.5780811503100245e-36,"271":-1.6201586284138981e-37,"272":-9.756553679940116e-37,"273":-2.7469384499409147e-36,"274":-6.602493686590524e-37,"275":-8.38538565941709e-37,"276":1.847184555954815e-36,"277":2.8299684791677335e-36,"278":7.364453999033374e-37,"279":-6.949261230177555e-37,"280":-2.5327247916141316e-37,"281":4.455700320913837e-37,"282":2.6658870096682836e-37,"283":-4.087124450588844e-37,"284":-1.3827313655826778e-36,"285":4.9347243789147164e-37,"286":1.6223705824682877e-36,"287":5.646844839505346e-37,"288":-1.6219210627595955e-36,"289":-1.9983843804612017e-36,"290":2.230174614556102e-36,"291":9.933510407607965e-37,"292":1.608979661610262e-36,"293":1.1293244684082963e-37,"294":-1.163204544265025e-36,"295":-1.4358950481431393e-36,"296":6.272986200638516e-37,"297":-1.52579509097328e-36,"298":-1.3103087746735987e-36,"299":-1.4705862568095423e-36,"300":6.570717247126184e-37,"301":1.503649459696557e-36,"302":3.964505552383271e-37,"303":-8.158969964094289e-37,"304":2.114352695016197e-36,"305":-6.579096214024249e-37,"306":1.5485793478016212e-36,"307":3.829629221137852e-37,"308":-9.1520237119861e-37,"309":-1.377960048401605e-36,"310":-1.5404343822825562e-37,"311":-2.014603282287193e-37,"312":1.4825267682143881e-36,"313":1.1119039079428571e-36,"314":4.180115868805113e-37,"315":1.4318100301442811e-36,"316":2.0712250783009316e-36,"317":3.50133419929741e-37,"318":1.0474936757023793e-36,"319":5.330459627082207e-37}},{"sx":1,"sy":1,"depth":320,"w":{"0":-3.5802452187547856e-36,"1":-1.763924406282959e-36,"2":1.0450954473589791e-36,"3":9.511114175210709e-37,"4":-2.0494904159244532e-36,"5":-1.2445831115239571e-36,"6":7.376777255898223e-37,"7":5.6073799901106255e-37,"8":3.90453099940444e-37,"9":-2.7588483314412235e-37,"10":-3.2657447687223924e-36,"11":1.8348559613820078e-36,"12":-1.1206670459530812e-36,"13":-6.229514851891616e-37,"14":-1.0958926329446824e-36,"15":-7.402282468095882e-37,"16":1.1094172582304663e-37,"17":-2.0173232457136818e-36,"18":-1.529722041372506e-36,"19":2.2860557839930938e-36,"20":-1.8894284887627106e-36,"21":-4.018250458679294e-37,"22":1.3472479686048492e-36,"23":2.150921780451529e-36,"24":2.040257135398074e-36,"25":7.114594314293917e-38,"26":-1.5235511313954808e-36,"27":-7.4409842700809515e-37,"28":-2.81369423022284e-37,"29":-6.3255225165348495e-37,"30":-1.7316041719818312e-36,"31":-1.0036617607883452e-36,"32":-5.600132010792962e-37,"33":-1.1003784095125362e-36,"34":-1.7023190626714975e-36,"35":6.019514174207935e-37,"36":-5.516033701118068e-37,"37":5.410079308417744e-37,"38":-5.079481959552306e-37,"39":-2.375423261180098e-37,"40":-1.621565122752945e-37,"41":-1.8273271717120795e-36,"42":-5.711067622579296e-37,"43":1.5604144614527192e-36,"44":-9.001282275356528e-37,"45":2.8718540938691135e-37,"46":3.3301125970158925e-36,"47":-1.7041568896014746e-37,"48":2.0330835723670173e-36,"49":-9.012633480336003e-37,"50":-1.1723270461521958e-36,"51":7.186402940966364e-37,"52":-2.493936989383785e-36,"53":-1.6932194353562906e-36,"54":3.943227477502402e-37,"55":1.1903369522630033e-36,"56":-1.3459392114990836e-36,"57":1.9827880924834576e-36,"58":-3.162604559945581e-36,"59":4.684127602425679e-37,"60":-4.2261303375774015e-37,"61":-2.089388984177881e-36,"62":6.001403090437895e-37,"63":1.1165670557100342e-36,"64":1.4968606240146845e-36,"65":4.10706396061995e-37,"66":1.2939074696186557e-36,"67":4.7904739994882e-37,"68":-1.0353141864829889e-36,"69":7.93870312547964e-37,"70":-4.506967876071445e-37,"71":1.4526109616921008e-36,"72":-8.691046636121817e-38,"73":7.86510455479094e-37,"74":4.50160957047261e-37,"75":-2.1054948708525022e-36,"76":8.362882620437883e-37,"77":1.6808978834394275e-36,"78":5.087684320291576e-37,"79":-3.111705817400848e-37,"80":7.654936630842014e-38,"81":-1.4844384110732688e-36,"82":3.267945936192909e-36,"83":1.183588209563748e-36,"84":1.4668545846773752e-36,"85":-2.520804916225687e-36,"86":-4.811213414415274e-37,"87":-4.793790626246808e-37,"88":-2.268049047599608e-37,"89":-4.273312245950243e-39,"90":5.25936247540381e-37,"91":-4.5641107687713457e-38,"92":-2.1100488027977055e-36,"93":7.757679224074355e-37,"94":-2.165747020886057e-36,"95":-1.527356556727085e-36,"96":-1.5714561649667783e-36,"97":7.733406745415921e-37,"98":1.7860246486865357e-36,"99":-5.199825958663569e-37,"100":7.1901358716638506e-37,"101":-8.1417898381132e-37,"102":-3.027210893347603e-37,"103":-2.019269653577241e-37,"104":-1.1615559097030617e-36,"105":-1.5257823877008807e-37,"106":-1.954153822886166e-36,"107":-2.423828939231697e-36,"108":8.736689145880461e-38,"109":4.757847229498815e-37,"110":-4.0478074444835164e-37,"111":1.078495800346778e-36,"112":2.9824285805836264e-36,"113":-1.1952567725902663e-36,"114":2.4169973206155995e-36,"115":1.1183524630238752e-36,"116":-1.0799728695557025e-36,"117":-1.8107461853755318e-36,"118":2.7080728333099228e-36,"119":2.2266617266309658e-36,"120":2.6730734782452076e-36,"121":-1.986822445780768e-37,"122":-2.1547858546850382e-36,"123":5.164950143175408e-37,"124":-3.6426878900561814e-38,"125":4.3091409170498006e-36,"126":9.380966453378078e-37,"127":2.8392302310524063e-37,"128":-3.7217415217275555e-36,"129":-8.200294666675659e-37,"130":-2.683966156172727e-38,"131":-2.896754025667466e-36,"132":-3.5982393961742597e-37,"133":-2.0128225707574443e-36,"134":-3.8115309985026427e-36,"135":-1.9117220138895546e-36,"136":-9.244303302964298e-37,"137":-4.405667452715293e-37,"138":-1.71173762168287e-36,"139":-2.2215261140903968e-36,"140":-2.3357701215017396e-36,"141":6.509829606075846e-37,"142":-1.3393893549822888e-36,"143":6.3156683812627135e-37,"144":1.494107284735721e-36,"145":7.772785525692795e-37,"146":-2.105813798741589e-36,"147":-1.529283054798212e-36,"148":1.5565113100995586e-36,"149":3.9601495279612073e-36,"150":1.962297730739962e-36,"151":-1.7833807935208643e-36,"152":9.038311757316814e-38,"153":-3.1366024711033063e-37,"154":9.384845094167241e-37,"155":-9.254825017561535e-37,"156":1.7282604012565919e-37,"157":-9.678991083052393e-38,"158":-3.3249096441184956e-37,"159":-5.913504891849694e-37,"160":7.760368786331345e-37,"161":-9.586736233795473e-37,"162":6.5819188991902514e-37,"163":-2.0144646588467365e-36,"164":-5.6365948422723356e-37,"165":1.2717155001211716e-36,"166":-4.485825354149552e-38,"167":-1.1958861643482132e-36,"168":-9.580048370611053e-37,"169":-1.4456976669337056e-37,"170":-2.4961307690287864e-36,"171":-2.0670340081248093e-37,"172":-1.799300001153458e-36,"173":-5.631835897174915e-37,"174":3.427685070607198e-36,"175":1.4650919869984158e-36,"176":-2.3450307145201123e-36,"177":1.0295922430103158e-36,"178":1.337876308082245e-36,"179":2.1348628908320302e-37,"180":1.7849985974610056e-36,"181":1.9819488814080446e-36,"182":2.6941791297652695e-36,"183":2.0304310983565114e-36,"184":2.4657874964203943e-36,"185":1.5582483038944214e-36,"186":1.9729069626422925e-36,"187":1.984400410869965e-36,"188":-1.444513309804256e-36,"189":-1.8009449579192274e-37,"190":8.756173599084726e-37,"191":-8.553498693761974e-37,"192":-2.1668003910711855e-36,"193":-9.021768285762884e-37,"194":1.3512261652093905e-36,"195":5.799449564247472e-37,"196":1.0621120293880472e-37,"197":5.122889281415836e-37,"198":2.8982189147917014e-37,"199":5.797617402724074e-38,"200":2.3184603623055468e-36,"201":2.183855279987557e-36,"202":-2.9207185766888132e-36,"203":2.6231199878326906e-37,"204":3.078255130822795e-37,"205":1.0369678998033182e-38,"206":7.02137445313695e-37,"207":-7.59806707161104e-37,"208":1.0141229019101864e-36,"209":-7.087154871710665e-37,"210":-9.973269499986566e-37,"211":-5.281022663971436e-37,"212":1.1260216019547027e-37,"213":5.835187034963283e-37,"214":3.3883205575407705e-36,"215":7.190627334226402e-37,"216":8.252779877868875e-37,"217":-8.367248739108536e-37,"218":2.6443028438820352e-36,"219":-1.2499077579426438e-36,"220":-1.3428718889663219e-36,"221":3.0707719562678103e-38,"222":1.3926302769703883e-37,"223":-2.3729664962306332e-36,"224":1.0578176079648734e-36,"225":-1.941353967375538e-37,"226":-2.9778358244439677e-36,"227":1.778922594730766e-36,"228":-5.770932315824038e-37,"229":1.9648831941809922e-37,"230":4.490430612954204e-37,"231":-6.855722316780033e-37,"232":-8.21364716423776e-38,"233":-1.5556667555227285e-36,"234":-3.9852752002339365e-37,"235":4.8584980253616614e-37,"236":4.504745893627468e-37,"237":6.230969640256621e-38,"238":-2.0474596660682188e-38,"239":1.1025762522850261e-36,"240":2.1171463854609864e-37,"241":2.7164975861054957e-36,"242":4.2207276858071246e-38,"243":-1.9785372534590895e-37,"244":-2.163425170191333e-37,"245":5.096565011485945e-38,"246":-8.836865714398132e-37,"247":-1.9697668437340463e-37,"248":1.0167000101889186e-36,"249":-1.2571660539246574e-36,"250":-8.436073643174376e-37,"251":-1.3384239832440725e-36,"252":-4.181734371400938e-37,"253":1.0466956971851468e-36,"254":2.464009835976021e-36,"255":4.427864964289322e-37,"256":5.7102000225862204e-37,"257":-2.6788006172808934e-36,"258":1.6075787731904525e-36,"259":-5.549667175750664e-37,"260":1.6125684404234677e-37,"261":1.2201267762658339e-36,"262":8.077741285247013e-39,"263":4.58971819955034e-37,"264":1.8280922159113446e-36,"265":-4.157962213294779e-36,"266":-2.0407621494550477e-37,"267":-2.1879176332872863e-36,"268":-7.396950392196433e-37,"269":1.9555779561552878e-36,"270":1.915615134132131e-36,"271":4.003352799261041e-36,"272":5.5906753115406264e-37,"273":-7.2699669137328196e-37,"274":-1.3069967961338269e-36,"275":2.656436880623403e-36,"276":2.6440712924956385e-37,"277":9.829046274705686e-37,"278":-1.8282493152832388e-36,"279":-2.9005430745931887e-37,"280":4.536872023524163e-37,"281":1.522152571465206e-36,"282":-1.6911722516318413e-36,"283":1.3218733987427934e-36,"284":1.1594021158126832e-36,"285":-1.1723451838299824e-36,"286":-4.404718783505305e-37,"287":9.704679337894035e-38,"288":2.5419701514472747e-37,"289":4.9191086544403215e-37,"290":-5.19814879345034e-37,"291":-5.557505732659754e-37,"292":-1.544455872124493e-36,"293":7.128312692487507e-38,"294":2.8319715489889146e-36,"295":2.0650449759223842e-36,"296":6.346521251370879e-37,"297":3.4251035949338545e-36,"298":-3.2080121171300466e-36,"299":4.413994382452993e-37,"300":-3.0457112473393545e-37,"301":4.328278506330885e-37,"302":2.8109466970340257e-36,"303":1.2427091569919158e-37,"304":3.9014432036031145e-37,"305":9.37675383328665e-37,"306":7.606640447669087e-37,"307":-6.663096536498464e-37,"308":-2.335666981548033e-37,"309":1.2417281390442129e-36,"310":-5.0584122218453985e-37,"311":1.0845320866885687e-36,"312":7.412528929650075e-37,"313":-2.2662305772040282e-36,"314":1.407321994178853e-38,"315":2.5332811942741035e-36,"316":-1.8427819587332937e-36,"317":-1.0081873247105508e-36,"318":-4.572915225806671e-37,"319":1.0830193715202198e-36}},{"sx":1,"sy":1,"depth":320,"w":{"0":-7.992139408150993e-18,"1":-7.572824749308223e-18,"2":-3.6998415183674926e-36,"3":1.3995743104711193e-36,"4":5.956604998882797e-37,"5":-6.180343526212799e-37,"6":-6.101755295829042e-21,"7":-2.0349216746183556e-36,"8":4.7836665993703904e-37,"9":1.0831278504845828e-36,"10":-9.175356534100101e-19,"11":-1.5652325709115837e-18,"12":-3.43426559876218e-18,"13":-3.1075398809141886e-18,"14":-3.582696724852179e-18,"15":-8.279363900832572e-19,"16":-8.794156895939967e-19,"17":-2.4799722753882876e-18,"18":-5.8231584815896245e-18,"19":-1.8922433461287937e-18,"20":-1.0534273112521544e-17,"21":-9.070597505936507e-19,"22":-4.378691438322638e-18,"23":-3.1660761953331377e-18,"24":-3.54413585757306e-18,"25":-1.21292886484385e-18,"26":9.207824640927865e-19,"27":-9.04020227922796e-19,"28":-5.599421605122017e-18,"29":-3.4445475991638983e-18,"30":-1.0573107265920107e-18,"31":-1.2456516817716178e-18,"32":-7.605828032215439e-18,"33":-4.907698689519257e-19,"34":-3.918086268128405e-18,"35":-3.6468811852411516e-18,"36":-2.5291914168809222e-18,"37":-8.644995652645653e-19,"38":-5.043568506141261e-18,"39":-8.595690142235299e-19,"40":-7.105767262919938e-18,"41":-4.021760147776871e-18,"42":-1.3158913590268696e-18,"43":-1.0462396990518328e-18,"44":-6.911861100983882e-18,"45":-5.589699620969747e-19,"46":-4.29285794179051e-18,"47":-4.393323441067131e-18,"48":-4.477502605083206e-18,"49":-1.3681371834694865e-18,"50":-2.718995676589041e-18,"51":-1.0827226817856447e-18,"52":-5.772762325152261e-18,"53":-4.545837589746048e-18,"54":-7.64704880079057e-18,"55":-1.7968366567989087e-18,"56":-9.473001101056418e-18,"57":-1.2757944870062833e-18,"58":-4.929093790121399e-18,"59":-4.835983709819925e-18,"60":1.3380106651951723e-18,"61":-1.0325272519792282e-19,"62":-6.4836581338061824e-18,"63":-4.604937369673262e-19,"64":-7.139293114376267e-18,"65":-4.941590713831664e-18,"66":-4.671748267923873e-18,"67":-1.978610151275783e-18,"68":-4.775741369445727e-18,"69":-1.5802733020450552e-18,"70":-4.841024128966551e-18,"71":-5.0946768943849755e-18,"72":-2.170592049543256e-18,"73":-9.956126935530884e-19,"74":-5.864324077955935e-18,"75":-7.736186005573105e-19,"76":-4.0091465116399925e-18,"77":-5.554172552512289e-18,"78":-7.856252503756226e-18,"79":-1.2075097758837204e-18,"80":-9.339462330897492e-18,"81":-2.3916087383121517e-18,"82":-3.0284103783542113e-18,"83":-5.605993386483382e-18,"84":-1.8464937873856715e-18,"85":-1.2175704309846844e-18,"86":-5.7789132974389966e-18,"87":-3.146239961179237e-18,"88":-6.653204364794164e-18,"89":-5.176486005688881e-18,"90":7.628763918488509e-19,"91":-3.7746091209028793e-19,"92":-9.757541939528774e-18,"93":7.329984153512942e-19,"94":-3.92719498401307e-18,"95":-5.285086744906975e-18,"96":-5.522130570118323e-18,"97":-1.1124118297109865e-18,"98":-6.506795465902399e-18,"99":1.081640022969522e-19,"100":-1.159884826264807e-18,"101":-5.435971928940808e-18,"102":-2.1547495836150924e-18,"103":-1.7070070196530394e-18,"104":-4.325113048006621e-18,"105":-1.8366946257053812e-18,"106":-3.953753265227525e-18,"107":-5.496682507719392e-18,"108":-1.4482611709386961e-18,"109":-7.364335964083503e-19,"110":3.860674637613886e-19,"111":-3.515992071628683e-20,"112":-1.31212539038805e-18,"113":-9.320523638443563e-18,"114":-5.949761111474344e-18,"115":-1.7306674013037019e-18,"116":-1.1304253029562753e-17,"117":-1.4070538975658908e-18,"118":-7.578313328591646e-18,"119":-1.1991287242001538e-17,"120":-4.196179652934057e-18,"121":-1.0413223278110947e-18,"122":-6.610462205947028e-18,"123":-8.749131238533056e-19,"124":-4.167120996202576e-18,"125":-3.7773462076751234e-18,"126":-1.505451855774788e-18,"127":-3.052463766389472e-19,"128":-1.774365515758788e-18,"129":-9.888117438495274e-19,"130":1.073392081601852e-36,"131":-2.0074304513952807e-36,"132":-2.1302702689811084e-36,"133":-2.533041664934491e-36,"134":-3.0719114731762486e-37,"135":-9.599340441983974e-37,"136":-6.49169861806433e-37,"137":4.102570587268654e-37,"138":7.203175302491206e-38,"139":2.0507786162514105e-37,"140":-6.285714235221725e-37,"141":-3.3612844233154596e-37,"142":2.5404385848065886e-36,"143":9.960346563621213e-37,"144":-1.0342574679897262e-36,"145":-3.2351381850641405e-37,"146":1.6187763702619173e-37,"147":-3.080678220030747e-36,"148":2.0753673504913337e-36,"149":5.9941156119284665e-37,"150":-2.8475876970996897e-36,"151":-6.796291657567054e-39,"152":1.7512128651695585e-36,"153":-4.46929418735836e-37,"154":-1.972269550197682e-36,"155":-9.395722421444198e-37,"156":-3.420265879828631e-37,"157":-1.6794684463917786e-37,"158":3.4532544284371315e-37,"159":5.022637879762902e-37,"160":-6.616185423320722e-37,"161":-1.774726167709604e-36,"162":7.913986049375974e-37,"163":1.9002408905631396e-36,"164":3.7586788917215526e-37,"165":-2.5398367148459718e-36,"166":-1.0737346461375475e-36,"167":-8.011488225043076e-37,"168":5.427896544293084e-37,"169":7.482255649536691e-37,"170":9.431984401787022e-37,"171":2.7902013134515966e-36,"172":2.581681948471878e-36,"173":1.2423123743894839e-37,"174":-2.787868546962953e-37,"175":2.9377354828706652e-36,"176":1.2091537854822934e-36,"177":-9.485850762456088e-37,"178":9.559260992820173e-37,"179":-5.226417262685974e-37,"180":-3.2309031732067997e-37,"181":5.1603270134275e-38,"182":1.9577871810096138e-36,"183":1.1917586436495694e-36,"184":-3.70426545413367e-37,"185":5.61218728032072e-37,"186":1.1670806754229808e-37,"187":1.318853944160538e-36,"188":-1.5567691640808296e-36,"189":2.6532744682457042e-36,"190":-6.730477413759752e-18,"191":-2.317337836444632e-18,"192":-4.2160761045826506e-19,"193":-4.430601537966401e-18,"194":-3.0341866092433098e-18,"195":-7.687467569937898e-19,"196":-1.977174865448203e-18,"197":-2.3383323149186693e-18,"198":-1.555100810581722e-19,"199":-8.122779108059723e-37,"200":-8.56945872395252e-37,"201":-2.757474590327854e-37,"202":-2.8928041065074306e-37,"203":3.491176604834352e-36,"204":-5.498741309451507e-37,"205":-5.9216345295531896e-18,"206":-2.5211454785020063e-18,"207":-7.440774346183955e-20,"208":-5.0910538570933295e-18,"209":-3.681353160516047e-18,"210":-4.440883239640494e-20,"211":1.6139329964094856e-33,"212":1.2121013400174555e-33,"213":1.2865980123476538e-35,"214":8.419880377624279e-37,"215":2.3116509234308912e-36,"216":-1.870621465788669e-36,"217":3.5250853904382633e-37,"218":2.5853308758891328e-36,"219":-8.807784046528869e-37,"220":-4.259295299018045e-18,"221":-2.000781140028738e-18,"222":-3.652247419417012e-18,"223":-5.199395892215605e-18,"224":-1.054633390320839e-18,"225":3.430491971526237e-18,"226":2.2022068125897714e-18,"227":9.10685980977184e-19,"228":-1.4976952143098878e-18,"229":-4.851706130878132e-19,"230":1.9963526944322417e-19,"231":2.056907331809474e-18,"232":-4.930703514945356e-19,"233":1.4472398990472821e-18,"234":-3.7007698336444087e-19,"235":1.7030634305478623e-18,"236":-3.7986726821632624e-19,"237":1.0327849454128046e-18,"238":5.101500006251077e-20,"239":1.4543024726410057e-19,"240":8.514988235664028e-19,"241":8.640831251172404e-19,"242":8.2256337403736015e-19,"243":1.2354236210507406e-18,"244":3.985291819625074e-19,"245":5.523777202641888e-37,"246":1.973371744091748e-37,"247":-9.246805433156608e-37,"248":-1.6582733238715006e-37,"249":-3.2198981230612357e-38,"250":1.0807688336880215e-36,"251":-1.7890496530388977e-37,"252":-1.1264319884200337e-36,"253":1.4771416642664827e-36,"254":-7.379362535747846e-37,"255":-1.4162447359353285e-36,"256":-1.159838793747108e-36,"257":-1.2670960058868782e-36,"258":-6.8187451619549225e-37,"259":1.2172945234597765e-36,"260":-1.3026910735493698e-36,"261":2.6318080646773057e-36,"262":-9.8816651218089e-37,"263":8.210337119850585e-37,"264":-2.1773649986544133e-36,"265":2.600998808514338e-36,"266":-1.3384676652698415e-36,"267":-1.0122787236193117e-36,"268":9.449896367312685e-37,"269":8.668714642410675e-39,"270":-4.093476942138654e-37,"271":-2.596514203953421e-36,"272":1.218021218350546e-36,"273":-3.4807664540564885e-36,"274":6.164459050089306e-39,"275":-1.75696411068552e-36,"276":-3.159441438900187e-36,"277":-1.0126048546622719e-36,"278":-1.0327616428758585e-36,"279":4.431583507414072e-37,"280":-1.3346470685283962e-36,"281":-1.7919856209231996e-36,"282":1.0097875766771682e-36,"283":-2.196074210958278e-36,"284":-1.4997623595282976e-36,"285":-1.0706065348776176e-37,"286":9.293474210240095e-38,"287":2.9078281406980132e-36,"288":-1.2932877018076632e-37,"289":1.2574689089028587e-36,"290":-2.805148362090179e-37,"291":1.6366151869473106e-36,"292":2.464412047999543e-37,"293":-8.646438477941346e-37,"294":5.872049418283914e-37,"295":-9.306399606754758e-38,"296":-9.238083522838508e-37,"297":-6.105143999468676e-37,"298":2.5431090634128737e-37,"299":-8.983421695672708e-37,"300":-2.0047744727660885e-36,"301":-9.902230382864523e-37,"302":-9.304369225635489e-37,"303":-2.1530195476334617e-36,"304":-1.0372988202273957e-36,"305":6.2481365999453914e-37,"306":1.353109829525337e-36,"307":1.3770387713879672e-36,"308":-6.32631152630194e-37,"309":-4.8413237149123725e-37,"310":1.5892213795706603e-36,"311":5.679724978406474e-38,"312":-2.4838106215724554e-36,"313":8.935000641863998e-37,"314":-1.660406491879836e-36,"315":-8.09388147798539e-39,"316":1.2332613893912746e-36,"317":1.3503156486246396e-36,"318":-1.8603478319097842e-36,"319":1.9384690631985748e-36}},{"sx":1,"sy":1,"depth":320,"w":{"0":-1.4844977771776885e-36,"1":-3.7776590252033646e-36,"2":2.604168101907129e-36,"3":1.1296724535449032e-36,"4":3.3835701398946135e-37,"5":-1.0391030253080856e-36,"6":-1.1445079801401627e-36,"7":-1.193561184418536e-37,"8":-5.615981550996284e-37,"9":-1.3755547263857681e-36,"10":2.8006396140764562e-36,"11":3.593827108931181e-36,"12":-4.114195353787774e-36,"13":-1.215851340419358e-36,"14":3.049554686940761e-36,"15":3.554861942631457e-37,"16":1.4996977681764503e-36,"17":-2.8710691177398134e-37,"18":-5.1587049826813585e-36,"19":-5.747795460246612e-37,"20":-2.676145136952144e-36,"21":-7.648136310725084e-37,"22":-3.689479216296863e-36,"23":-2.959075332680664e-36,"24":-1.7957598448020343e-36,"25":3.4928253351149163e-37,"26":4.165460731916077e-36,"27":1.1691369875017483e-36,"28":-7.596443618931872e-36,"29":-7.32003260611912e-38,"30":-2.251137635242622e-36,"31":-8.69529876131954e-37,"32":-5.01172143053426e-36,"33":-3.1639853308792898e-37,"34":-1.6907287598705788e-36,"35":1.8355860318770309e-37,"36":3.6937566042815934e-36,"37":-1.3734272099198457e-36,"38":2.342703006299762e-36,"39":-1.7208038596353344e-37,"40":-4.0758251217479473e-36,"41":5.321376212347858e-37,"42":1.306153601386089e-36,"43":8.963773151182258e-37,"44":-4.740594640519065e-36,"45":1.740715170115493e-36,"46":-2.2313645445627075e-36,"47":4.862233174270349e-37,"48":-4.081146758212308e-36,"49":6.340461672327739e-37,"50":-2.735276489299831e-36,"51":8.525794900038447e-37,"52":-3.460594129288412e-36,"53":1.0171515457883793e-36,"54":-4.0749202047957144e-36,"55":9.380322792687575e-37,"56":1.5609981068241635e-36,"57":-2.0325259731743246e-36,"58":-8.454886868510134e-36,"59":3.594393347741843e-37,"60":-5.731245578418175e-37,"61":-3.1203151927643e-36,"62":7.721286637142477e-37,"63":-2.3229092653352263e-36,"64":-4.764788326904404e-36,"65":3.6814564649639422e-37,"66":7.572021968620641e-37,"67":-9.33901428835462e-37,"68":-4.0325496715081804e-36,"69":1.6815017937781197e-36,"70":-1.058232903279501e-36,"71":-1.4829928948831002e-37,"72":-4.213316392333223e-36,"73":-3.4006924993524414e-36,"74":-2.1442177486004447e-36,"75":-4.62930319692236e-37,"76":-3.278820006618124e-37,"77":-2.3267648685592408e-36,"78":-2.3309229408860767e-36,"79":-4.437328947858269e-37,"80":-2.6025297716945908e-36,"81":-2.305947292890039e-36,"82":5.680812851390332e-36,"83":6.501954222793976e-38,"84":-3.15936975720648e-36,"85":1.6043046053295047e-36,"86":-5.0294630425916224e-36,"87":7.964810883105964e-37,"88":2.418646210520469e-36,"89":1.473606978576122e-36,"90":-4.0418272800973756e-36,"91":-1.9378975924829483e-36,"92":2.372960643286702e-36,"93":-4.612210629290594e-36,"94":-1.0257053076877811e-36,"95":-2.903753469498017e-36,"96":-2.6768273225683852e-36,"97":-1.3618686180309179e-36,"98":-6.374493843359471e-36,"99":-5.309677162324214e-37,"100":-6.243102706792368e-36,"101":-3.9188959784837565e-37,"102":1.6857621117284197e-36,"103":-1.9284414944303916e-36,"104":-4.486161179938732e-36,"105":-1.5043412576647415e-36,"106":4.174628225448982e-36,"107":1.5740063146505582e-36,"108":3.0263693732271567e-36,"109":-1.696963365811195e-36,"110":5.6077778767558984e-36,"111":-1.0559997414943548e-36,"112":1.7074678810016654e-36,"113":9.863467208323233e-37,"114":3.38758968839929e-36,"115":-1.8533038647322503e-36,"116":2.869094331028145e-36,"117":-8.302988891056565e-38,"118":1.530228432353398e-36,"119":2.845435692346636e-37,"120":-2.108824502749677e-36,"121":1.083008788516558e-36,"122":-5.690668913156754e-36,"123":-1.954970671768008e-37,"124":-1.0575832163346554e-35,"125":-6.17275613240575e-36,"126":-5.317782294836322e-36,"127":1.0600307807687026e-36,"128":-4.2533630818925715e-36,"129":1.3474121917122825e-36,"130":8.151579945295363e-37,"131":-5.985972609573554e-37,"132":-6.28441427509083e-37,"133":-4.238955785260094e-37,"134":3.252639240274714e-36,"135":-1.841417942195847e-36,"136":-1.2224633543753856e-36,"137":-9.825642051019876e-37,"138":-2.532972568363821e-37,"139":1.204911147942223e-36,"140":-8.017539556358566e-37,"141":-2.581152421662102e-36,"142":2.1683795996028642e-36,"143":1.47828692147503e-36,"144":-1.9240297266045643e-37,"145":-1.0914921663724015e-36,"146":-4.473487721229065e-37,"147":-4.789861059547087e-37,"148":3.4138793301569526e-37,"149":-4.758280716900249e-37,"150":-1.4602815561013805e-36,"151":2.6900292833692808e-36,"152":-4.886488230744928e-37,"153":1.634709006987219e-38,"154":1.050376686341914e-36,"155":3.318921845078712e-37,"156":1.761241467497498e-36,"157":-1.6851415623975893e-36,"158":1.078602562817769e-36,"159":-8.050296561686943e-37,"160":1.726871489279603e-38,"161":-8.574464518951135e-38,"162":8.193889755709098e-37,"163":8.812695615985944e-37,"164":6.6859983628295185e-37,"165":3.7019156480008946e-37,"166":-2.2062898334080924e-36,"167":1.0528074522748652e-37,"168":-4.122738759385342e-37,"169":-1.4909262738388917e-36,"170":-2.1645792826008075e-36,"171":-4.223931545671445e-37,"172":1.084278800192956e-36,"173":1.1531192703966999e-36,"174":-3.1378398083992736e-36,"175":1.4194603546639209e-37,"176":-1.7050891078691382e-36,"177":-1.8380662971358248e-36,"178":-1.9689131257528065e-36,"179":-1.7064482388569262e-37,"180":-9.317314352735382e-37,"181":-8.353352370101695e-37,"182":1.1352203104533405e-40,"183":1.5524014184926864e-37,"184":-2.709767769307831e-36,"185":-1.2074173941268954e-36,"186":3.838271691269417e-37,"187":1.6912904514661578e-36,"188":1.0317457958452654e-36,"189":-1.7163042362553375e-36,"190":1.38806593814446e-36,"191":5.196304446082079e-36,"192":3.3290951235455442e-37,"193":1.605794748054706e-36,"194":3.821343025636486e-38,"195":-1.0512132723814725e-36,"196":-3.672740013946842e-36,"197":-8.961925459848169e-36,"198":-2.45952197447173e-36,"199":6.391725475241015e-37,"200":-1.5342539970307125e-36,"201":1.021763068335096e-36,"202":6.932344977789959e-38,"203":-6.141652177415232e-37,"204":1.1610777724542819e-38,"205":-1.3455434332144078e-36,"206":4.01127026640101e-37,"207":5.306434691257527e-37,"208":-2.089228515070594e-36,"209":-3.918694871547478e-36,"210":-1.7312778523375624e-36,"211":-2.9500768988988637e-37,"212":1.0423084985228323e-36,"213":7.811620170888919e-37,"214":2.797165241804322e-36,"215":-3.2049373496112907e-37,"216":6.551496140783812e-37,"217":1.844461940716342e-36,"218":6.908984715717177e-37,"219":9.107693073481055e-38,"220":-4.076349499795586e-36,"221":9.491782958865618e-37,"222":-2.0796153405843245e-36,"223":-4.874505123857413e-36,"224":-9.556430852197402e-37,"225":1.6861726422581866e-36,"226":-1.752304683055642e-36,"227":1.3348507077083009e-37,"228":4.244003296185605e-36,"229":9.315768540928126e-37,"230":3.028178504170481e-36,"231":2.2020268795017235e-36,"232":2.4163798746277797e-36,"233":6.04002655311148e-36,"234":2.413341417436794e-37,"235":1.1987215929648069e-36,"236":-1.515407918610059e-37,"237":-2.019692610274813e-36,"238":1.871728655434112e-36,"239":3.465955194583618e-36,"240":4.653560447806871e-37,"241":5.5752607298068264e-37,"242":1.2595250889084323e-36,"243":1.515943210619592e-37,"244":-4.587758616547775e-37,"245":-3.6438594769943803e-37,"246":-5.538371669703603e-37,"247":2.9965423279627483e-36,"248":-2.183207124912357e-36,"249":-7.615899967670623e-37,"250":-1.143027565859115e-36,"251":1.623924685145759e-36,"252":-1.3295404779988413e-36,"253":-1.1001029363678676e-37,"254":-1.3607291548259818e-36,"255":1.1554684458629248e-36,"256":-9.955329433215469e-37,"257":-2.2144561256749818e-36,"258":-9.821666427290503e-37,"259":6.248560050077629e-37,"260":5.3994095117411805e-37,"261":-1.4042641735967641e-36,"262":-2.2640538268213735e-36,"263":1.2884520156672508e-36,"264":5.996845296080772e-37,"265":-6.0143364745172076e-37,"266":-1.3310397031637195e-36,"267":2.7881543737713776e-37,"268":-3.378650253662459e-37,"269":8.00337245227281e-38,"270":1.8339734971268338e-36,"271":-3.127760313006658e-36,"272":-3.7118288503460247e-38,"273":-4.349120904087556e-37,"274":-3.475037521549508e-36,"275":1.4491587412579708e-36,"276":-6.443188015155246e-38,"277":-7.634087819773607e-38,"278":-3.7323079019285234e-37,"279":-2.2699760611304016e-37,"280":1.47527623300724e-36,"281":1.1064975379207472e-36,"282":-3.323931639104283e-37,"283":-7.388511614750203e-37,"284":3.77399583062671e-37,"285":1.1692462950608805e-36,"286":5.129936026226526e-37,"287":6.181348841692668e-37,"288":2.3559554862849048e-37,"289":-2.5762441268214098e-37,"290":-8.355116993740053e-37,"291":1.1316302591307108e-36,"292":-2.788744062227858e-36,"293":-3.367224467567256e-36,"294":-1.360112138662523e-37,"295":2.085714636770048e-36,"296":5.675263111477392e-37,"297":-2.969830571871195e-37,"298":1.0916143356499786e-36,"299":-1.2722143686947924e-36,"300":4.540296549847868e-37,"301":2.7073121639020733e-36,"302":-2.6301919077296015e-36,"303":-2.5733777971426816e-37,"304":-5.8282790778377955e-37,"305":1.0441285475022383e-36,"306":1.3350260169234386e-36,"307":7.236511823492568e-37,"308":2.3274520497012718e-36,"309":-7.670604009312682e-37,"310":1.7090354813925067e-36,"311":1.4311417602089093e-36,"312":-1.9142166510547967e-36,"313":2.2848685497032627e-37,"314":1.5264532233113466e-36,"315":1.539841757378746e-36,"316":-1.3399581198155571e-36,"317":-2.305681732320115e-36,"318":3.5580052465772084e-37,"319":1.2887420983969413e-36}},{"sx":1,"sy":1,"depth":320,"w":{"0":1.3836917193388498e-37,"1":-2.5095135341256846e-37,"2":-1.1592280964735725e-36,"3":-5.361155309015015e-37,"4":2.277197931164852e-36,"5":-1.533304882134607e-36,"6":-1.2985533543121034e-36,"7":9.438784306211878e-37,"8":-1.644207332423256e-37,"9":-1.7902336568409218e-36,"10":6.795687653011877e-37,"11":-1.3015221526601631e-36,"12":-2.5687767671260744e-36,"13":1.5904731769513292e-37,"14":-1.6011983066147483e-36,"15":4.5871187597202e-37,"16":-8.563894337156242e-37,"17":-7.83963239001124e-37,"18":-2.2873223478025693e-36,"19":-6.894886264943787e-37,"20":4.88470624264759e-37,"21":2.4925476708523447e-36,"22":2.4803809670513372e-37,"23":2.8191871655841964e-36,"24":2.4699764584007066e-36,"25":-2.3676062233005655e-36,"26":-1.6604597750912648e-36,"27":-3.589581824585148e-36,"28":1.8163663615377085e-36,"29":-8.22334373323689e-37,"30":-3.615687776059652e-37,"31":7.515061069083035e-37,"32":-7.083046469224338e-37,"33":-3.5177766891387846e-36,"34":-1.3484958579613957e-36,"35":-2.1624329664243395e-36,"36":-1.4352038777608946e-36,"37":-3.4849658976161103e-37,"38":-1.7697780307834114e-36,"39":-1.9536783900109935e-36,"40":-1.748032633261756e-36,"41":-1.591423939165224e-36,"42":-1.5803462749785599e-37,"43":-1.6357238562975574e-36,"44":-1.1718888928581481e-36,"45":1.3173528452405674e-36,"46":-1.4256770545157457e-36,"47":-1.539164560181986e-36,"48":2.1949809770539592e-36,"49":2.767195049396155e-36,"50":-1.7345028482458506e-36,"51":-1.0110614708028774e-36,"52":-5.470608817126799e-37,"53":2.318594782359769e-37,"54":8.377257341469065e-37,"55":9.557359663096712e-37,"56":4.962588495119893e-37,"57":2.0917497937960354e-37,"58":7.118690026272986e-38,"59":-1.480376976669528e-36,"60":1.0815849974865196e-36,"61":-1.1356982268607085e-36,"62":1.4920265037746653e-36,"63":-1.532309923618448e-36,"64":-6.0959999873127595e-37,"65":-4.670980302729391e-37,"66":1.0142325315475346e-36,"67":4.198365369114842e-37,"68":-1.112969734551985e-36,"69":-3.0972937954286227e-37,"70":-1.6731287847646494e-36,"71":-2.2018698015140427e-36,"72":-1.0870030120662493e-36,"73":3.1942935281552123e-37,"74":3.319928286163881e-37,"75":-4.4292181405462494e-37,"76":2.074963339273691e-36,"77":5.668965027958852e-37,"78":-1.0678689808868994e-36,"79":1.069859530005575e-37,"80":1.2759211802513634e-36,"81":5.792099105976603e-37,"82":-1.4542984317964665e-36,"83":1.0163177529482678e-36,"84":-1.3602829994793707e-37,"85":-1.3586478616710745e-36,"86":-1.8118523459674938e-37,"87":-1.1339131728669751e-36,"88":1.9060800269280867e-37,"89":-1.4573045356574324e-36,"90":8.341662937376383e-37,"91":9.571696543924359e-37,"92":8.657128822086443e-37,"93":3.833196535867015e-37,"94":-2.136566742415371e-36,"95":-9.47331926461478e-37,"96":-1.6897101536487912e-36,"97":-3.2215407894283796e-38,"98":1.0936137896858513e-36,"99":4.925092743558955e-37,"100":2.0840302482173397e-36,"101":7.395951899709366e-37,"102":-1.1605338534129812e-36,"103":3.053163297449518e-36,"104":-4.621895081589087e-37,"105":3.271955931791634e-37,"106":-2.0238979013461006e-36,"107":2.231657997677088e-37,"108":2.10429722508047e-36,"109":1.222401209270408e-38,"110":-1.5765718295318602e-37,"111":-2.8560621436771772e-36,"112":-5.883735440419346e-37,"113":6.911494722644745e-37,"114":-6.888670900209297e-37,"115":2.215378429019118e-36,"116":-6.123071445985823e-37,"117":-1.8394322223810386e-36,"118":1.1189374585559048e-36,"119":-4.193324851362155e-37,"120":-3.0766635261010335e-36,"121":2.4685577806738926e-36,"122":-8.445906630241304e-37,"123":9.537235839654587e-37,"124":-4.870505245386858e-37,"125":2.441757250271741e-36,"126":8.235353624136483e-37,"127":-2.86259930090566e-37,"128":-1.8542102372447475e-36,"129":-3.0462776779770896e-37,"130":1.3686588960339237e-36,"131":1.0206751672272594e-36,"132":1.0206642831083544e-36,"133":1.02007690417306e-36,"134":1.6851195137424574e-36,"135":2.9864821322196513e-37,"136":2.2978957569400514e-36,"137":2.6770287022130686e-37,"138":1.523964063846583e-36,"139":4.898077435865944e-37,"140":1.7422251860585485e-36,"141":-1.2495191076496933e-38,"142":9.977574742684444e-37,"143":-2.399647148362066e-36,"144":1.9659355016900325e-36,"145":-1.0820551134406776e-36,"146":1.0432028625151765e-36,"147":-1.43171591462178e-36,"148":6.859315197723091e-37,"149":1.3451171424639157e-36,"150":1.2039055115834204e-36,"151":-1.710002654703637e-36,"152":2.6255526186259274e-37,"153":-6.100744837181298e-37,"154":5.29748757482112e-37,"155":-1.1276439243364439e-36,"156":1.1939081016708864e-36,"157":-1.2159238891704637e-36,"158":-2.925691583385383e-36,"159":-2.2268282852966823e-36,"160":4.825461398193896e-37,"161":2.6631244913449787e-36,"162":1.0477569996989428e-36,"163":1.2228980439621077e-36,"164":-1.4081602795235873e-36,"165":-1.8693361615769e-36,"166":-1.2661479406046247e-38,"167":-2.830440409518159e-36,"168":-4.8370242556161265e-37,"169":-1.7545278532254822e-37,"170":6.7083495251461424e-37,"171":1.1471584215857136e-36,"172":-3.9592526680212606e-37,"173":1.263092109663574e-36,"174":-2.6083429997380215e-37,"175":-6.27581535193964e-38,"176":-1.9196564537520278e-36,"177":-1.2016347272769454e-36,"178":5.560089963933128e-37,"179":9.335365200109204e-37,"180":1.903053393429385e-36,"181":1.6498907232640232e-36,"182":-2.0414820636108946e-37,"183":-2.4840494369327396e-36,"184":1.3149063806800203e-36,"185":-3.850013900325344e-37,"186":2.211116952611322e-36,"187":5.133459887418709e-37,"188":-1.1562485776710093e-36,"189":1.2201234951869698e-36,"190":-8.341189239404045e-37,"191":1.2535061242873752e-37,"192":3.6660410787354377e-38,"193":3.786648330011442e-37,"194":2.699642978883815e-38,"195":1.3840241220797919e-36,"196":6.649100181688855e-37,"197":-1.8384707202708542e-36,"198":-1.3828066385713076e-37,"199":3.7035960656929757e-36,"200":-1.2101915223310803e-36,"201":5.702112167393031e-37,"202":-1.639353237934699e-36,"203":6.064437452241603e-38,"204":-2.9715044975291747e-36,"205":3.110736969269412e-36,"206":6.582023422550175e-37,"207":-8.891885336818269e-37,"208":-6.634651710275065e-37,"209":-5.467735448610941e-37,"210":1.615771428228487e-37,"211":-2.431847403791552e-36,"212":-1.5048884175836496e-36,"213":1.8979552682777483e-36,"214":4.146948049443224e-37,"215":1.888932896205855e-37,"216":1.414935073066648e-36,"217":1.442999708090924e-36,"218":3.9464137378643975e-37,"219":-1.5506949280940813e-36,"220":-1.0899837178724984e-36,"221":1.5243368379967878e-36,"222":2.7044299900861316e-37,"223":-2.5310448679141558e-36,"224":5.868013319538496e-37,"225":-7.889836878826696e-37,"226":1.4968055673876396e-36,"227":2.64828844485111e-37,"228":-2.282795976813889e-36,"229":-1.0685071777084212e-36,"230":1.4134678954096416e-36,"231":-1.8556074940502718e-37,"232":1.1363309024445422e-36,"233":8.703907815446492e-37,"234":-1.952662325182068e-37,"235":-7.331408631502181e-37,"236":-9.847327628757125e-37,"237":1.939454949106904e-36,"238":1.1014420243348956e-36,"239":-7.692368135990376e-37,"240":1.7740022037494002e-36,"241":6.551947519443186e-37,"242":2.717628345220478e-37,"243":1.912814555064718e-36,"244":-1.2945568598763814e-36,"245":-7.189767534204209e-37,"246":-2.7302652654989793e-36,"247":1.7301602775033814e-37,"248":-3.3959883247703356e-36,"249":-1.7606226695339034e-36,"250":-1.3566189717267467e-36,"251":1.7747652403871395e-36,"252":7.160764537175492e-37,"253":1.5466655194975196e-36,"254":-2.977197498755331e-36,"255":-2.3986594952392665e-37,"256":-1.0395242277940222e-36,"257":1.4376112730797002e-36,"258":-4.8785529755782405e-37,"259":1.0196770172518192e-36,"260":1.9400339763239807e-37,"261":7.484183744562987e-37,"262":3.225125691460025e-36,"263":9.58478575557813e-37,"264":-5.51890548790379e-37,"265":-3.768997224280351e-37,"266":1.7955993571219906e-36,"267":9.932926738389626e-37,"268":1.6867265599912682e-37,"269":1.2273036228712034e-37,"270":-1.2041397835365824e-36,"271":-5.856936703859458e-37,"272":8.20300189661084e-37,"273":-2.3924680569474243e-37,"274":-9.64327298448866e-37,"275":2.6093243596307187e-36,"276":-3.843674904260692e-37,"277":9.240379504371327e-37,"278":-4.671728730486912e-37,"279":-2.021738449983606e-37,"280":3.4379493820791744e-37,"281":-2.3613430176708856e-36,"282":8.288400063210248e-37,"283":-1.5588318033030968e-36,"284":-2.600404313306179e-37,"285":1.2940437020253129e-36,"286":1.6141007465686867e-36,"287":2.018318602562676e-36,"288":-1.8171892172094222e-37,"289":5.254450772359106e-37,"290":1.1947567629602387e-37,"291":-6.263868811975689e-37,"292":-2.043440026099878e-36,"293":-1.4507075543581108e-36,"294":-9.016896943421565e-37,"295":-7.7820500044336e-38,"296":4.001634949393857e-37,"297":1.3541124173785506e-37,"298":4.9397768191118184e-37,"299":2.2554661209747597e-36,"300":-4.423189341498074e-37,"301":-2.2560326215532143e-37,"302":-1.1279864769236798e-36,"303":9.726313700296643e-37,"304":1.6166978191205227e-36,"305":9.717510170300253e-37,"306":8.591174345806861e-38,"307":-7.317663299374607e-37,"308":1.4991595678295932e-36,"309":-2.7531445019206442e-36,"310":-2.9625409427808114e-36,"311":5.216070744668862e-37,"312":6.266149390148912e-37,"313":-4.3424119119225315e-37,"314":-1.3554813883339895e-36,"315":1.8772189780037385e-37,"316":-1.1491492015695424e-36,"317":-1.831699441524384e-36,"318":-2.078842669960201e-36,"319":6.70988060083849e-37}},{"sx":1,"sy":1,"depth":320,"w":{"0":-3.5416101851423074e-31,"1":-3.0901743335487626e-31,"2":3.627403738336004e-37,"3":1.7654361499700403e-36,"4":1.6732112380930962e-36,"5":-5.661156296319973e-37,"6":-2.5771637653017847e-34,"7":-3.820313155752859e-37,"8":-1.6709962334730834e-36,"9":3.25695617672875e-36,"10":-1.4320494068091467e-31,"11":-1.3326036236651493e-31,"12":-1.341878681685214e-31,"13":-6.510186232415235e-32,"14":-2.510152370244774e-31,"15":-3.4625509892798483e-32,"16":-1.7409573667607211e-31,"17":-1.4879016844874395e-31,"18":-1.7355679067167837e-31,"19":-5.475771550581731e-32,"20":-2.264692807436529e-31,"21":-3.8666225917345915e-32,"22":-2.035668029843585e-31,"23":-1.6075100680770361e-31,"24":-1.4143627330534215e-31,"25":-4.162188314151953e-32,"26":-1.9901562064002484e-31,"27":-3.0618005731770607e-32,"28":-1.6946775939033536e-31,"29":-1.699406921575732e-31,"30":-1.5859073708656984e-31,"31":-4.175095665880598e-32,"32":-2.6867144221782423e-31,"33":-3.292269832465546e-32,"34":-1.9500992461026456e-31,"35":-1.765894099993751e-31,"36":-1.19412572302227e-31,"37":-4.09403146392124e-32,"38":-2.5693413818257986e-31,"39":-3.455549806565132e-32,"40":-2.3078172445528685e-31,"41":-1.8567412965698827e-31,"42":-9.586376626850487e-32,"43":-4.433150325272029e-32,"44":-2.6183131208367053e-31,"45":-3.6579545795954046e-32,"46":-1.653107306587744e-31,"47":-1.956088755782407e-31,"48":-1.995849599629871e-31,"49":-4.49219115541802e-32,"50":-2.801486839894174e-31,"51":-3.783939877048657e-32,"52":-2.156422488081802e-31,"53":-2.0752522972053697e-31,"54":-2.3460507510879682e-31,"55":-5.182667513490066e-32,"56":-2.59478403337524e-31,"57":-4.1463453151593785e-32,"58":-2.15436004178393e-31,"59":-2.1849885137927557e-31,"60":-9.441890832662275e-32,"61":-4.5290854713666035e-32,"62":-2.401955927019915e-31,"63":-4.072294550614562e-32,"64":-2.1746328601506092e-31,"65":-2.2947224997741596e-31,"66":-1.112362150602083e-31,"67":-3.734643147525205e-32,"68":-2.8637717325920745e-31,"69":-3.633406303522764e-32,"70":-1.845013945677739e-31,"71":-2.40375175316256e-31,"72":-1.6995459434849164e-31,"73":-4.6185190461759463e-32,"74":-2.958204551507194e-31,"75":-4.3861159602412935e-32,"76":-2.4118021380185012e-31,"77":-2.562539838922438e-31,"78":-1.8341292783962662e-31,"79":-4.7558090072110085e-32,"80":-2.311892257579763e-31,"81":-5.139703294673243e-32,"82":-1.5384718391595453e-31,"83":-2.6651525811508353e-31,"84":-1.349544998316518e-31,"85":-4.28765509859916e-32,"86":-2.4023076185238164e-31,"87":-5.398716122912707e-32,"88":-1.829494200850626e-31,"89":-2.7584996320083022e-31,"90":-1.4044603188488467e-31,"91":-3.897901178055428e-32,"92":-3.095868885517279e-31,"93":-6.262128214127495e-32,"94":-1.4281412754279463e-31,"95":-2.8632739488733753e-31,"96":-1.467707841047921e-31,"97":-4.4371205977583845e-32,"98":-2.739555067481518e-31,"99":-6.901025263833938e-32,"100":-1.4236043602472769e-31,"101":-3.0293066562983596e-31,"102":-1.6739259081410791e-31,"103":-3.980870923890025e-32,"104":-2.4196027384410298e-31,"105":-3.723915738557601e-32,"106":-1.6996530803855433e-31,"107":-3.1255092772145473e-31,"108":-1.5252394959389659e-31,"109":-4.0294570962599936e-32,"110":-2.47257605654961e-31,"111":-4.1816548758844694e-32,"112":-8.513198132125738e-32,"113":-2.8802388051852185e-31,"114":-1.812455011393343e-31,"115":-4.105426036916254e-32,"116":-1.9198448987004302e-31,"117":-4.160945294394111e-32,"118":-1.0832464515602724e-31,"119":-2.357949754448643e-31,"120":-1.2001257693458114e-31,"121":-2.631784863864673e-32,"122":-1.603976542566289e-31,"123":-5.290427590771926e-32,"124":-1.1878910981778432e-31,"125":-1.8440464227175034e-31,"126":-1.2459532089761613e-31,"127":-1.6437552658669353e-32,"128":-1.115341976107355e-31,"129":-1.7646749310186153e-32,"130":8.937368285652209e-37,"131":1.0434831308153706e-36,"132":1.3886034147492766e-37,"133":1.3233700774809585e-36,"134":2.6486483773705038e-36,"135":-3.84539906042357e-37,"136":9.179645407960675e-37,"137":2.6176601902356038e-36,"138":1.6228299675195414e-38,"139":1.5705570573351245e-36,"140":1.0683788598423314e-36,"141":3.1889866789954235e-36,"142":1.5538983252051117e-36,"143":2.32439233660023e-38,"144":-1.7050623620879992e-36,"145":-1.3821338241829082e-36,"146":-1.8212155245737772e-36,"147":-4.9725925838158924e-37,"148":-8.989401994809432e-37,"149":-1.8738807370775478e-36,"150":-1.4823366852988714e-36,"151":-2.6074255305438088e-36,"152":-1.915960645830438e-36,"153":-1.2883849401724621e-36,"154":-2.3357411017017655e-36,"155":-8.495043985356177e-37,"156":2.131065994737066e-37,"157":-3.947965128994365e-37,"158":5.081155212923652e-37,"159":-1.460009257220107e-37,"160":4.3686520917982743e-36,"161":-6.891734600828881e-37,"162":1.9131155343283618e-36,"163":-2.516852436749883e-36,"164":-1.7036495634804167e-36,"165":-3.129434694361894e-36,"166":-1.86715172589247e-37,"167":2.757135425528601e-37,"168":1.1099212610635306e-36,"169":4.214280720857956e-37,"170":1.4034290922513646e-36,"171":-6.04754099314838e-37,"172":-9.14815596516472e-37,"173":-3.4897953216676344e-36,"174":-1.6644906557119777e-37,"175":3.4360106492132423e-37,"176":1.568346772701239e-38,"177":-1.1212762150876539e-37,"178":1.1997814638169815e-36,"179":1.5897187882204407e-36,"180":5.1969292932834776e-37,"181":2.485510231029528e-37,"182":1.0661428911006573e-36,"183":1.515917121031315e-36,"184":-1.0900250671122748e-36,"185":-9.330304280856119e-37,"186":1.2676918942475794e-36,"187":1.2588502822657163e-36,"188":-1.9862612956682446e-37,"189":-1.000888321026733e-36,"190":-2.773077251631525e-31,"191":-1.2721773683458565e-31,"192":-2.0567861022619378e-32,"193":-1.2294348681164356e-31,"194":-1.0425068090198787e-31,"195":-2.766485777342426e-32,"196":-9.290233571925595e-32,"197":-1.328135905684834e-31,"198":-7.613174046176578e-33,"199":-1.221433122042639e-36,"200":-3.5236011664699706e-36,"201":2.2921129265040944e-36,"202":-1.3562228517510942e-36,"203":-3.54833007908785e-37,"204":2.5858436612373873e-36,"205":-2.2482073511187036e-31,"206":-1.3263747648697055e-31,"207":-3.063206950854114e-33,"208":-1.9915613364782285e-31,"209":-1.650376888033836e-31,"210":-1.718169916266152e-33,"211":-8.889062842972905e-33,"212":-6.649164805617321e-33,"213":-6.573008880150983e-35,"214":-1.2684119524416746e-36,"215":8.826434350212768e-37,"216":5.512967522887707e-37,"217":-2.0824039201880145e-37,"218":-3.2141385721884915e-37,"219":1.832981207153919e-36,"220":-1.684322651883741e-31,"221":-1.2835844436444887e-31,"222":-1.6219946115861373e-31,"223":-2.206093383819505e-31,"224":-7.062751242485768e-32,"225":-1.5439886388630923e-31,"226":-1.2615313503901821e-31,"227":-9.18526068791613e-32,"228":-1.6410838764180114e-31,"229":-7.185271247422294e-32,"230":-7.116574790161824e-32,"231":-5.555588239543475e-32,"232":-7.132170592453497e-32,"233":-1.022694804861262e-31,"234":-5.160545800231107e-32,"235":-3.011209023530328e-32,"236":-3.913366628047443e-32,"237":-2.9953141959707406e-32,"238":-4.49206358495891e-32,"239":-1.6487820078998447e-32,"240":-4.242169400968034e-33,"241":-1.0081524601374297e-32,"242":-4.221210613982432e-33,"243":-1.0642876102204417e-32,"244":-3.0399412217263223e-33,"245":6.7599785495086885e-37,"246":-9.11080734439581e-37,"247":5.503972649629409e-37,"248":-5.693938330512297e-38,"249":-7.157598104938284e-37,"250":-2.3703070206391117e-36,"251":7.539260903300157e-37,"252":-4.04377014451292e-37,"253":3.0229383192148995e-36,"254":1.3312244262837415e-36,"255":-1.1523385513962605e-36,"256":-7.769548816433973e-37,"257":9.576421356621068e-37,"258":7.978050563939379e-37,"259":-4.935113734984778e-38,"260":-1.495254731269873e-36,"261":-3.7021806993130864e-37,"262":-2.01629473198736e-37,"263":3.255069341462896e-36,"264":-8.36077093797872e-37,"265":-4.561417586947093e-36,"266":1.2478900325246877e-37,"267":3.5836073837728893e-37,"268":-3.2852181538820868e-37,"269":-2.451239897412343e-37,"270":-9.021594746767763e-38,"271":-1.85593349182608e-36,"272":-7.510968566235359e-37,"273":-2.3482711144185435e-37,"274":1.1339169214835238e-36,"275":1.744291315950239e-36,"276":-4.283103576231679e-37,"277":1.9704652069460944e-36,"278":3.270243804507907e-38,"279":1.4264901408267666e-36,"280":4.37813893556651e-37,"281":-2.256281196494422e-36,"282":2.8896542693217035e-38,"283":-1.9002868928131128e-36,"284":-6.610006497760911e-37,"285":-1.2263563694362294e-36,"286":2.890924369050567e-37,"287":-7.918630350115038e-37,"288":7.453718020978834e-37,"289":2.4300418337151212e-37,"290":1.5429408213691936e-36,"291":-6.2713813533838995e-37,"292":3.098808878005779e-36,"293":8.580731757061566e-37,"294":3.1114915636395835e-37,"295":-1.1075004071631323e-36,"296":-1.1504600534364029e-36,"297":-7.236444013012162e-37,"298":-1.3363183176192241e-37,"299":1.177565530907785e-36,"300":1.1381166142470682e-36,"301":-1.2089570549563664e-36,"302":8.697839752132395e-38,"303":-1.9598868829812864e-36,"304":2.658726339508761e-36,"305":-1.4236477218992622e-36,"306":2.6102907071974207e-36,"307":6.302494548877218e-37,"308":5.934891818538905e-37,"309":3.0967188851016434e-37,"310":-3.5284367741647872e-37,"311":-2.2851123003326556e-36,"312":9.834937968238887e-37,"313":2.1643741624613214e-36,"314":-2.1911700671424213e-36,"315":1.2881404624925398e-36,"316":1.691313059493567e-36,"317":7.562514924210126e-37,"318":7.391460006674039e-38,"319":2.2641360536752127e-37}},{"sx":1,"sy":1,"depth":320,"w":{"0":-7.296354154033961e-37,"1":-5.543869573501729e-37,"2":-4.0611471131006045e-37,"3":4.722176131829488e-38,"4":2.248263805541869e-36,"5":7.804280616743911e-37,"6":-1.0085978718430346e-36,"7":2.080275541951488e-36,"8":1.1413195043552728e-36,"9":-2.39704219324737e-37,"10":5.502893959766654e-37,"11":2.6561807813179538e-37,"12":-1.9616976612948852e-36,"13":3.056973678182345e-37,"14":5.716628655378755e-37,"15":-1.7838024019441682e-36,"16":-1.1241898700143964e-36,"17":-7.606684126950155e-37,"18":-4.863440080752957e-37,"19":9.159958375113538e-37,"20":-6.98640670653805e-37,"21":1.0322336614246041e-36,"22":-2.9353448031252933e-36,"23":1.2096972933451919e-36,"24":-1.0635201626998976e-37,"25":-2.4227771546153354e-36,"26":-2.269898028780032e-36,"27":5.824091294157279e-37,"28":1.7629676981017373e-37,"29":-1.3109951743629393e-36,"30":1.1531001539313833e-36,"31":-2.080374405284375e-37,"32":-1.0549459007620593e-36,"33":6.55820717101011e-39,"34":7.739325887369454e-37,"35":-1.697348398686962e-36,"36":-9.61594877481006e-37,"37":-2.2341977067430242e-36,"38":-2.403851047324066e-36,"39":-5.603666024407683e-37,"40":-2.6071571295869398e-36,"41":-1.702710284379919e-36,"42":-3.266140753633998e-36,"43":7.725945523264748e-37,"44":-1.5365528918217922e-36,"45":-3.283822878549208e-36,"46":-1.689768967826366e-36,"47":-2.4448863545744666e-36,"48":-1.1889803513813207e-36,"49":-5.5119632666672504e-37,"50":-5.010761405804614e-37,"51":1.0004173385333249e-36,"52":-6.358458098721932e-37,"53":-2.159971023886447e-36,"54":-8.609789923236629e-37,"55":-2.8838038760181337e-36,"56":-4.4886129133409466e-36,"57":6.552365305480606e-39,"58":-6.517154713150324e-37,"59":-1.6446768798888336e-36,"60":5.817159182294127e-37,"61":-7.378617478083645e-37,"62":-1.8343954793399816e-36,"63":-1.6977651430879523e-36,"64":-3.550431716749336e-36,"65":-5.811012160819819e-37,"66":-5.4223979419931294e-37,"67":-1.0222194529526238e-36,"68":7.589690555968276e-37,"69":-9.655693466313427e-37,"70":-2.010610247624962e-36,"71":-2.4622624931437408e-36,"72":-5.5364011472096625e-37,"73":-3.1669266157089124e-36,"74":7.379469049178165e-37,"75":4.234049239098275e-37,"76":-1.620671249890443e-36,"77":-2.2593449020321778e-36,"78":-5.124644585775131e-37,"79":-1.0913013362917512e-36,"80":-3.523370208770878e-36,"81":-9.83108823327588e-38,"82":-7.304541963395384e-38,"83":-4.1067213560719136e-36,"84":-1.876989607702458e-36,"85":4.1274181296772026e-38,"86":-3.282407674781391e-36,"87":1.6583519898107143e-36,"88":-1.9832920640728598e-36,"89":-8.737254045594318e-37,"90":-1.9412297916732954e-36,"91":3.441526809666412e-36,"92":-2.092254348102873e-36,"93":1.967301397738533e-37,"94":-6.814402119761729e-38,"95":-1.55357591800539e-36,"96":1.7036962058146507e-37,"97":-8.104916864645908e-37,"98":3.6562340740704753e-37,"99":-1.4527372082774343e-36,"100":5.115011617860925e-37,"101":-2.762427804824557e-36,"102":-1.5909113090139435e-36,"103":-1.7747726480967243e-37,"104":3.931140406052551e-37,"105":-6.317673263752774e-37,"106":-1.286480468048861e-36,"107":-9.831880534066037e-37,"108":-4.864391720251997e-38,"109":-1.4840933183444025e-36,"110":2.06086617701453e-37,"111":-2.1027310857851106e-36,"112":7.272429858844264e-37,"113":-7.407929105789705e-37,"114":2.7138418669272055e-37,"115":-2.3171809774933805e-36,"116":1.4991915775085268e-36,"117":-2.2170139761179388e-36,"118":-3.4755724868767453e-37,"119":-6.420652364888996e-37,"120":8.917698659515955e-37,"121":9.83665089866226e-38,"122":-1.0679904468481688e-36,"123":8.682519077096652e-38,"124":2.83826230509902e-36,"125":-1.441558162002962e-36,"126":-4.798392038859326e-37,"127":1.1883389372446706e-36,"128":-2.120744718066803e-36,"129":-8.276708002411991e-37,"130":-4.994096790055395e-37,"131":-8.26552380879185e-37,"132":2.60539584876278e-36,"133":-1.5990071255028857e-36,"134":-2.747012486858025e-37,"135":-2.120603825247438e-36,"136":1.4183781256055749e-36,"137":1.5396948984616423e-36,"138":2.800301802449501e-37,"139":-1.1387517539004478e-36,"140":5.430093539138522e-37,"141":-1.106453974400636e-36,"142":4.298632940467115e-37,"143":-1.7291045817199348e-36,"144":-1.4116835794982911e-37,"145":-1.1326823650427411e-36,"146":1.7945238265647802e-37,"147":-7.868961496906855e-37,"148":-1.0843522240278135e-36,"149":-7.821791791087703e-37,"150":-5.105350344237855e-37,"151":-7.022422406205223e-37,"152":1.6628173884610507e-36,"153":6.135251088952678e-38,"154":4.967423590305096e-37,"155":-6.829604181397936e-38,"156":-1.3028813894621128e-36,"157":-1.0574030916288927e-36,"158":-1.959108087846717e-37,"159":3.502877101965939e-37,"160":1.1262192410875186e-36,"161":-8.40400623740673e-37,"162":-6.0125205907657205e-37,"163":3.8628152275294865e-37,"164":4.688510292609096e-36,"165":1.82514914405569e-37,"166":-4.184871661024593e-37,"167":1.3530009504776889e-36,"168":1.651990864918809e-36,"169":-6.039770935710979e-37,"170":-7.379977436342916e-37,"171":3.574352240190597e-36,"172":-1.1552101791968627e-37,"173":-1.7808794091777487e-37,"174":2.139846099578543e-36,"175":-8.210954066851199e-37,"176":2.682419990720013e-36,"177":-4.331075946262207e-37,"178":1.0135109264471563e-37,"179":1.538342392364902e-36,"180":1.4996587659566437e-37,"181":6.035563968220659e-37,"182":3.600884002419639e-37,"183":-1.8248601786087118e-36,"184":7.4051658549654655e-37,"185":2.0711602929427068e-36,"186":2.466845674893143e-37,"187":-6.692616749405485e-38,"188":1.0896449381842673e-36,"189":-3.918964319033702e-38,"190":-1.611067160992863e-36,"191":-2.081226986907138e-36,"192":7.877645453343446e-37,"193":-2.7176862413937735e-36,"194":-3.5644291210495383e-37,"195":-8.880491080045778e-37,"196":2.1512296930294614e-36,"197":3.1186216321556596e-36,"198":2.5609507996091114e-37,"199":1.7669144668392703e-36,"200":2.0590587652134474e-37,"201":8.686782438640677e-38,"202":8.097102926168017e-37,"203":5.4984855683304124e-37,"204":1.6453803749133815e-36,"205":-1.2560442505854487e-36,"206":-7.405594079827674e-37,"207":6.3857241287158896e-37,"208":1.0631694188578646e-37,"209":-3.089102541975366e-36,"210":-4.511161864551037e-37,"211":7.462400804164114e-37,"212":-2.5087137924541045e-37,"213":2.9187908019589117e-37,"214":3.3233530275027705e-37,"215":1.152390544782897e-36,"216":-6.031132266263329e-37,"217":5.470905203102854e-37,"218":-1.8813769951256125e-36,"219":1.1272202591126126e-36,"220":-4.7105162170218735e-37,"221":-1.1025934158881256e-36,"222":-5.587433734013067e-38,"223":-1.7571850223857089e-37,"224":-1.2181204207653304e-37,"225":-1.3814546440028911e-36,"226":8.91316273355605e-37,"227":-1.3584621662137494e-36,"228":-2.100510047165304e-36,"229":2.5703166975662487e-38,"230":1.3306486231676506e-36,"231":-7.4898972126831564e-37,"232":2.0937193220221888e-36,"233":-3.153768654911497e-36,"234":-1.602291379077194e-36,"235":3.866201405461636e-37,"236":3.7029702481879368e-37,"237":1.2046783068905053e-36,"238":-1.8341929398062006e-36,"239":-2.4316704525524197e-36,"240":-1.5765958044078305e-36,"241":5.143282083458966e-39,"242":1.3490821196878407e-36,"243":-2.2484289447873563e-36,"244":-8.425861630429759e-37,"245":3.2932276316153014e-37,"246":2.2994797979285848e-36,"247":7.693970530955098e-38,"248":6.25688471976054e-37,"249":1.9779734916255446e-36,"250":7.276541101965585e-37,"251":-7.148559970823931e-37,"252":-1.3100574450708667e-36,"253":-1.1108531309030427e-36,"254":-4.154363506151891e-37,"255":5.4313195199146715e-36,"256":3.949841732049313e-38,"257":7.207394819658165e-37,"258":2.3295448391155922e-36,"259":-1.7041168148427777e-36,"260":-2.401562129187821e-37,"261":9.422471351689139e-37,"262":4.474233108061053e-36,"263":-1.8029095405826442e-36,"264":-4.6825018434420074e-38,"265":-1.0657812726682382e-36,"266":-1.143896720363125e-37,"267":-1.2549594011687082e-36,"268":-2.3209630703199704e-36,"269":1.2908312082560138e-36,"270":1.5920688976611032e-36,"271":2.6131123059010692e-36,"272":-4.032746582661212e-37,"273":-5.473106030781328e-37,"274":-1.5450147107264805e-36,"275":-5.58550870337058e-37,"276":1.241953777015312e-36,"277":4.374717949851002e-37,"278":1.5542130408855998e-36,"279":2.4418270309421754e-36,"280":2.634095591225914e-37,"281":-3.797626138904141e-37,"282":-2.241594549605628e-36,"283":-1.1680231061633905e-36,"284":2.0133668418176284e-36,"285":-9.489434680722125e-37,"286":3.88558791630439e-37,"287":-1.0222914312661013e-36,"288":1.2653635744605813e-36,"289":-4.115072145794236e-37,"290":6.396589400685417e-38,"291":7.998274577477472e-37,"292":-1.0243982757089922e-36,"293":-6.325908676412151e-38,"294":-1.113284116759498e-36,"295":4.463413000844568e-37,"296":-9.06616340037515e-37,"297":-1.295415583063639e-36,"298":1.073630180197526e-37,"299":7.804252210079341e-37,"300":1.5285208933881057e-37,"301":5.810960040410427e-37,"302":1.6607598656008793e-37,"303":-2.5615343555638468e-36,"304":1.0277960172535975e-36,"305":9.785409898184801e-37,"306":1.702229391387496e-36,"307":1.0474219373006986e-36,"308":2.9659865783844713e-36,"309":-5.383967512306267e-37,"310":-7.09792433634478e-37,"311":-4.771036898686688e-37,"312":1.000839922170049e-37,"313":8.856246878424001e-38,"314":2.3275707060977618e-36,"315":-5.5810296070680375e-37,"316":1.2767229910556575e-37,"317":1.0793382673704278e-37,"318":-9.888840193123924e-37,"319":2.6287886258979638e-36}},{"sx":1,"sy":1,"depth":320,"w":{"0":2.051137716355121e-37,"1":-4.1710168440615064e-36,"2":1.1504182448999196e-36,"3":1.428916096415773e-36,"4":3.4019792348503197e-37,"5":1.2117046994669914e-36,"6":2.1078833874573038e-36,"7":-1.285366264463841e-36,"8":-2.169923605440414e-36,"9":-5.0905990886310196e-37,"10":6.352413213460024e-37,"11":1.4125745569598187e-36,"12":1.5934291544091376e-37,"13":1.0626877838455922e-37,"14":3.040643917785339e-37,"15":-9.178999523989007e-37,"16":-8.795101025268378e-37,"17":-1.8334395719829004e-36,"18":-5.959651974206821e-37,"19":2.1437043143035254e-36,"20":-2.7572749732619476e-36,"21":-7.149473697540223e-37,"22":-1.9821959938302402e-36,"23":-6.264209578168536e-37,"24":5.372724988077531e-37,"25":6.440104163375059e-38,"26":1.800025042666409e-37,"27":1.0011002485736528e-38,"28":2.4229493570875755e-37,"29":3.010800779635998e-36,"30":4.125356348413629e-36,"31":-9.096276963017513e-37,"32":-6.756657476534458e-37,"33":1.2804039239845473e-37,"34":2.1904705767105104e-36,"35":-2.197424835170636e-36,"36":-1.478217150211314e-37,"37":8.914107074789368e-37,"38":-9.978788875198478e-37,"39":1.53674715767401e-38,"40":-4.089754928095725e-37,"41":-2.42875029709261e-37,"42":1.9618255832814894e-37,"43":1.383956238045532e-36,"44":1.8756123843109783e-37,"45":-2.4203482038733027e-37,"46":-9.855357300753231e-38,"47":5.372409286505475e-37,"48":3.713391310494721e-37,"49":1.907201932460114e-36,"50":-4.658723446676152e-37,"51":1.23552512626559e-36,"52":-2.5946793770224365e-36,"53":-1.9142475256160993e-37,"54":1.3149481985128604e-36,"55":6.2135823051348436e-37,"56":-7.327867341960279e-37,"57":9.94541521936148e-37,"58":-5.235178187956952e-37,"59":-3.269365265069713e-36,"60":-3.6577026790710687e-37,"61":1.016858048896557e-36,"62":2.6553488987771006e-36,"63":2.6585958379799737e-36,"64":1.6378019170381045e-36,"65":-2.175747332146214e-36,"66":-1.7757513273834665e-36,"67":3.2415769468998006e-36,"68":8.47620706180734e-37,"69":-9.709700966456882e-37,"70":-1.0494215661539739e-36,"71":-8.754929137371873e-37,"72":4.72112638949992e-37,"73":1.1679823520732444e-36,"74":1.3716785609668871e-36,"75":-1.222079034314155e-37,"76":1.704608391854951e-37,"77":-2.990097190689011e-36,"78":3.3742711729719434e-37,"79":3.470287744426057e-37,"80":4.7049449224791854e-37,"81":2.2441376625049435e-37,"82":-6.900910785369884e-37,"83":-3.5720589821793318e-37,"84":-1.8200028815485235e-36,"85":1.2383405309882864e-36,"86":-4.386019927842098e-36,"87":5.455286152796831e-37,"88":2.0109650574792216e-37,"89":7.1156827215247056e-37,"90":-8.71331753183777e-37,"91":-2.8600256057724595e-37,"92":-9.824425812149236e-37,"93":1.0275140452266339e-36,"94":-1.5039166240944745e-36,"95":-8.650184512155205e-37,"96":-2.9251437364339535e-37,"97":-1.2949921688742781e-36,"98":6.409241126378542e-37,"99":-3.4268790341076546e-36,"100":1.2061471480490547e-37,"101":1.3755555042892179e-36,"102":-1.8704107364781306e-36,"103":-6.123287423726934e-37,"104":6.585115406308462e-37,"105":-3.1407509207994864e-37,"106":1.6674316608531769e-37,"107":1.5848438070037908e-36,"108":9.868740008522165e-37,"109":3.409728861321612e-36,"110":7.734681084884539e-37,"111":1.7562788841483037e-36,"112":6.3978790092457665e-37,"113":-9.82559458013351e-37,"114":-1.9857198171415236e-36,"115":1.9987791798357004e-36,"116":-1.8056559292347963e-36,"117":4.873384794349883e-36,"118":2.621168786345289e-36,"119":2.249412003611496e-36,"120":-1.703518928527323e-36,"121":1.1002600644535439e-36,"122":-4.510131581927268e-37,"123":-4.890708176828181e-38,"124":-6.763285980191567e-38,"125":9.42205475997106e-37,"126":-6.963263277644458e-37,"127":-1.2961082571872593e-36,"128":6.074075969135536e-37,"129":2.5214153061201654e-38,"130":2.2125145579081037e-37,"131":-6.857829491560774e-37,"132":8.186096242289946e-37,"133":7.69812806221214e-37,"134":1.763320851104035e-36,"135":2.258675295293469e-36,"136":-1.7522775989346582e-37,"137":-7.114261485098665e-38,"138":-8.754742085324611e-37,"139":1.832257911451871e-36,"140":-1.521379198298382e-36,"141":-2.4460051904402045e-37,"142":1.2593027393289404e-37,"143":-4.690243226480259e-37,"144":-1.124600930464199e-36,"145":-1.2719866028852846e-36,"146":9.468802881586685e-37,"147":3.492392340885114e-36,"148":-6.6617799899238645e-37,"149":-4.343471999736034e-39,"150":3.232065384059456e-36,"151":-8.131618653277191e-37,"152":-1.8152812325016986e-36,"153":-8.824904957833862e-37,"154":3.693285177199476e-37,"155":-1.6680059230060833e-36,"156":6.2412696943590635e-37,"157":5.033869602644763e-37,"158":-1.1434411848462178e-36,"159":1.1754139623061844e-36,"160":-9.010674902777846e-37,"161":9.847331296994428e-37,"162":5.372956134793941e-37,"163":4.116314250191465e-37,"164":-1.1037509426001758e-36,"165":2.6516312218559565e-36,"166":3.7945107941707465e-37,"167":-1.3279531926532771e-36,"168":5.188180174180511e-37,"169":2.4476771434816843e-38,"170":-1.61030743012793e-36,"171":2.8926224954889434e-37,"172":-2.6200186508757742e-36,"173":-7.428498538997696e-38,"174":-5.88475801788423e-38,"175":7.692563058754548e-37,"176":-1.3800054701281277e-36,"177":1.6224512214191328e-36,"178":-2.518432084018679e-36,"179":2.187940468600781e-36,"180":-1.3048470309828939e-37,"181":1.157002846442342e-36,"182":-1.447671337833475e-36,"183":7.887805259012126e-39,"184":7.489110266175572e-37,"185":2.99401345613863e-36,"186":-1.878589127810917e-36,"187":-1.2383073282166994e-36,"188":-3.6065050533578545e-36,"189":3.220688408395384e-37,"190":5.459778371670237e-37,"191":-5.766519196237182e-37,"192":-1.3188421668285689e-36,"193":6.924693123266086e-37,"194":-1.3254978851539583e-36,"195":-2.2017772917772106e-36,"196":-2.705390104947314e-37,"197":2.6906778338440932e-36,"198":-6.485270278449001e-37,"199":-1.2815970571495105e-36,"200":-4.68363558132556e-37,"201":-2.4772197757466166e-37,"202":-1.127381676329776e-36,"203":1.6068037317701642e-36,"204":2.4257823247654935e-36,"205":3.0689992959781148e-37,"206":1.1006990673629671e-36,"207":1.5336312474970765e-36,"208":-1.2770179644327459e-36,"209":-6.256286668313633e-37,"210":-1.605758610677618e-36,"211":7.577448014699369e-37,"212":8.171163812261659e-38,"213":1.2204903368623866e-36,"214":-1.8757600791973576e-36,"215":1.6042121355494332e-37,"216":-1.9665181561536294e-36,"217":1.2963764690300823e-37,"218":-1.829737013837086e-36,"219":-1.0582441990759736e-36,"220":4.04796797986601e-37,"221":-1.2278101539806054e-36,"222":-7.443515257224072e-37,"223":-1.1946087872989626e-36,"224":8.031793249380418e-37,"225":-1.3825615671447325e-36,"226":2.5784038689930587e-37,"227":-1.6651853223167642e-37,"228":1.8369618037003396e-36,"229":-8.374929691676882e-38,"230":-3.012439037822699e-37,"231":-2.043894591410547e-36,"232":9.793326855534057e-37,"233":-7.871391973961005e-37,"234":3.5619009848106706e-37,"235":1.9016791418823658e-37,"236":-1.869028729682345e-36,"237":3.2969146913521914e-36,"238":3.729639482414939e-37,"239":7.776840293292045e-37,"240":-5.309384336496295e-37,"241":-8.226423215726797e-37,"242":3.012689353186828e-37,"243":-5.957567622087492e-37,"244":7.0672744327949435e-37,"245":-5.278318721997444e-37,"246":-2.435269882255544e-36,"247":-1.0656009119545546e-37,"248":-2.126972539084721e-36,"249":-2.8492233323832944e-36,"250":-1.867008606506815e-36,"251":2.2823068479761416e-36,"252":1.9562796027861775e-36,"253":-1.562779937431392e-37,"254":-2.005238503647034e-37,"255":-1.1229825315718871e-36,"256":7.707598088847375e-37,"257":-6.975879242153804e-37,"258":-1.3082840379805177e-36,"259":2.0239184408713358e-36,"260":1.5113815617183853e-36,"261":-7.766945919835839e-37,"262":-2.632297211473953e-36,"263":-1.010657979293231e-36,"264":4.277191292209149e-37,"265":-1.6008147014665037e-36,"266":2.2016324608452606e-36,