{"moveNetwork":{"layers":[{"out_depth":97,"out_sx":1,"out_sy":1,"layer_type":"input"},{"out_depth":26,"out_sx":1,"out_sy":1,"layer_type":"fc","num_inputs":97,"l1_decay_mul":0,"l2_decay_mul":1,"filters":[{"sx":1,"sy":1,"depth":97,"w":{"0":-0.13219037142970538,"1":-0.06784788159416887,"2":0.14740639120072516,"3":0.0943480134685568,"4":-0.09189585721290439,"5":0.06934932343054798,"6":-0.04667330140143899,"7":0.11276709154693891,"8":0.08620448577491717,"9":0.1147424504049326,"10":-0.14069858563309948,"11":0.025652785269249703,"12":0.09021588783996912,"13":-0.07785212093525945,"14":-0.06827056938598267,"15":0.046443018913986986,"16":-0.013080439331059283,"17":-0.0964061454554788,"18":-0.04356898992882691,"19":-0.220743539681551,"20":-0.18092706579516246,"21":0.05189647815036697,"22":0.035701130677748855,"23":0.006751278702695722,"24":-0.10811444820050695,"25":0.09502479057927977,"26":0.10810536880211347,"27":-0.07276061036968016,"28":-0.004118216151894965,"29":0.11569211371535564,"30":-0.08541119256594638,"31":-0.11945375532884503,"32":-0.06914761179835337,"33":0.06108880150297193,"34":0.20404938310381188,"35":0.011031913109669542,"36":0.0519167909066465,"37":0.09728547055875036,"38":0.008841794963891533,"39":0.010084404834392185,"40":0.053472519669208324,"41":-0.013734277003732613,"42":0.04711614503731218,"43":-0.04235013713483767,"44":-0.098447866803705,"45":-0.11803280578858731,"46":-0.1632628209554584,"47":0.18349688975767325,"48":0.0591693439644091,"49":0.021846951229350566,"50":-0.04071976435287543,"51":0.06515858746380873,"52":0.07905183489015462,"53":-0.051061105578576106,"54":-0.02012059309991496,"55":-0.05288620702538542,"56":0.054619574932604525,"57":0.0589891843731211,"58":-0.07093235037630086,"59":0.007953401252929681,"60":-0.16590917372412944,"61":0.09045721721939735,"62":-0.056629885674363105,"63":-0.14796620218660056,"64":0.11420134873593704,"65":0.07516644264776853,"66":-0.017525897950376918,"67":-0.1767388976833221,"68":0.060006833017918815,"69":0.18185946958088922,"70":-0.025231053264746447,"71":-0.06540480842466867,"72":-0.10868599485479111,"73":-0.039051723240219646,"74":-0.21438915890546395,"75":0.03418691176656625,"76":-0.04019869558673504,"77":0.2088691236009735,"78":0.08166595914256601,"79":-0.1427577451277846,"80":0.020283802367858515,"81":-0.0710204888587657,"82":-0.04506417843152115,"83":0.161306621402156,"84":0.021538493375635646,"85":0.10067751781964161,"86":0.059088118449844754,"87":0.09660347992481828,"88":-0.16674291879261433,"89":0.0058407976662150805,"90":-0.05486699362233916,"91":0.04343127224921754,"92":-0.0994554532801809,"93":0.13526825060322478,"94":0.00409023634491573,"95":-0.049240151688485355,"96":-0.07344102178527005}},{"sx":1,"sy":1,"depth":97,"w":{"0":0.007940007921134614,"1":0.01379231921339372,"2":-0.1206075202620898,"3":-0.0621657617727135,"4":0.05571950461922965,"5":-0.04597462876702968,"6":-0.03880456553865159,"7":-0.040796026096496865,"8":0.07684595260827409,"9":-0.03656988415278762,"10":-0.0067549424305577595,"11":0.07361542184974235,"12":0.14048731692812244,"13":0.13384583723757457,"14":0.18583217142455666,"15":-0.013302514393066484,"16":0.11140651815448621,"17":-0.02991765475180878,"18":-0.053328584325627544,"19":-0.032879381109467615,"20":0.030564715837204732,"21":0.010048573571887053,"22":-0.22031219485026793,"23":0.056164492094759044,"24":0.12863300294243674,"25":-0.031137058151467712,"26":0.09873338233524105,"27":-0.029924371315556555,"28":-0.034335572311903866,"29":0.08147691851317716,"30":-0.06282643013177744,"31":0.034207229196544495,"32":-0.19136755695050642,"33":0.01005564316776843,"34":-0.14731916824398725,"35":0.03751304154489134,"36":0.11876984492689165,"37":-0.1271845191363558,"38":0.06673604971873989,"39":0.052127712481301464,"40":0.017053359746840448,"41":0.13308369236543027,"42":-0.04200654530687873,"43":0.059480673702197395,"44":-0.11445471122455148,"45":-0.00950615438357407,"46":-0.024730844294921485,"47":0.01621724230284434,"48":-0.007999023857200256,"49":-0.13661657545451622,"50":0.15136704713593313,"51":0.04267787925584091,"52":0.004304608298317476,"53":-0.06751212603262778,"54":0.04581765197029114,"55":-0.010214588023210534,"56":0.08184963380001628,"57":-0.1423634139465573,"58":0.0842771014569771,"59":-0.046889325982540794,"60":-0.1395564278427785,"61":-0.23121480499998096,"62":0.040229439940429025,"63":-0.09627617251829741,"64":-0.049292440101921874,"65":0.12887451056619925,"66":0.09822137575515517,"67":0.04271566921609679,"68":0.09405333047887665,"69":-0.2951260311497963,"70":-0.12774072503497022,"71":-0.0021040843822365714,"72":-0.027950908613810586,"73":-0.02885012761063628,"74":0.010145986611436055,"75":-0.032790742523510726,"76":-0.09832735981543406,"77":-0.0017664684221847418,"78":-0.016037224540716783,"79":-0.03459314808987249,"80":-0.002723578536355405,"81":0.12195335642106661,"82":-0.06152944080219382,"83":-0.14901896149695265,"84":0.14134678934218212,"85":-0.13508779411883937,"86":-0.03005579981825306,"87":0.0595284546171237,"88":-0.04597930358796969,"89":-0.03312811393464179,"90":0.14599093505551147,"91":0.14558049326846784,"92":0.10825788146291662,"93":-0.04063603254813655,"94":-0.0447238374070683,"95":0.16947000581876626,"96":0.007480377477648434}},{"sx":1,"sy":1,"depth":97,"w":{"0":-0.008706523537089532,"1":-0.06272126924715872,"2":0.09414677328523217,"3":-0.10902175366954042,"4":-0.06635299955728224,"5":0.012530325048654065,"6":0.08560045653979628,"7":0.036153937707192385,"8":0.004907902845992239,"9":-0.043055114311823336,"10":-0.21460035801834237,"11":-0.026561753235042965,"12":0.0866942918958832,"13":-0.13240854146134984,"14":-0.23244705266320606,"15":0.07309138580371101,"16":0.1552177382771925,"17":-0.14085049597137086,"18":-0.05687426378495199,"19":0.0022327140830786037,"20":0.035078849795319195,"21":0.07207119061042344,"22":-0.011005500027461545,"23":-0.12428497219613902,"24":-0.03385118860071116,"25":0.0548434584923735,"26":0.031084765203060413,"27":-0.09930278617967994,"28":-0.05128473800880642,"29":0.13132508969002374,"30":-0.025466882505839318,"31":0.1431845734619069,"32":0.03281822716331386,"33":0.18124767385032134,"34":-0.14170770161823534,"35":-0.1701179163571823,"36":-0.05687359424029814,"37":0.024848060941397382,"38":0.017644089920270493,"39":-0.05694527272516258,"40":0.010006644431100848,"41":-0.030988060778082128,"42":-0.0037309492111454313,"43":-0.007294041947448654,"44":-0.08986397316477701,"45":-0.05083274220045345,"46":-0.023516929037983053,"47":-0.06303844088603691,"48":0.06027472142868693,"49":0.05689715687894151,"50":-0.051439770930064375,"51":0.04359233811668604,"52":-0.116623286781038,"53":0.15212458499024745,"54":0.14911060280348215,"55":-0.06551661611227337,"56":0.06408809294346397,"57":-0.09357600393695839,"58":0.0509392728453223,"59":-0.1699058330720113,"60":0.1445086047226329,"61":-0.09700180416886471,"62":0.04519393466138359,"63":-0.10709405338466461,"64":0.12388611099609029,"65":-0.07365927506376331,"66":0.09191742808530008,"67":0.20004744057337273,"68":0.12543766713071586,"69":0.026303363468342375,"70":-0.02076774112948159,"71":0.12912689153782936,"72":0.009289864537240065,"73":0.18286881254104656,"74":0.08180480127145753,"75":-0.017300385355602493,"76":0.19377655274330843,"77":-0.15824527016191683,"78":0.16853948378217132,"79":0.04556968175670431,"80":0.018881198513397902,"81":0.05445168877150423,"82":0.18836705096603495,"83":0.13692467291358698,"84":-0.013838684352682085,"85":-0.2019686138265015,"86":-0.09071649197987765,"87":0.05442120753898249,"88":-0.0028371957172262253,"89":0.0648524521471013,"90":0.07333837977159748,"91":0.20805482772972997,"92":0.04588140704674852,"93":-0.08270686476807841,"94":0.23373782721910324,"95":0.05905141172500848,"96":-0.048346581746731364}},{"sx":1,"sy":1,"depth":97,"w":{"0":0.08356656599953252,"1":-0.049568173767809684,"2":-0.09155315794542779,"3":0.08135256720393344,"4":0.021571999940419452,"5":0.20864612007907615,"6":-0.18581797814262568,"7":0.049110244796356756,"8":-0.08985452436566899,"9":0.07285054323387144,"10":-0.03693660582939666,"11":-0.030075535878325628,"12":-0.04099595538047699,"13":-0.12492977647763265,"14":0.17976562600252918,"15":-0.035589286477683627,"16":-0.14997408898275372,"17":-0.08677072970102538,"18":0.14551069421741858,"19":-0.009087809704267917,"20":-0.010725316610265677,"21":0.16879279129468389,"22":-0.09326519000977683,"23":0.09806897440942074,"24":-0.048962154882930056,"25":-0.05671189882962438,"26":0.02540942130702113,"27":0.0026787945371670343,"28":-0.10371040871317853,"29":-0.09936911564690283,"30":-0.1021765769969834,"31":-0.031383040571166615,"32":0.03172728560113998,"33":0.04092890925528183,"34":-0.23534160199706128,"35":0.15785698859211375,"36":0.19961328161159825,"37":0.1906866121985773,"38":-0.04287116232880218,"39":-0.07554092866239993,"40":-0.031641177816992785,"41":0.01622146333365123,"42":0.0859364882291936,"43":0.022894478528978173,"44":0.11957865749022766,"45":-0.05895542103662314,"46":0.10263035264997047,"47":0.04449733371795315,"48":0.007428889641926111,"49":0.06536871482569896,"50":0.15299088403042752,"51":-0.17509099069241338,"52":0.05672822797228633,"53":0.06287850369996474,"54":-0.00672098326751286,"55":0.017225552232656056,"56":0.07530377321468394,"57":-0.051484376366187426,"58":0.041576178898044915,"59":0.01843152077817889,"60":0.008847228716277949,"61":-0.0825935331854562,"62":0.07649939687716256,"63":0.06514857817357685,"64":0.07363081958496,"65":0.1766694953456437,"66":0.10118840259704295,"67":-0.16393215475714729,"68":0.0676223356347629,"69":0.032678229738618454,"70":-0.019729527498819142,"71":0.05347720489706298,"72":0.2107566405760076,"73":-0.05657002887539192,"74":-0.02307731502803157,"75":-0.03213079952090812,"76":-0.26246589577307433,"77":-0.12727188770826187,"78":0.0912927482021579,"79":-0.05030080850436319,"80":0.019859501318466748,"81":0.09741675654296027,"82":-0.04662147117295896,"83":-0.006471301378470574,"84":0.13134090734037565,"85":-0.10033542451890101,"86":0.2579759878766697,"87":0.00899515231442956,"88":0.16601305090537036,"89":0.05323528375668212,"90":-0.09068465612869675,"91":0.12791921903977851,"92":0.09236725141787616,"93":-0.31420889631690047,"94":-0.0633815450766128,"95":0.10184209673816602,"96":0.13891866308047862}},{"sx":1,"sy":1,"depth":97,"w":{"0":-0.13288965615721812,"1":-0.10080177127249328,"2":-0.036719449398044085,"3":-0.01394850688575935,"4":-0.012114149461645367,"5":-0.0659732806913545,"6":-0.018377233802956215,"7":-0.044135601424886796,"8":0.010197238087007288,"9":0.023223263557095548,"10":0.01557172212592735,"11":-0.1362210058862828,"12":-0.10482754289698112,"13":-0.04043354757034036,"14":-0.10992321090573844,"15":-0.20478674114420492,"16":0.037567905663961385,"17":-0.09191285811221758,"18":-0.12943269898351678,"19":0.008121599219584049,"20":0.023444038796100283,"21":0.014029414555972394,"22":0.12890310936247507,"23":0.10821966293830579,"24":0.008907002187594423,"25":-0.12677744899689192,"26":-0.1937165961746656,"27":0.019547592481805903,"28":0.17642318265812384,"29":0.28348375925487357,"30":-0.10317708098098102,"31":-0.0467328621726402,"32":-0.032654320902988435,"33":0.013119439941685355,"34":0.19107812099601754,"35":-0.09180374383901431,"36":0.16213845990558606,"37":-0.06381264157469023,"38":0.001085037615315176,"39":0.05831777252364071,"40":-0.01941926475495128,"41":0.1519973805509224,"42":0.06161934791804333,"43":0.09652447212648538,"44":0.07232317074660437,"45":0.018378330949595748,"46":0.009192468826686279,"47":-0.003182684591019268,"48":-0.1589770400145582,"49":-0.06425312207703879,"50":0.06325169350328574,"51":0.03837736441475306,"52":0.08078343849187211,"53":0.06607151496575542,"54":0.16339611453752176,"55":0.04020870020430853,"56":-0.008715402582515915,"57":-0.0011434967155430345,"58":0.011339369503275205,"59":0.10839676232169933,"60":-0.0042660998474725615,"61":-0.042834317617087996,"62":0.0666080087532424,"63":-0.09841557942910135,"64":-0.02437720052113825,"65":-0.0239234872688192,"66":-0.10903135525178129,"67":-0.015462033190528537,"68":-0.011377026591368892,"69":0.08994195011402069,"70":-0.007536747795144354,"71":0.03321313162220624,"72":-0.06750374979619186,"73":0.18862995942709962,"74":-0.06025714606769613,"75":0.018123789933213487,"76":0.08459250383045433,"77":-0.055585534961637977,"78":0.20274019996136905,"79":-0.03536114255926018,"80":0.10264707978965833,"81":0.0673792448341926,"82":-0.16670693662016575,"83":-0.07046596940163247,"84":0.09924503421193322,"85":-0.06312331545098634,"86":-0.006388984022780779,"87":0.05082318943873602,"88":-0.07309792495315288,"89":0.02042362722512821,"90":0.09285889781175416,"91":0.1030665293421924,"92":-0.11286198176954743,"93":0.16264504342990185,"94":0.20840586103677838,"95":-0.10751801021928122,"96":-0.16531452733890734}},{"sx":1,"sy":1,"depth":97,"w":{"0":0.2547249255368298,"1":0.015612749390144945,"2":-0.01714529755265112,"3":0.05175957527279405,"4":-0.07957541301955331,"5":-0.11179684336575232,"6":0.13814091680209886,"7":0.045965357152920064,"8":-0.044813353972080354,"9":-0.15270737511159846,"10":0.0783840641819972,"11":0.036389457410242694,"12":-0.052363573555245874,"13":0.10130942067433918,"14":-0.03175839856762103,"15":-0.051922691882572015,"16":-0.010939611360243288,"17":0.14678787181278824,"18":-0.08122045142449251,"19":-0.27316102036561923,"20":-0.06527906899409419,"21":-0.208963107200766,"22":-0.12797361545364436,"23":0.040449085957381455,"24":-0.06922464351382972,"25":0.015408992532711682,"26":0.01542565259938405,"27":-0.015923865656509283,"28":0.09277834422329237,"29":-0.11472989532846198,"30":-0.12894629088853443,"31":-0.14028059129745085,"32":-0.008813852349539585,"33":0.10895345026394239,"34":-0.1780498132976972,"35":0.05981852874812231,"36":-0.026538305449800355,"37":0.09527645853320331,"38":-0.0008105326266147343,"39":-0.011415139386834928,"40":0.10334713887805394,"41":-0.18501499769285165,"42":-0.11791285832987765,"43":0.03418001642874973,"44":0.01972179370044286,"45":0.12971802759382906,"46":-0.11647143790231869,"47":0.14301594174356702,"48":-0.09678997573504405,"49":0.12943310313321202,"50":0.01770313812640315,"51":-0.08969792219498901,"52":-0.02528449991440717,"53":0.106294828504127,"54":-0.02222501885271242,"55":0.13150112327428842,"56":0.016687842463373594,"57":0.0522972108808513,"58":-0.11732118482897269,"59":0.15412727724186642,"60":0.04174181022032138,"61":-0.02585641173857312,"62":-0.10783889275657275,"63":0.0028589565946898123,"64":-0.0607946844166248,"65":0.1807925011859616,"66":0.01682441635344301,"67":0.04015110329896058,"68":0.02977650234761821,"69":-0.07722452609345132,"70":-0.17019588561326382,"71":0.17976004255355268,"72":-0.1198526286654388,"73":-0.027359047027745283,"74":0.022853400608600947,"75":-0.18939261882904873,"76":-0.06899509502828495,"77":-0.14816361693056734,"78":0.021802403878049475,"79":0.04541216748340206,"80":-0.04941796803252617,"81":0.016198792885445804,"82":-0.02623535859219078,"83":0.08825276382901721,"84":0.17223244189867137,"85":0.216838337342354,"86":-0.01158568891026306,"87":-0.23752800086224124,"88":0.04851023489818988,"89":-0.2110544764578425,"90":-0.006334414650829869,"91":0.05424662614234689,"92":-0.04406196711734588,"93":0.0326632753155009,"94":-0.08884110831001132,"95":0.08565427181845,"96":0.02707244684334121}},{"sx":1,"sy":1,"depth":97,"w":{"0":-0.11607076404430561,"1":-0.01808396871526035,"2":0.12758187940881308,"3":0.04261433856665535,"4":-0.20484872540141774,"5":0.05102084377968907,"6":-0.13441584978207116,"7":0.117756491403015,"8":0.1823745177139275,"9":-0.053100348398899315,"10":0.148114200688858,"11":0.038580572330915996,"12":0.09188881334641326,"13":0.17487551022560072,"14":-0.13876649455203974,"15":0.19831447773073096,"16":0.007625519077993416,"17":-0.01669232556527288,"18":-0.042724224893725404,"19":-0.0077758900973266595,"20":0.09120844525899605,"21":-0.15843491337016866,"22":0.020409992510134867,"23":-0.0630774301158999,"24":0.18360274919778832,"25":0.2633062003661513,"26":-0.08017366531821651,"27":-0.15459536196186283,"28":0.1431820188372273,"29":-0.09873225972129497,"30":0.0382194301627456,"31":0.10732069364358819,"32":-0.05601009518500749,"33":-0.09641679163732025,"34":-0.1671788037646811,"35":-0.04030804514663288,"36":0.1333948466626282,"37":-0.15966876748042583,"38":0.09893231729721313,"39":0.009810961747363513,"40":-0.06723309487795848,"41":0.06870017757314681,"42":-0.05405184507834004,"43":0.22907607129173457,"44":-0.1505140898958911,"45":-0.17376744884288148,"46":-0.12496621244809841,"47":0.17977491246327337,"48":-0.0994280069481971,"49":-0.05726380672954674,"50":0.01884230164301613,"51":0.010803398177834145,"52":-0.050508095292403285,"53":0.007976590161989709,"54":0.003725672491677005,"55":0.13798329095909256,"56":-0.033851775884714885,"57":0.1578026440942414,"58":-0.1627413131866814,"59":-0.032571578885207224,"60":0.07784496949228017,"61":0.09806265334925424,"62":-0.08213927988732615,"63":0.03198216273484923,"64":0.004587013175567602,"65":0.11057163424838479,"66":-0.0501236524176964,"67":-0.09053472677654045,"68":0.01038396811255715,"69":-0.033094746054033716,"70":-0.007129567256811206,"71":0.03683516611018561,"72":-0.07218143788096197,"73":0.03412116157387109,"74":-0.04122127627205121,"75":0.05768767554429053,"76":0.12020852829491664,"77":0.1734698292822698,"78":-0.000775588758918384,"79":0.03708854407516103,"80":0.08181851784612401,"81":0.026957754353330553,"82":0.03701805195611961,"83":0.031426891228733864,"84":-0.056373520187834446,"85":-0.008016582366817153,"86":-0.15078681358158544,"87":0.025215358939703402,"88":0.03484506696420192,"89":-0.0873141972259522,"90":0.004501086678914914,"91":-0.027647732259368507,"92":0.17327766567039574,"93":-0.08809196349111659,"94":0.023919687582353966,"95":-0.0032785953081418905,"96":-0.017977419533913172}},{"sx":1,"sy":1,"depth":97,"w":{"0":-0.05614011079272648,"1":-0.07334122108012181,"2":0.03674841901590984,"3":0.026438076041448176,"4":0.048121187928047815,"5":0.04351694610383706,"6":0.09859623771587471,"7":0.08656822730119286,"8":0.06091376850641623,"9":0.05226494750197042,"10":-0.0005331935315979755,"11":-0.02947108548827389,"12":0.06412760379564128,"13":0.020121027664689824,"14":0.05958851601763143,"15":-0.10839892779002025,"16":-0.05306635860790075,"17":-0.0886599118231728,"18":0.09227125220208152,"19":-0.030183642568787486,"20":0.0005218966399137779,"21":-0.10463386062944897,"22":0.06735282345992528,"23":0.05951657247166748,"24":0.07523613774331835,"25":0.03748406737962773,"26":0.04149283747266962,"27":-0.12697012595411056,"28":-0.06375287739013698,"29":0.04216574363973231,"30":-0.03291803335923504,"31":-0.009098852137270344,"32":-0.13062983644181114,"33":-0.0005601387576641369,"34":-0.04513628170605646,"35":0.022084010908367223,"36":-0.05335793319185225,"37":0.04716297031817698,"38":-0.08345472964527217,"39":-0.057687547850530776,"40":0.1452027966752873,"41":-0.06085666697070311,"42":-0.13810433610218062,"43":0.18510069040682325,"44":0.09979955076592185,"45":0.1955644167546725,"46":-0.10894048448370232,"47":-0.045389746390848563,"48":-0.03061559574854232,"49":0.009676790835750307,"50":0.06228476010274628,"51":-0.00011719470347916971,"52":0.13551991604733477,"53":0.031116196508330023,"54":-0.0340343453672182,"55":0.08569974366643564,"56":0.03662192787077936,"57":-0.05442703963099295,"58":0.11467239167236717,"59":-0.11976999004000254,"60":0.05275730034955955,"61":0.04235544361007604,"62":-0.08394507476490205,"63":-0.03250805491320271,"64":0.12913556824010963,"65":0.148698156734242,"66":-0.1176584948501787,"67":0.13287608291119157,"68":-0.016933435954873167,"69":0.18708480222897428,"70":0.18722919222345896,"71":-0.14837996561472536,"72":-0.040849830357956834,"73":-0.09251900565649786,"74":-0.1305267510640976,"75":-0.06575988989127889,"76":0.05347464528675566,"77":0.005185683854999475,"78":0.04887445115106745,"79":-0.030221884488329395,"80":0.10976735072833654,"81":0.03883031574749433,"82":-0.24849928182957817,"83":-0.008767761831489043,"84":0.25082251678663303,"85":-0.256370654855506,"86":0.15331289381878763,"87":-0.08801809995470367,"88":0.09890139680935779,"89":-0.19182684163224434,"90":0.08514313633251872,"91":0.0656645359643273,"92":0.0177538544415047,"93":-0.09228588124133759,"94":-0.009544008377230762,"95":0.011315292103153903,"96":-0.02887313065407176}},{"sx":1,"sy":1,"depth":97,"w":{"0":0.19824590236828174,"1":-0.06873268455902476,"2":-0.0917635843466418,"3":0.07801576464404994,"4":0.1401817796947097,"5":0.03805605855794603,"6":0.0799898956955089,"7":0.10031308251877588,"8":-0.09328915037850748,"9":-0.0814315477322793,"10":-0.051952358874025516,"11":0.20416432354023484,"12":-0.12332922272487723,"13":0.15531513032933963,"14":-0.002615488574636925,"15":-0.3186528536589312,"16":0.1641085380232871,"17":0.19880449124588104,"18":0.13436836142806136,"19":-0.13298309784542284,"20":-0.06296691508008512,"21":0.12442037684538265,"22":0.0012552687972529175,"23":-0.04862998383511149,"24":0.12897980934493294,"25":-0.10809005408622935,"26":0.19190923161738857,"27":0.05560319595458279,"28":-0.08505341464035573,"29":0.1622231518412737,"30":-0.1571681229142829,"31":0.08914174240011412,"32":-0.0620881593267369,"33":0.14677401573606788,"34":0.056725845698795276,"35":0.02082740897338836,"36":-0.10189924609859269,"37":-0.08033915769042269,"38":0.09707359308229108,"39":0.2173935896771943,"40":-0.06360986308831154,"41":0.2256704731728404,"42":-0.09069649543222837,"43":0.027638386203933305,"44":0.0340408822650186,"45":0.0734322392271463,"46":-0.05038119165777778,"47":0.09303050689520287,"48":0.05032323492532979,"49":-0.19954131468348488,"50":-0.12216720894485532,"51":-0.09106970565416123,"52":-0.06815408826235153,"53":0.12711680654303006,"54":0.03562212799559722,"55":-0.18867074904292785,"56":0.02138967807404925,"57":-0.08236860561612427,"58":-0.012021239074060185,"59":-0.1315131763598973,"60":-0.07887684265770098,"61":0.24890325856754125,"62":-0.11789028009044732,"63":0.14004154719698686,"64":0.10572354172367777,"65":0.022460668628469044,"66":-0.0582581269337047,"67":-0.0560727004622332,"68":0.05228459276427807,"69":0.06892629992580789,"70":-0.008129985227496554,"71":0.022472555229472436,"72":0.000998641200143637,"73":0.021606852171408446,"74":-0.030481152229508392,"75":-0.1301684419537262,"76":0.016628932094725407,"77":0.12857741332575975,"78":0.05074622446166526,"79":0.10832354511801366,"80":0.09238045653987816,"81":-0.13958210248811528,"82":0.021120591824381148,"83":0.13712603616033722,"84":0.07183184457924693,"85":0.032549311242846116,"86":0.0933320933127627,"87":0.015645398360735363,"88":0.07838332396751505,"89":-0.056140142383754664,"90":-0.09137106010644763,"91":0.03423817455901168,"92":-0.040978978133098455,"93":0.061352541813781844,"94":0.0063222987615618636,"95":0.09263667690847535,"96":0.1613944684370602}},{"sx":1,"sy":1,"depth":97,"w":{"0":0.15167958236340148,"1":-0.013655225103343122,"2":-0.10754533984803635,"3":0.022586175774249966,"4":-0.09671981059300669,"5":-0.18642837027352538,"6":-0.0496483377235772,"7":-0.12812181692681923,"8":0.0837773825315928,"9":-0.013686143482962904,"10":-0.029064850990717532,"11":0.016450062318067074,"12":0.24486772912213348,"13":-0.03466379851212263,"14":-0.21451247189249822,"15":0.08436086961273934,"16":0.001146355939117531,"17":-0.09839681321984087,"18":-0.017544642082815528,"19":0.00984055972209427,"20":-0.006611120639915507,"21":-0.08602882081376315,"22":-0.022067633105899525,"23":0.15253407152684817,"24":-0.052122650585815125,"25":0.09420666713657748,"26":0.047944712827996484,"27":-0.07441397371867503,"28":0.02551068363431391,"29":0.030694134229996374,"30":0.06030425336061696,"31":-0.020774641273000254,"32":0.13607865410751618,"33":0.11372374890883558,"34":-0.04937165550710778,"35":-0.1565712521614755,"36":0.04658617342533713,"37":0.11255925034660502,"38":-0.05650567214053814,"39":-0.018534435410994473,"40":-0.05179000516840206,"41":0.03054164032141045,"42":-0.007669523939048194,"43":0.11373947178102725,"44":-0.14422195794753648,"45":0.04989145709710115,"46":0.17027121852455016,"47":-0.0773645484780407,"48":0.10628965792217328,"49":-0.0152372527731981,"50":0.18935541006345888,"51":0.04310172192786701,"52":0.014105326110929788,"53":-0.10829294135002956,"54":-0.09065618230852063,"55":-0.20640012172785838,"56":0.040074322364618734,"57":-0.10922028464521381,"58":0.13784521946176706,"59":0.10649376093518313,"60":0.06349974103384325,"61":-0.000507688891318302,"62":0.08250203279217072,"63":0.050244504301041375,"64":0.08382302155899558,"65":-0.05648991719620886,"66":-0.08312042976512057,"67":-0.07393539295035403,"68":-0.06353334222927262,"69":-0.13598872728823222,"70":-0.06547694254239148,"71":-0.0965422529164432,"72":-0.026013010725387035,"73":0.12264163227767826,"74":-0.018274295868699914,"75":0.15162431043633443,"76":-0.03680805088770938,"77":0.052427120619513816,"78":0.0479957989016835,"79":0.03333974700724633,"80":-0.020517468166800633,"81":-0.06715767116739384,"82":0.06884623661607746,"83":0.1506228942327396,"84":0.08685682689500683,"85":-0.007979426210437039,"86":0.08709972728391309,"87":-0.17835037415367258,"88":-0.1925036830943097,"89":-0.04238536600657779,"90":0.17872718052605244,"91":0.11549397289523924,"92":0.028630608254116126,"93":0.19386028823081297,"94":-0.04553020221663413,"95":-0.029323840256571615,"96":0.18392420432451814}},{"sx":1,"sy":1,"depth":97,"w":{"0":0.06449451147532205,"1":-0.1424122655304664,"2":0.05218744332009638,"3":-0.05408093688036589,"4":0.05693313903707938,"5":-0.027608060010711602,"6":0.022256979588710625,"7":0.0067734391875837185,"8":-0.08400080334215902,"9":-0.028248272660063814,"10":0.1740751262442346,"11":0.12530986427810345,"12":0.12151260767740127,"13":-0.09563297596777069,"14":0.2216755964955511,"15":0.049943366125994454,"16":0.02361034603927366,"17":0.011383920332478226,"18":-0.009570352298425275,"19":0.06222997750479895,"20":-0.02449371658413954,"21":0.2572047953464207,"22":-0.018163416125468457,"23":-0.0928677450298512,"24":0.19787018893167532,"25":0.08372744663535674,"26":-0.04765599390913294,"27":-0.00330012550037717,"28":-0.079682956646504,"29":-0.1428729967482883,"30":0.0030144325824465897,"31":-0.04635172842290101,"32":0.0959196485298366,"33":-0.06874183934090676,"34":0.1203085803137346,"35":-0.0024140530375954647,"36":0.14632681194614228,"37":0.27250326197630675,"38":0.07385078451805575,"39":0.19807300605760222,"40":-0.043513199741380765,"41":-0.028569413595809317,"42":0.05770478435319793,"43":-0.0895255357139277,"44":-0.0077169039834016255,"45":-0.12757925042613708,"46":-0.03004451901142488,"47":0.02892394620963565,"48":0.0114247181804718,"49":0.09357449887885276,"50":-0.0951722973318859,"51":-0.09559458622360176,"52":0.023762991020233704,"53":0.0032214075672762237,"54":-0.05743041904540369,"55":0.004353706329512745,"56":0.13978392457016858,"57":-0.10623649614013908,"58":0.03821265710210623,"59":0.11332825644014571,"60":-0.17516930089014227,"61":0.19143146827566904,"62":0.015671337373935133,"63":0.01697259129150599,"64":0.023270077599324663,"65":0.029790262367927485,"66":-0.05412552681371269,"67":0.08081301454945125,"68":0.11135219897493309,"69":-0.09322858816128028,"70":0.020132748334000073,"71":0.0012946941699210994,"72":0.10538023998581844,"73":-0.08543627569227018,"74":-0.07421834373414686,"75":0.10439304989401357,"76":-0.05867827168077978,"77":0.06678774263240274,"78":-0.003151857619080569,"79":-0.045783786931975726,"80":0.01213641559079226,"81":-0.014318677949783877,"82":-0.028213689283344917,"83":0.01362631938818099,"84":-0.13765753392604918,"85":0.06539142496981945,"86":-0.13854311294885302,"87":0.0060848110763320855,"88":0.13155034570208846,"89":0.024485065023286543,"90":-0.054461179783953616,"91":-0.004642766361722607,"92":0.06080495533841985,"93":0.06321551799256411,"94":0.17994856997830672,"95":-0.05811533173509363,"96":-0.08916115851639743}},{"sx":1,"sy":1,"depth":97,"w":{"0":-0.04485627370605478,"1":-0.1237729106211382,"2":-0.03819329755828711,"3":0.0182912749202225,"4":-0.10286365903965412,"5":0.005283635777982486,"6":0.11573374074198314,"7":0.0007976123358997881,"8":0.16496286478556976,"9":-0.09010695693463468,"10":0.15471450409411944,"11":-0.013484770905017601,"12":-0.116230610612397,"13":-0.005301660886489685,"14":-0.07391901302268718,"15":0.12357734132789036,"16":0.006610892883185634,"17":0.035345010397272676,"18":0.013587885189797203,"19":-0.09543141532329961,"20":-0.0547814856273098,"21":0.0005491118567092067,"22":0.00787939964212179,"23":-0.0849388202146206,"24":-0.2387128765204432,"25":-0.205122450481772,"26":0.02810154761169756,"27":0.161669630434255,"28":-0.006876936257856649,"29":0.21163011803204063,"30":0.039567157558304616,"31":0.21323395343632023,"32":-0.09131760263163316,"33":0.096321721724386,"34":-0.06836946897910941,"35":0.3315575835594604,"36":0.15517562930998194,"37":0.036591335303079245,"38":-0.1530339290508574,"39":0.14286020572185693,"40":-0.07170518036579344,"41":0.05801859313436019,"42":-0.10566930755081405,"43":0.07086147610455443,"44":-0.10894362040538466,"45":0.007640102423411382,"46":0.13659725706869982,"47":0.13788699565544824,"48":-0.09190034940183713,"49":-0.0999711273676713,"50":0.08341765480263774,"51":-0.12812771206397058,"52":-0.17353048282954955,"53":0.07484882136993247,"54":-0.03998439451039337,"55":-0.15041190179295705,"56":-0.01540210029453703,"57":-0.03719312178522317,"58":0.01253580897409301,"59":0.0038029372477643817,"60":-0.04655417435077722,"61":-0.04980601425140295,"62":-0.025744831037426173,"63":-0.07984823078942804,"64":0.17949656321547353,"65":-0.04253532318263582,"66":0.03856246230270232,"67":-0.08863389038341393,"68":-0.018223945176373605,"69":-0.046179659291134455,"70":0.13266632672703954,"71":-0.0757392178057468,"72":0.07399971786729546,"73":-0.05199822370038198,"74":0.19641538394542474,"75":0.01075610015187743,"76":0.14996295091757772,"77":-0.20802059945150897,"78":-0.02360984260682864,"79":0.00576098063610194,"80":-0.006090866422707216,"81":-0.1679332264314359,"82":-0.1858245910435262,"83":-0.058530966478276894,"84":0.10720734286195431,"85":-0.03765966309078704,"86":0.002354828136670069,"87":0.07734520796460656,"88":-0.179389717685677,"89":-0.09513210931278614,"90":0.06293384661567004,"91":0.061064705905876794,"92":0.015829064581324614,"93":-0.09347507901549097,"94":-0.09671611681395183,"95":-0.01845803117409668,"96":0.08471828530171456}},{"sx":1,"sy":1,"depth":97,"w":{"0":0.021105994430594233,"1":-0.00040610541577272655,"2":0.1345835742628683,"3":0.06251315433294813,"4":0.11346582401424413,"5":0.23053410938410152,"6":-0.009337994616523904,"7":-0.12178315956597395,"8":-0.022867380182856507,"9":-0.08501647315358322,"10":-0.18688297627134884,"11":-0.11642469252789285,"12":-0.06506320313692039,"13":0.008726615776254214,"14":0.0018898443893626768,"15":-0.20632944358563987,"16":0.1638797969549264,"17":-0.03212839549541166,"18":-0.02106771905424559,"19":0.08851864779958793,"20":-0.04328776369019292,"21":-0.04850572032042742,"22":0.08277152286407051,"23":0.16121143308607033,"24":-0.13531048847739202,"25":-0.13514318548203888,"26":-0.26065172760337113,"27":0.18479512094709225,"28":0.1024843820334539,"29":-0.07181867215214285,"30":0.006600889383555631,"31":0.055181245127324856,"32":-0.07672726131917121,"33":-0.07987011891109298,"34":0.06303480751255212,"35":0.13604134027981488,"36":-0.09794758458556374,"37":-0.00580252570159484,"38":-0.19678553314766617,"39":-0.01725690360548755,"40":0.11977897776277426,"41":-0.006623042077148961,"42":-0.05394772221996021,"43":-0.03134140194691322,"44":-0.008711487817149591,"45":0.13186947478100677,"46":0.0041887446142825635,"47":-0.04450037559496403,"48":-0.26320236224315885,"49":-0.08250308601602302,"50":0.09301442623810256,"51":0.158117655656106,"52":-0.15153659926578136,"53":-0.08752495164944665,"54":-0.12993027405592672,"55":-0.009602865837247376,"56":0.005758927680602346,"57":-0.004596573142873458,"58":0.1742744132094779,"59":0.10987468348003236,"60":0.10500494136509761,"61":-0.12215513979081027,"62":-0.03253823844738958,"63":0.14788220006693936,"64":-0.1420373944429967,"65":0.05422369852823556,"66":0.09257266597044185,"67":0.003258425644882651,"68":-0.09522365079260331,"69":-0.06592254537233962,"70":0.12815630039100476,"71":0.062060189354949016,"72":-0.01712401657422352,"73":-0.07443397449592251,"74":-0.026842159154731527,"75":-0.22621569149051907,"76":-0.02571426846248589,"77":0.03902019016966898,"78":0.06140029731927075,"79":0.14243537023446987,"80":0.07398729742325601,"81":-0.05639748596819551,"82":-0.25571268499413685,"83":-0.023023831460607772,"84":0.0029001238048656603,"85":0.21262448721074487,"86":-0.09210789169756493,"87":-0.06784604717163327,"88":0.028832152210933673,"89":0.10414163388985265,"90":0.11373354736671348,"91":0.025989237902521667,"92":-0.07772173902110865,"93":-0.005970397815265013,"94":-0.016013314559466835,"95":0.16157063501144014,"96":-0.08091310584943305}},{"sx":1,"sy":1,"depth":97,"w":{"0":-0.04792723204620028,"1":0.046705647002421184,"2":0.005770237206042115,"3":0.013060804168168506,"4":0.044697006275413204,"5":-0.10974898425955625,"6":-0.1493661751797733,"7":0.0630958949760789,"8":-0.03899808884208758,"9":0.10229143641501767,"10":0.03255592708459434,"11":0.019937974504012287,"12":-0.05873016052123791,"13":-0.04871820677327961,"14":-0.05720157644549782,"15":0.08771811193718075,"16":-0.034390252935832116,"17":-0.07156127997502121,"18":-0.04185032941850358,"19":-0.04922969748408942,"20":-0.01629204780242941,"21":0.051015799287303806,"22":-0.1357633959395007,"23":-0.06307033582341852,"24":-0.1793171809252095,"25":-0.01858511440043129,"26":-0.044133453015602384,"27":0.07852847096255783,"28":-0.033464071916978956,"29":0.04883025031356087,"30":0.04746754240012482,"31":-0.1846547328582508,"32":0.012736354856374256,"33":0.15143483001957075,"34":0.05098339637799334,"35":-0.04217917969417984,"36":0.04418812960968584,"37":0.0193471318074984,"38":0.01067458788950257,"39":-0.02364912535123945,"40":-0.0092414201763183,"41":0.031637579803807964,"42":0.07003557763924971,"43":0.030299304504904288,"44":0.04185063482924042,"45":0.035388942907210466,"46":-0.09130526454504725,"47":-0.01270369402107373,"48":-0.10073279725584722,"49":-0.001499695885301757,"50":-0.04306237356877061,"51":0.03080224275009491,"52":0.2633032284683001,"53":-0.07418751219061978,"54":-0.05312818247156384,"55":0.21323909584729078,"56":0.007073251072527396,"57":0.04669848930506641,"58":-0.02593550074698049,"59":0.09495676320607403,"60":0.10523900682739358,"61":-0.011325789422365952,"62":-0.1299863864277918,"63":-0.01972212852570602,"64":0.060823737619187156,"65":-0.06839339418551928,"66":0.029909450024580734,"67":-0.03197423114384037,"68":-0.10326146822675211,"69":0.017504261461884316,"70":-0.05674438124387342,"71":0.050876116348750625,"72":0.08520597307365334,"73":-0.2947861562048379,"74":0.08760552655579237,"75":0.09864975421263891,"76":0.14625060722017708,"77":-0.00214454103518898,"78":-0.11603956526956595,"79":0.01458965709992052,"80":0.051032791602894964,"81":-0.12286170024771718,"82":-0.001448957767515159,"83":-0.15598682666388744,"84":-0.0667990924974673,"85":0.16638994442613741,"86":0.04429880274593433,"87":0.007259386100722595,"88":0.14511345588478355,"89":0.11941697327852181,"90":0.043400400972120695,"91":0.05145648064249355,"92":-0.03862915764448288,"93":-0.015739090371628593,"94":0.06040095138907439,"95":0.12310798887120582,"96":0.05688648731398278}},{"sx":1,"sy":1,"depth":97,"w":{"0":0.006382208104968782,"1":-0.0880418853388098,"2":0.04938991989458585,"3":-0.08195184418639602,"4":-0.051046563425027565,"5":0.04783097549078244,"6":-0.09246231461742226,"7":0.14425411510952574,"8":0.01976103423863631,"9":-0.10253926464213699,"10":0.1609018738151162,"11":-0.09434826688133978,"12":0.006645015100985738,"13":-0.04702370575150784,"14":0.08830904042104408,"15":-0.1482957455085497,"16":0.1772621872489365,"17":-0.0548515425444482,"18":0.060541049084491594,"19":-0.05861334112061103,"20":-0.07999286780363737,"21":0.10543893129007395,"22":-0.08639722912334404,"23":0.09552370964080478,"24":-0.09971765341975256,"25":-0.03617990901159518,"26":-0.05486380995433173,"27":-0.09715382603606901,"28":0.19212514333837746,"29":0.017296887141951763,"30":0.07695065306979766,"31":0.08380291740473092,"32":0.1046058751731928,"33":-0.07527256993585572,"34":-0.027357595699664373,"35":-0.03934378928559713,"36":0.07359008584961935,"37":-0.1812830532950423,"38":0.07451784891721518,"39":-0.051338788824389595,"40":-0.07499856260999821,"41":-0.058287310416718544,"42":-0.04772637697714244,"43":-0.04272785334949931,"44":0.07143871241824493,"45":0.05436041087434889,"46":-0.015646770588912787,"47":-0.12522557857002142,"48":0.13805205657766267,"49":-0.07673555035118639,"50":-0.0478820084502717,"51":0.021837139984371347,"52":0.19222088481831037,"53":-0.06296113952090694,"54":-0.04836232617432695,"55":-0.08272404639251842,"56":-0.05761230606048202,"57":-0.11896751546178352,"58":0.16088531562106054,"59":-0.07111107456445047,"60":-0.13770041473767747,"61":0.08461703841547387,"62":0.04688244881400096,"63":0.19100747435855514,"64":0.09202710300266956,"65":0.012311911315833687,"66":-0.038291912654031694,"67":0.08241873624636188,"68":-0.026978377265189615,"69":0.009081379678554817,"70":-0.024990300664071076,"71":0.05411460293627728,"72":0.0683594896672937,"73":0.009727342216193681,"74":0.031021809825098556,"75":0.047558559650136424,"76":-0.12374014791428149,"77":-0.06920006458296363,"78":0.08048514346860691,"79":0.07545356655106536,"80":0.062060793843207555,"81":0.10999323991609633,"82":-0.03839561977888007,"83":0.0018032625995198835,"84":-0.003516743701948172,"85":-0.007407742554008851,"86":-0.043162659157963995,"87":-0.0788287306767615,"88":0.0001463556574226216,"89":-0.051245897200920286,"90":0.12158011882534743,"91":0.145592542298314,"92":-0.148993726532806,"93":0.06081939591261553,"94":-0.020318923675105204,"95":0.003809303517244047,"96":0.003800232349365928}},{"sx":1,"sy":1,"depth":97,"w":{"0":0.03369638305684905,"1":0.13511503019244994,"2":0.004116758740009441,"3":0.04243278369399955,"4":0.025670914694230197,"5":-0.018948943422985375,"6":0.02541000795641387,"7":0.03716771818335138,"8":0.010360805530092563,"9":0.04335605299636866,"10":0.023253144781060425,"11":-0.029180767434706788,"12":0.031260944455695196,"13":0.03396071805949989,"14":-0.16641585099774356,"15":0.033806649568503135,"16":0.03865548679227083,"17":0.03027398572563869,"18":-0.0008298580558810388,"19":-0.017176339071458248,"20":-0.0979071584630614,"21":-0.0853206122238714,"22":-0.09146298467195123,"23":0.13366665074084627,"24":0.08637643457168734,"25":-0.010577146530113454,"26":0.08635649107248551,"27":-0.1067404390417272,"28":0.13069495191347785,"29":0.05644260155695578,"30":-0.12475924098429259,"31":0.008315941601110453,"32":-0.09160253737921066,"33":0.040665957934005674,"34":0.0824932373538197,"35":0.14920054459831586,"36":0.055382118622564494,"37":-0.3564350522857571,"38":-0.012368559420680375,"39":-0.15567477757091738,"40":-0.013150406785534342,"41":-0.016687645265712082,"42":-0.07971566095452502,"43":-0.04641470467115491,"44":-0.06882341792964985,"45":0.1276452048266911,"46":-0.011384770522734426,"47":-0.004758429511146492,"48":-0.10018614900880614,"49":0.22082695183724263,"50":0.18775452807787074,"51":-0.05895739859041292,"52":0.18244456300350545,"53":-0.052930362564233904,"54":0.059266330132639114,"55":0.046440118620920935,"56":0.058239318830927075,"57":0.10205342740161633,"58":0.03795760141619011,"59":-0.11885281302399266,"60":-0.01555524595265391,"61":-0.1800679019460112,"62":0.03818608522252734,"63":0.045996501864915655,"64":0.01345118245724289,"65":-0.10018983471961554,"66":-0.0043780309988487864,"67":-0.041843643055186036,"68":-0.02645988170386923,"69":0.020483311570086805,"70":0.073817916889167,"71":0.14309763226443778,"72":-0.19393997413241312,"73":0.007220297497441423,"74":-0.0173525215622592,"75":-0.08236127102794824,"76":-0.12049529448075469,"77":-0.06696529921048204,"78":0.02877006245147439,"79":0.003121747825669072,"80":0.12895739558099253,"81":-0.05999838187871693,"82":-0.03236480433475798,"83":-0.10748462904616496,"84":0.0632802591891818,"85":0.030599537560020863,"86":0.07226864231714235,"87":-0.0615204697771613,"88":-0.1231336578436562,"89":0.016087035627261673,"90":0.06585669571693038,"91":-0.006788964932345929,"92":-0.05364221393330487,"93":0.0754725335206752,"94":-0.014455412142790412,"95":0.030714789481871497,"96":-0.06656976562644996}},{"sx":1,"sy":1,"depth":97,"w":{"0":-0.17351851666911136,"1":0.13043356889251648,"2":0.04328220349312316,"3":-0.09337706903989135,"4":0.026518553349181476,"5":0.18714637844759713,"6":0.004367759698818581,"7":-0.022943974040869047,"8":0.013436715337204327,"9":-0.07866396921669955,"10":0.14369596058676434,"11":-0.07525354465761416,"12":0.09009277240578191,"13":-0.0643074119097448,"14":0.20411076853875076,"15":-0.026025982636519954,"16":0.20450684196738217,"17":-0.0837475023304916,"18":0.010834844085922129,"19":-0.059807038979331074,"20":0.12039381220682845,"21":0.04376642565783598,"22":-0.016617085089482796,"23":0.1285916901712295,"24":-0.06939487466417386,"25":0.1191624618281522,"26":-0.13803777617524765,"27":0.20291202324897364,"28":-0.04415886883148449,"29":-0.00012115960339110153,"30":-0.1015944854612074,"31":-0.09898179102908121,"32":0.09719596103924905,"33":-0.24812075315471527,"34":0.050568243486750056,"35":0.026476550910381015,"36":0.05897922030822115,"37":0.022358767361453775,"38":0.019074982290432585,"39":-0.09562894917024896,"40":-0.01903876892556207,"41":0.04231016385946221,"42":-0.0027512522222712587,"43":0.1386362634227839,"44":0.027219714008818296,"45":-0.002358944582380975,"46":0.06085694148784202,"47":0.07333283776598828,"48":0.02921905722559983,"49":-0.07072218841640993,"50":0.056805106494926975,"51":0.067201300580697,"52":-0.09865362335699646,"53":-0.26551566539926214,"54":0.14583945345574748,"55":-0.13697879539865737,"56":0.005921444117749449,"57":-0.141638652963483,"58":-0.06708304630510974,"59":0.04140392268170163,"60":-0.053409134755371755,"61":0.004229191520489851,"62":-0.10142134449889646,"63":-0.05102744884614014,"64":-0.053513121529453034,"65":-0.043080453605642555,"66":-0.107517852747003,"67":-0.11630370110664097,"68":0.04687273002495994,"69":0.1838953279851498,"70":0.0985551183861547,"71":-0.0030249253938844367,"72":0.05030670417915961,"73":0.2063102440412259,"74":-0.04533302126522735,"75":0.0568168735690425,"76":-0.0861340978477653,"77":0.18663963356744573,"78":-0.2254646945757188,"79":0.038276440628420304,"80":-0.2143522433481365,"81":0.04014802308179687,"82":-0.029669356658706576,"83":0.06937152128848216,"84":-0.13474059664208418,"85":0.002974407381776359,"86":0.020907769960419032,"87":-0.08870290364869535,"88":0.05990916338675509,"89":-0.03286996501382453,"90":-0.026046591390843137,"91":-0.16025619901188334,"92":0.059014619473120596,"93":-0.18157707364304856,"94":0.0035770906460689707,"95":0.08278860205029086,"96":0.07757029486998473}},{"sx":1,"sy":1,"depth":97,"w":{"0":0.04956320352176173,"1":-0.10823929175005637,"2":0.027997737643312776,"3":0.0456604934681488,"4":-0.15425753704001494,"5":0.06239046220203499,"6":0.06985593613232564,"7":0.08465166224194184,"8":-0.09037401220020638,"9":-0.1175075363332837,"10":0.027515444435068308,"11":-0.05633512437711576,"12":0.07030145732583247,"13":0.005083349784073553,"14":0.050276743567877195,"15":0.017769013712587902,"16":-0.09354845786090492,"17":-0.03652796402214476,"18":-0.12273565824524003,"19":0.057197868883675965,"20":0.029482022063286338,"21":0.04868321896994341,"22":0.12324394731872686,"23":0.06129239604815975,"24":-0.040403380219063006,"25":0.02499165925896394,"26":0.0012589901038717807,"27":0.20247568733742582,"28":0.20897335073760454,"29":0.08427480069288458,"30":-0.11711195909691413,"31":-0.036866883663499855,"32":-0.08357689703055925,"33":-0.10968309767414845,"34":-0.0635184983325458,"35":0.01954925020296933,"36":-0.05039601078034213,"37":0.0369521442816293,"38":-0.06835644761135683,"39":0.026014900815563978,"40":-0.25058119531572554,"41":0.0222690278309506,"42":-0.15994112028316704,"43":-0.012555354310943187,"44":-0.026516684120280517,"45":-0.0925071219955591,"46":0.03549602664058085,"47":0.04276089760985259,"48":0.03451271296877935,"49":-0.2044154723953885,"50":-0.09201451584049136,"51":0.0549755765277098,"52":0.013238825060240685,"53":0.1960643558761328,"54":-0.03524970038958356,"55":-0.0318712764476954,"56":-0.03903426138216791,"57":0.0010186377998571614,"58":0.1652003510012534,"59":-0.13418635412931817,"60":-0.07797997004963352,"61":0.14786582455259747,"62":0.11345623665009663,"63":0.06378147596357017,"64":-0.039204051155261245,"65":0.13952842498434884,"66":0.03573458040136968,"67":-0.1408827679830848,"68":0.10796405753458561,"69":-0.2464922953711855,"70":-0.0703951820097787,"71":0.034559086828510055,"72":0.025317946505733335,"73":0.17549479339886692,"74":0.09954544899050717,"75":-0.11339734694312592,"76":-0.09494743256099838,"77":0.035568745586320887,"78":-0.08360244454559611,"79":-0.10281135410644832,"80":-0.05400050514448753,"81":-0.04429871772215683,"82":-0.1334773466928996,"83":0.04133246833104784,"84":-0.11678972400104096,"85":0.10689745878339983,"86":-0.03631991059063846,"87":-0.20497151986246046,"88":-0.05171114522517104,"89":-0.03234762218942093,"90":-0.00797315017140294,"91":-0.0037387358634209805,"92":0.06767011910441285,"93":0.11711212800268285,"94":-0.002343069664781679,"95":0.15725027203155842,"96":0.18564707672318717}},{"sx":1,"sy":1,"depth":97,"w":{"0":0.034736108863027984,"1":-0.10751048708531345,"2":0.1217909787523869,"3":0.022318360319053734,"4":0.11137245740752351,"5":-0.13610912773099493,"6":-0.0169554193683919,"7":-0.14106860691479536,"8":-0.09212360658433458,"9":-0.05739911774143895,"10":-0.01837456908251493,"11":0.03047060662343245,"12":-0.20344203067363334,"13":-0.31074350641124826,"14":0.05312828003109255,"15":-0.06966733986210293,"16":-0.08094165326866094,"17":0.02099309916198589,"18":0.12057322397875862,"19":-0.04787811212379586,"20":-0.05050046255832626,"21":0.019640268010292682,"22":-0.045585380320956964,"23":0.08852524727164077,"24":0.004066209485789157,"25":0.16348644354949576,"26":-0.02619218019373417,"27":0.06611448328027518,"28":0.07618654833248328,"29":-0.11785940264458723,"30":-0.13021285556688864,"31":0.1765552829080375,"32":0.07168250558563656,"33":0.017519067054587903,"34":-0.05738152462200446,"35":-0.049080219053625314,"36":0.060241918964067144,"37":-0.16029070616601027,"38":-0.03823508532844111,"39":0.041070712292378096,"40":-0.07537765071502328,"41":-0.15455860930846313,"42":0.018953137597954497,"43":-0.056421430030507244,"44":-0.13090865463008408,"45":0.15401645952276133,"46":-0.07853299271324266,"47":0.009835477529930574,"48":0.05540612310272917,"49":0.11523389464385815,"50":0.05018496256370357,"51":-0.06876319733942504,"52":-0.13170547384733655,"53":-0.0926531891202979,"54":-0.07974891467328847,"55":0.0851887671928186,"56":-0.046518694484517516,"57":0.0633519598665881,"58":-0.00949096137033061,"59":0.003845653144764132,"60":-0.18044206073485974,"61":0.15706497968302394,"62":0.21822423857691692,"63":-0.015223048535270556,"64":0.14888640248503182,"65":0.043345297305148335,"66":-0.028620979266769975,"67":-0.11335710193332725,"68":0.097140312345079,"69":-0.04605238985540754,"70":0.15854382848762955,"71":-0.119659224755564,"72":0.0003494111592146385,"73":0.04970793843374751,"74":0.0071295343708416645,"75":-0.1528178937666732,"76":-0.039962799485254,"77":0.02922494844938104,"78":0.1696049043579019,"79":0.00022172119586722486,"80":0.012031955211502193,"81":-0.035144431066800534,"82":0.10145098693847682,"83":-0.04740530944893117,"84":-0.05885875411569117,"85":0.1687884961570081,"86":-0.06766788964012321,"87":-0.05965329953912688,"88":0.10139103838902028,"89":0.09558204851488139,"90":-0.061660497849531086,"91":0.19951935058055775,"92":0.02865669742060392,"93":0.13181494157844395,"94":-0.010072713057227834,"95":0.1592534807432036,"96":0.07821945007253664}},{"sx":1,"sy":1,"depth":97,"w":{"0":0.04178228148243428,"1":-0.04344200198976922,"2":0.06068383906319477,"3":0.11499581841898704,"4":-0.0053189988232078935,"5":-0.036954244769555486,"6":0.21790739492675876,"7":-0.21525770771784344,"8":0.019762137589437262,"9":0.03759515279783446,"10":-0.1465695679156367,"11":-0.09031915672034725,"12":0.05728182499022002,"13":-0.15803468781461633,"14":0.03656441996486323,"15":0.0622845228497528,"16":-0.06412780367776656,"17":-0.03273338837966879,"18":0.18242352373778276,"19":0.0649432095119118,"20":-0.0331017541751959,"21":-0.04010664395690099,"22":0.07876083678286847,"23":0.07068982109163462,"24":0.021246471457708197,"25":-0.05268409746463902,"26":-0.15205261660319425,"27":-0.0533877042347957,"28":-0.18197415587215937,"29":0.10794250481231109,"30":0.09065712228650682,"31":-0.03096706406508513,"32":-0.06223107170880023,"33":-0.021366942484972364,"34":0.03557621598188567,"35":-0.040817251030337905,"36":0.030093841752606022,"37":0.06667280381883095,"38":-0.015289311665747502,"39":-0.04084731915982702,"40":-0.036641097696399505,"41":0.04509060965064306,"42":-0.09928686523522409,"43":0.01437604876592054,"44":-0.02323058240937113,"45":-0.00875600101918136,"46":-0.04120217158403685,"47":0.11681896317595879,"48":0.09445780777504321,"49":-0.05259351186892312,"50":0.05500007526029476,"51":-0.0858850003761044,"52":-0.1835265817242213,"53":-0.18938826546533385,"54":-0.020119650640035663,"55":0.04621153930665707,"56":0.09161820632099145,"57":0.14271429433525573,"58":-0.054188260983655645,"59":0.07140706562385178,"60":0.1816481906272859,"61":0.019811286596990836,"62":-0.0016171235734171716,"63":-0.08284687725092094,"64":0.005953540335681725,"65":0.05930593340124795,"66":0.03248679395389795,"67":-0.10323629786852015,"68":0.08775330435245442,"69":0.028242868799152564,"70":-0.15208079159502663,"71":0.06244225978032717,"72":0.004301521640604156,"73":-0.03214690257951459,"74":-0.012882791036293867,"75":-0.15247317242190508,"76":-0.0626853840524789,"77":-0.08128790275558119,"78":-0.006600664788233037,"79":-0.10902929921511131,"80":0.06106556304051449,"81":0.13780096165146666,"82":0.05372437715846514,"83":0.10151923952643517,"84":0.11466188221810986,"85":0.03968062155000145,"86":-0.011967905738598027,"87":0.12322730946181532,"88":-0.1131123005648066,"89":0.0482376359555906,"90":-0.16581028240968193,"91":-0.07171019390991927,"92":0.08871345506144664,"93":-0.13911023357181934,"94":-0.005463447361265288,"95":0.07434998766837274,"96":0.1343127427585675}},{"sx":1,"sy":1,"depth":97,"w":{"0":-0.007261595439087076,"1":-0.04246838278778571,"2":0.016520996132647174,"3":0.16316028890400985,"4":0.20720282268118545,"5":0.16092567337561814,"6":0.0845342515673757,"7":-0.02979637072049143,"8":-0.032854418464086106,"9":0.019983783050308013,"10":0.03587188349790607,"11":-0.13865814995481174,"12":0.1979645691578639,"13":-0.028980369629832303,"14":-0.12873828784181504,"15":-0.12062187524480367,"16":0.02692690439856513,"17":-0.0026922336862700174,"18":0.04209570963271098,"19":-0.0010457952564014623,"20":0.02491308582011375,"21":0.09205007784067565,"22":0.05756052603431305,"23":-0.022506115304087044,"24":-0.029853875792427723,"25":-0.11829279756141324,"26":0.11614811755368168,"27":0.055170684650720406,"28":0.03929975869402721,"29":0.14039040156077703,"30":-0.09561630325278407,"31":-0.2920637861876159,"32":-0.04573744945482754,"33":0.004161182850586908,"34":-0.015786932512429866,"35":-0.010719816889771371,"36":0.08057423209084812,"37":0.015753382946420175,"38":0.018405469534929518,"39":0.01731127447241687,"40":-0.062400523403033516,"41":-0.10510613853569614,"42":0.0481757941218342,"43":0.016876409296778645,"44":0.1927932426610495,"45":0.08585431590131894,"46":0.08293048106191583,"47":0.048420854658972896,"48":-0.030123002144649653,"49":0.06793345280354512,"50":-0.0951589434834602,"51":-0.1615475965464775,"52":0.17460936973247054,"53":-0.2373916714081812,"54":-0.10205730373768186,"55":0.04205931134351331,"56":0.23323756093603423,"57":0.0600293109266883,"58":0.15661675403114603,"59":0.09773983280340334,"60":-0.027807448712200346,"61":0.10074461944186702,"62":0.059589701866452315,"63":0.021578696602921915,"64":0.11111608021338519,"65":-0.0035974183930961726,"66":0.023647029050473185,"67":-0.11553015029335681,"68":0.0030385857996199153,"69":0.005801696947863924,"70":-0.001376208766047329,"71":0.017476283218941964,"72":-0.13761353003194024,"73":0.003515434736341861,"74":-0.12173931623821395,"75":0.015065042230673696,"76":0.1203610683297346,"77":0.07535098574389221,"78":0.03375556967657711,"79":0.08411996319702193,"80":-0.11087667201134868,"81":-0.020423408982207764,"82":-0.03430933438775353,"83":0.0673358679586921,"84":0.06526526891041809,"85":0.0267113893131838,"86":-0.019878323210734662,"87":0.08134732262356222,"88":0.03586309034852836,"89":0.11939161901652745,"90":0.15122640162438855,"91":-0.00813064320648081,"92":-0.0683327336974965,"93":0.0102542912601007,"94":0.0232101567434883,"95":0.04849459168251844,"96":0.016447778211132722}},{"sx":1,"sy":1,"depth":97,"w":{"0":0.06354388647215128,"1":0.17472682702233425,"2":0.047127913464657105,"3":-0.04195057642693614,"4":-0.025076307266822553,"5":-0.013875932655474621,"6":0.021637747010483606,"7":-0.19764532058452908,"8":-0.04528749635958176,"9":-0.02251466340674942,"10":-0.10663493014687449,"11":0.07348116886765176,"12":0.011308340439029889,"13":0.0556543679599381,"14":-0.08167696407733528,"15":0.045689857104846666,"16":0.043019932383813096,"17":0.027508575811429615,"18":-0.02156094945965674,"19":0.033968706552227064,"20":0.17249699825828851,"21":0.05437263790902042,"22":-0.08381317195774039,"23":-0.08246065805516815,"24":-0.05269874631127613,"25":0.03237783196930548,"26":0.014512555764696792,"27":0.00003064914060144539,"28":0.04162375064732722,"29":-0.02661618398246287,"30":0.04385121944416949,"31":-0.17839338954449652,"32":-0.031725129264587336,"33":0.018825806325327175,"34":-0.14117770402395366,"35":-0.0855346368906959,"36":-0.08041071945958775,"37":0.06790990746531038,"38":0.09628863313936759,"39":-0.029905053733579,"40":0.17458717729254347,"41":0.21062465738096753,"42":0.06442732634305023,"43":-0.014581961491002961,"44":-0.030040015818617156,"45":-0.09061104651790439,"46":0.04937123856463392,"47":0.13502157474236698,"48":0.005444437922850546,"49":-0.05883696142893632,"50":-0.006837472922953746,"51":0.08009072002507886,"52":-0.013192214377751846,"53":0.0994600102962234,"54":0.11205851637104458,"55":0.01564581646334704,"56":0.10964069300443958,"57":0.09897975438685061,"58":0.029993259353574834,"59":-0.20341723554901214,"60":-0.012354465575404403,"61":0.029677516060935005,"62":-0.036088879477480754,"63":0.09174048485045605,"64":0.08441356422200143,"65":0.05862851037665137,"66":0.12200200437385729,"67":0.11499792943097438,"68":-0.07040241567710129,"69":-0.20614835583024615,"70":0.12298204137847185,"71":0.007011787606256725,"72":-0.08593067695420199,"73":0.01710194712202713,"74":0.16397472968777219,"75":0.000010052405226481915,"76":0.014230963010605899,"77":0.08119091072478096,"78":-0.0859593204945679,"79":-0.058723368934794046,"80":-0.0547112270700536,"81":-0.03474238077831445,"82":-0.11796322923569122,"83":0.020324556074782646,"84":0.0992186736280018,"85":-0.08502454506489596,"86":-0.0156150333173108,"87":-0.06970769829902683,"88":0.039279322084454234,"89":-0.005210488544134471,"90":0.07300690074923909,"91":-0.2408610672430419,"92":0.03363213156961338,"93":-0.049622521019240994,"94":-0.03242726295608156,"95":-0.014049011424470443,"96":-0.1187574792243965}},{"sx":1,"sy":1,"depth":97,"w":{"0":-0.20586781892329467,"1":-0.04771768048511351,"2":0.07034732700340468,"3":-0.009440524891016105,"4":-0.0967957031579061,"5":0.09334259965564026,"6":0.012622566089974072,"7":-0.09549311026100225,"8":-0.05861342353060853,"9":0.0478775320723674,"10":0.018566199725661117,"11":0.011726876553563434,"12":0.00027212793163942554,"13":-0.05659492703314445,"14":0.028178167852827923,"15":0.019501111820865582,"16":-0.009344993175824644,"17":0.21152502381653035,"18":0.07983274901190068,"19":-0.15981161213607692,"20":-0.020671772395216597,"21":0.2402857160403178,"22":0.10064791653657937,"23":-0.014244352952141152,"24":-0.0791419359288712,"25":0.05754337904245001,"26":0.19370952709088915,"27":-0.20748651454370554,"28":-0.132556815744464,"29":0.11985635475440129,"30":-0.037491624415634896,"31":0.07558222712569279,"32":0.10845662777113874,"33":-0.03452925452753133,"34":-0.03371936404031325,"35":-0.15695487741198338,"36":-0.03289887961020215,"37":-0.006162830931196442,"38":-0.013140567319260407,"39":-0.058578325094995956,"40":-0.006402537008260692,"41":-0.21920403423893767,"42":0.014283108777971905,"43":-0.09778243925605697,"44":-0.10906830924499868,"45":0.12201308413858172,"46":-0.024118373134804437,"47":0.06093309051723898,"48":0.04915926961097698,"49":-0.10059281263595767,"50":-0.20564672416782406,"51":-0.053133569264385914,"52":0.15088125247599615,"53":0.23141478483559041,"54":-0.17225753726602844,"55":0.21088150844641868,"56":-0.02754177449491442,"57":0.04030235924131928,"58":-0.1289171262727715,"59":-0.05890133244805286,"60":0.09972115135796569,"61":-0.00860213234099365,"62":-0.004334907853954344,"63":-0.06588212026526828,"64":0.17815441245185282,"65":-0.02174448892747786,"66":0.1027489984869588,"67":0.10724581902613087,"68":0.057066622711872864,"69":0.03315055302055508,"70":-0.06243899962187473,"71":0.15953619570162725,"72":-0.130405388129343,"73":0.1906732027498342,"74":-0.03508125188987887,"75":-0.0034832075405232346,"76":-0.18132952223519783,"77":-0.29004664098274696,"78":0.007132515531548336,"79":-0.007750123648983524,"80":0.2322129907812449,"81":-0.07164319796304931,"82":-0.0190862052998545,"83":-0.07669297982548721,"84":0.05042773027264112,"85":-0.18701375271627632,"86":-0.03632556611103693,"87":-0.2595852237493201,"88":-0.11626854994891278,"89":-0.014013231396159252,"90":0.07401894998607426,"91":0.06998464831992002,"92":0.15778996237067283,"93":0.013610835389128845,"94":0.039360319723838355,"95":-0.12067251655193234,"96":-0.061941276211611496}},{"sx":1,"sy":1,"depth":97,"w":{"0":0.07529075638472378,"1":-0.017383034601078012,"2":-0.02148955845339165,"3":0.06305410225453156,"4":-0.08616295192086249,"5":0.10787279034389373,"6":-0.012011759164564045,"7":0.009255271871927054,"8":0.07480878558113452,"9":0.06652511132343329,"10":0.10158644595196757,"11":0.09893595838310767,"12":0.04541460793989304,"13":0.028324194012290853,"14":-0.08262064312905364,"15":-0.15641744757284998,"16":-0.0619341432982479,"17":-0.01154861885370755,"18":-0.038523209372675025,"19":-0.0017698799888406784,"20":-0.1378638152213393,"21":-0.05467041859728602,"22":0.16286981411299578,"23":0.05163364792451711,"24":0.14639995099376263,"25":-0.06274713804884541,"26":-0.05853838773614871,"27":-0.02873246423640327,"28":0.001291393324594509,"29":0.010685006630303353,"30":0.021968893704176144,"31":0.009809252104116574,"32":-0.014202253839260704,"33":0.02010992822936299,"34":0.17553938371645395,"35":-0.05881809116340833,"36":-0.31006670137272724,"37":-0.03930416072175741,"38":-0.004208904238851986,"39":0.06934362914427745,"40":-0.10818020043897911,"41":0.11957875991417743,"42":0.14355907119005093,"43":-0.16405693227055423,"44":0.04649096380902943,"45":0.032546505889762156,"46":-0.02552532765100087,"47":0.009551253021040611,"48":0.009513180208109895,"49":-0.15173983827351922,"50":0.09014594590565055,"51":-0.03271450620280869,"52":-0.18113590273404623,"53":-0.09579077059440738,"54":-0.11631953766624906,"55":0.009095081167009541,"56":0.023766697156375877,"57":-0.11439006968236985,"58":0.07311926468922302,"59":-0.02948912372841673,"60":-0.019115813871586746,"61":-0.10578352806495724,"62":0.006571777304208198,"63":0.18344809061850476,"64":-0.0128365400179007,"65":0.07505277516867245,"66":0.10970062437364542,"67":0.05169471706203929,"68":-0.01969570847971301,"69":0.07939771079471473,"70":0.008562852450910366,"71":-0.05671783652226496,"72":-0.014520714650082967,"73":0.1059215571359505,"74":0.019349708591238503,"75":-0.11240407332080526,"76":-0.01664178072778892,"77":0.01702189614137795,"78":-0.07622595214883274,"79":-0.1827140378831828,"80":-0.06374667915974255,"81":0.027500186475573354,"82":0.09230958077614498,"83":0.10588035762837082,"84":-0.04714200069883704,"85":0.11253126069543946,"86":0.18442384338469162,"87":-0.013237931265201223,"88":0.06427892371649283,"89":-0.02041515617754009,"90":0.009320677567733276,"91":-0.15180324461202496,"92":-0.07471202414207431,"93":-0.09010010338527465,"94":-0.15023945175289372,"95":-0.17972880869973243,"96":-0.11960907521692969}},{"sx":1,"sy":1,"depth":97,"w":{"0":0.1742539128153396,"1":-0.005122213253553045,"2":0.08382293687859214,"3":0.11877607012815483,"4":0.043280736433743736,"5":0.15324735144879137,"6":0.10266951148021888,"7":-0.05756856698110083,"8":0.20277759522031713,"9":0.10901231582492517,"10":0.16268077197557163,"11":0.14219770671827325,"12":-0.10790853594961308,"13":0.085026057185104,"14":0.12843125886261303,"15":-0.07526939418316322,"16":-0.020161760027563373,"17":-0.0963893338914731,"18":0.0235709132145721,"19":-0.04419719377164129,"20":-0.03949237743501452,"21":0.04493752029630737,"22":0.06664442645623223,"23":0.06560472122427417,"24":0.05704227696862077,"25":-0.09795793447694526,"26":0.1422049498179333,"27":-0.044614209112974486,"28":0.06074861596169866,"29":0.003791945071511429,"30":-0.01247847577168746,"31":-0.08345294596330054,"32":-0.14575084031327276,"33":-0.15180053416240682,"34":0.03807490952124713,"35":0.12111804195532634,"36":0.39624483299026353,"37":0.02178139503700271,"38":0.013506629290468431,"39":-0.022589976178508345,"40":0.06464628902446605,"41":-0.12683601084341176,"42":-0.07395660602835151,"43":0.1257546002099947,"44":0.02900616688257671,"45":-0.07333136778445153,"46":-0.1596237231984436,"47":-0.03201242167680416,"48":-0.1489385391720426,"49":-0.21275633589997514,"50":0.07503123052846476,"51":-0.15927413786709232,"52":0.001073394549095978,"53":-0.03948183385737745,"54":0.09550315854896808,"55":0.024302310924476156,"56":-0.1345674914016654,"57":0.19797909069684863,"58":0.1457943400690712,"59":-0.1382481717722,"60":-0.10732667437833164,"61":-0.07484545606177138,"62":-0.12756705582783434,"63":0.03790403388656659,"64":0.10075350062488758,"65":-0.0063199353488014465,"66":-0.010588526942852759,"67":0.10409741422545828,"68":0.20672675072780822,"69":0.0760251619506872,"70":-0.06772632863817706,"71":-0.06946716935178732,"72":0.02987917612155481,"73":0.014722651566119753,"74":0.1072665869989942,"75":0.0302113181080224,"76":-0.10324430329245667,"77":-0.03977477497990187,"78":-0.07981576859263773,"79":0.2533414013261427,"80":0.10280300317228006,"81":0.016104300581571092,"82":0.14495942525852384,"83":-0.0530798844229496,"84":0.11388604843746486,"85":0.10336725327717003,"86":-0.07620168707282222,"87":-0.06373029267597603,"88":-0.03150863161134254,"89":-0.12628736367408358,"90":0.07193821795547094,"91":-0.0892974513203448,"92":0.0915104832049776,"93":0.16828503214006443,"94":0.06794283320741938,"95":0.00041591339161243813,"96":-0.14139912843081043}},{"sx":1,"sy":1,"depth":97,"w":{"0":0.011994018389853013,"1":-0.0751894250977082,"2":-0.006024478251615055,"3":0.012270182340218198,"4":0.14585626569508212,"5":0.06297612682145272,"6":0.290703076740911,"7":-0.07863517212809355,"8":0.024677073066298873,"9":-0.11689975020268471,"10":0.01608753314080282,"11":-0.08953040142794429,"12":0.043195030261439935,"13":0.10421672068043729,"14":0.04667634481840043,"15":-0.004902151989146653,"16":0.05606041774818423,"17":0.06828851519594069,"18":0.005004067614815625,"19":0.2001167337697021,"20":0.07249122011175956,"21":-0.05607514884872956,"22":0.1245360047365444,"23":-0.07909487902845998,"24":0.07208247953272294,"25":0.11602785839287728,"26":0.13142294315496172,"27":-0.046141226506715025,"28":0.012321858462675975,"29":0.2203588563265912,"30":0.03838640664483301,"31":-0.10973233327369905,"32":-0.03102523505545307,"33":0.03773051426269334,"34":0.002688479880405153,"35":-0.16189478413199224,"36":0.020348340178705383,"37":-0.11109108431473089,"38":0.059339550293487774,"39":-0.12721140689061627,"40":-0.06178569923407716,"41":0.05594994345877273,"42":0.18854021377416788,"43":0.012562184144771527,"44":0.0373133963076762,"45":0.0393927898082367,"46":-0.2444481693185738,"47":-0.0601695010264301,"48":-0.03870660502929019,"49":0.011705337055182584,"50":0.0713386268421973,"51":-0.06232068501009988,"52":0.09898686081778205,"53":-0.0667039086963467,"54":-0.053705898436383855,"55":-0.018863164298569254,"56":0.10470494793219418,"57":0.15997963729669928,"58":-0.05652473958899351,"59":-0.027959479191148887,"60":0.0012304822104239712,"61":-0.05136711600519772,"62":-0.12176373955448917,"63":-0.11008759928523998,"64":-0.1342186706156296,"65":-0.032630263339720036,"66":-0.05967686104553768,"67":0.13886522503141954,"68":0.10512255586255034,"69":-0.15501277166293131,"70":-0.06030043827231198,"71":0.23587236605158673,"72":0.03342963100303619,"73":-0.0027521331628432037,"74":-0.015475342883466527,"75":-0.05088013061199844,"76":-0.03576870544816578,"77":-0.11539386116273762,"78":0.03740791624864962,"79":0.005108402404566623,"80":-0.08353747659579544,"81":0.030319343682428716,"82":-0.0874412766996582,"83":0.13326784504015846,"84":0.06080386409986672,"85":-0.033435181885747595,"86":-0.02132793963130911,"87":-0.10429969809651841,"88":0.016360582926727214,"89":0.11266394374105082,"90":0.0012114446682129582,"91":0.014597757967025123,"92":-0.024592056016192212,"93":0.058693564447660475,"94":0.03502546176204244,"95":0.1955917755248498,"96":0.1167884766067032}}],"biases":{"sx":1,"sy":1,"depth":26,"w":{"0":0.1,"1":0.1,"2":0.1,"3":0.1,"4":0.1,"5":0.1,"6":0.1,"7":0.1,"8":0.1,"9":0.1,"10":0.1,"11":0.1,"12":0.1,"13":0.1,"14":0.1,"15":0.1,"16":0.1,"17":0.1,"18":0.1,"19":0.1,"20":0.1,"21":0.1,"22":0.1,"23":0.1,"24":0.1,"25":0.1}}},{"out_depth":26,"out_sx":1,"out_sy":1,"layer_type":"relu"},{"out_depth":26,"out_sx":1,"out_sy":1,"layer_type":"fc","num_inputs":26,"l1_decay_mul":0,"l2_decay_mul":1,"filters":[{"sx":1,"sy":1,"depth":26,"w":{"0":-0.17678577142590066,"1":-0.14945268704439527,"2":-0.30321691271481144,"3":-0.022810962162525192,"4":0.10396079287152926,"5":-0.2042572377236528,"6":-0.10871067502707844,"7":-0.14604092436760727,"8":0.0679995830884218,"9":-0.20532770226585786,"10":0.08250196995833751,"11":0.03276543262316828,"12":0.0031979264604349946,"13":-0.04082197277338434,"14":0.0990124797572571,"15":0.19309272123930502,"16":0.23330157185933068,"17":0.16997128591392127,"18":-0.1887637038522155,"19":0.2519901846895231,"20":0.06741661663191507,"21":-0.3984039448914277,"22":0.1267564979253848,"23":-0.4428317074584052,"24":-0.29057934915983746,"25":-0.168348129836724}},{"sx":1,"sy":1,"depth":26,"w":{"0":0.0868464069521063,"1":-0.36046780671574,"2":-0.24403397582196515,"3":0.01751940010860453,"4":0.030790616059657706,"5":-0.30953936957807,"6":-0.07847456330240477,"7":0.03750589709964761,"8":-0.09091985523108208,"9":0.26546955172895736,"10":-0.06504741799702633,"11":-0.07610917964425555,"12":-0.020616422108166214,"13":0.3258010834146734,"14":0.19477072306281534,"15":-0.3107663408892463,"16":0.2430214482897185,"17":-0.25959381015760924,"18":0.19935450085958928,"19":-0.2775016008873916,"20":-0.11233689012209228,"21":0.059792056924011586,"22":0.13562390540073277,"23":0.031560559468084046,"24":0.2706754100541726,"25":0.05223453472860714}},{"sx":1,"sy":1,"depth":26,"w":{"0":0.06133319731863387,"1":-0.09413883875258057,"2":-0.07604301981665822,"3":0.07024873396831066,"4":-0.17769653017921427,"5":-0.3736215344217071,"6":-0.030696518457363327,"7":0.404542869831931,"8":-0.3672817671272284,"9":-0.06706466297615608,"10":-0.18970948704799526,"11":-0.23788656090340676,"12":-0.1370372754889298,"13":-0.17598490538085942,"14":-0.009951419117122266,"15":0.22746136348088844,"16":0.35235269069881714,"17":-0.1454548678912213,"18":-0.08754704867257111,"19":-0.07706643843348644,"20":0.567081901710056,"21":-0.2764180789211684,"22":0.3037857934093148,"23":-0.1056185968757323,"24":-0.055112518927222236,"25":-0.20464404939300057}},{"sx":1,"sy":1,"depth":26,"w":{"0":-0.1912005587145073,"1":0.11167813070551225,"2":0.25042930929989526,"3":-0.16579618865817417,"4":-0.03898487091187021,"5":-0.11392017122897685,"6":0.3148450788777311,"7":0.25415185278646535,"8":0.2595257119169419,"9":-0.11926536239214354,"10":0.12223853300541296,"11":0.37145685162683617,"12":0.08245960781337999,"13":-0.10482158412178941,"14":-0.07827742900967867,"15":-0.15637622305439997,"16":0.09729602706798068,"17":0.07926144676625729,"18":0.3751797938442893,"19":0.02557536963787625,"20":-0.16800438479090124,"21":-0.2154188483183624,"22":0.14104211650861073,"23":0.0899847231728952,"24":0.04619701749925943,"25":-0.03381360631971206}},{"sx":1,"sy":1,"depth":26,"w":{"0":-0.2730448888860504,"1":0.38338836637163404,"2":0.062461611676194594,"3":0.2394664849533877,"4":-0.00199734764372964,"5":-0.274978907072895,"6":0.04459521656185435,"7":0.13165010056221907,"8":0.19254196695568393,"9":-0.19418870721334883,"10":0.15455253584669928,"11":0.0199857251000451,"12":-0.06727467954276857,"13":0.09596935375810862,"14":-0.07255026679332639,"15":-0.017296655529986438,"16":0.1279050508499966,"17":0.24483204489075977,"18":-0.06499841054131221,"19":0.03576273375583389,"20":-0.21182454545765997,"21":-0.15115802759861544,"22":-0.26295989653618596,"23":0.08787492074421585,"24":0.20295368215269055,"25":-0.19386023631479776}},{"sx":1,"sy":1,"depth":26,"w":{"0":0.17277104139708713,"1":-0.17724681268185422,"2":0.01831635935677819,"3":0.14858635070580947,"4":0.17584340315981306,"5":-0.374390720297873,"6":-0.0842513792906032,"7":0.02855533326412001,"8":-0.23119787981230697,"9":0.1946929099425237,"10":0.3934584637877817,"11":0.00932739579137955,"12":0.0018558864923419879,"13":0.10904911968310131,"14":0.04305993330593831,"15":0.2478296301861475,"16":0.018058611636574896,"17":0.09637518663091446,"18":0.18978008174273256,"19":0.11352084690356588,"20":0.10880787676320607,"21":-0.07403309423798769,"22":-0.0861441178698588,"23":-0.016814633902532235,"24":-0.1279005163245417,"25":0.3570014771637888}},{"sx":1,"sy":1,"depth":26,"w":{"0":0.029353676128658007,"1":0.2618503443483558,"2":0.05283157996436698,"3":0.214385451261756,"4":0.10650889479157977,"5":0.046611065547040316,"6":-0.3469586097130403,"7":0.30525190494096943,"8":0.25110670890136055,"9":-0.08175018833261012,"10":-0.13438951545182415,"11":0.25898423445205104,"12":-0.2461508904325355,"13":0.17995460776607872,"14":-0.027917852643386004,"15":0.037496641496251905,"16":0.07496134822990194,"17":-0.11332350068331118,"18":-0.07185364641190597,"19":-0.12066352991749062,"20":0.19866337327752717,"21":0.2847262119907436,"22":-0.18323008224686044,"23":-0.32360618450282586,"24":-0.1533615075997915,"25":-0.17488606630450051}},{"sx":1,"sy":1,"depth":26,"w":{"0":0.4359021618245023,"1":0.22300244373237982,"2":-0.1839782233539389,"3":-0.037187010621680304,"4":0.21949036377490852,"5":0.09347762267188403,"6":-0.09862175689001466,"7":0.06760191632349062,"8":0.22435184726825105,"9":0.45915038100991407,"10":-0.2922880063634622,"11":-0.21736203825565983,"12":-0.07708812633549655,"13":0.042747439283394896,"14":-0.23759522846969744,"15":0.38852557813109123,"16":-0.5727152638249015,"17":0.48780383296321184,"18":-0.053191705575553375,"19":0.027966809865075774,"20":0.3548596309504654,"21":0.20076753719349225,"22":-0.439034028937645,"23":0.4242322843365964,"24":0.04848357985207541,"25":-0.06383299578033234}},{"sx":1,"sy":1,"depth":26,"w":{"0":0.04575618092883068,"1":0.0465767992524841,"2":0.24069765940225685,"3":-0.07540213562022194,"4":-0.17469235615413026,"5":-0.09851069221814576,"6":0.20968414016206263,"7":-0.04706186274772403,"8":0.1941224701096252,"9":-0.029210082594265233,"10":0.28263945560202147,"11":0.12335840701876474,"12":-0.08675028004321073,"13":0.006576727186422403,"14":0.030366978106073188,"15":-0.153798618525213,"16":-0.08668032671988722,"17":-0.02489215701565461,"18":0.01528104393703148,"19":0.19131907917398105,"20":-0.1002100116770215,"21":-0.19217063403084741,"22":-0.09638494768681095,"23":0.0066045864057652885,"24":0.2625048593434904,"25":0.025331682981472828}},{"sx":1,"sy":1,"depth":26,"w":{"0":-0.13121209306097864,"1":0.2108829794497354,"2":-0.07781467910215005,"3":0.19535922235130174,"4":0.21593378881804892,"5":-0.04200600642466927,"6":-0.1847195635347092,"7":0.41080677523559234,"8":-0.21774074782304173,"9":0.13571785415106996,"10":0.13840715874395035,"11":0.07220573653959628,"12":-0.0744650161935908,"13":-0.030570899332821293,"14":-0.061785882756791706,"15":0.06768574783094787,"16":0.03619262119443279,"17":-0.08286110087541075,"18":-0.14143867874731586,"19":0.1059343639633002,"20":-0.1433939642851288,"21":0.3252534575666786,"22":-0.24402835317478574,"23":0.33500566095276785,"24":0.2918718390436655,"25":-0.002165866455793559}},{"sx":1,"sy":1,"depth":26,"w":{"0":0.015650490489569065,"1":0.06450358803609978,"2":-0.31400313911268257,"3":-0.18124609617524154,"4":-0.04606291855972427,"5":0.07728349110273677,"6":-0.15119340885914365,"7":0.004256702029214523,"8":-0.16346234271583354,"9":-0.2602113512755107,"10":-0.1894038169356708,"11":0.02227555682484533,"12":0.20888113509015085,"13":0.10626463724451336,"14":-0.08483271540094255,"15":0.09210553332392432,"16":0.043558704997115824,"17":-0.29429075544967537,"18":0.031001214986929017,"19":0.08919897158944319,"20":0.040161341756348654,"21":-0.09269817342477471,"22":0.07399598022662134,"23":-0.27549671998352787,"24":0.025699847604421483,"25":0.02157857556949031}},{"sx":1,"sy":1,"depth":26,"w":{"0":-0.21969671330111792,"1":0.4380129023096563,"2":0.10758104760550267,"3":0.3236789307181857,"4":-0.10866429009781671,"5":0.07069176893435117,"6":0.11994967373915964,"7":0.06846264940563722,"8":0.10554975729140786,"9":-0.39218221551601984,"10":-0.33390563180213223,"11":-0.1218335749690462,"12":0.3549340395790994,"13":0.2781085420768456,"14":0.23630713339473924,"15":-0.31083850274457353,"16":0.07466117886200518,"17":-0.012058903786687891,"18":0.051157118928592635,"19":0.06576041610117161,"20":-0.027995909135898816,"21":0.10052816489621112,"22":0.21250925873656223,"23":-0.13925887892535416,"24":-0.036678138037524365,"25":-0.011213303381563431}},{"sx":1,"sy":1,"depth":26,"w":{"0":0.17075283121377363,"1":0.1811055971844563,"2":0.010642769559304543,"3":0.35122826979139254,"4":-0.31008558088477345,"5":-0.13666863360586187,"6":0.05074934343663343,"7":0.10113307272989397,"8":-0.2896292679291494,"9":0.19616206485244067,"10":-0.45603755898968396,"11":0.03721323953786648,"12":0.0615335020267508,"13":-0.04357263636979029,"14":-0.09995669747598433,"15":0.1901434744427196,"16":-0.07685290558510832,"17":-0.15594553041601836,"18":0.1322630396586001,"19":0.05783311758419817,"20":0.22763721288611102,"21":0.18309588529363907,"22":-0.1594706792081653,"23":-0.09876295402244106,"24":-0.19972896059521097,"25":0.25216215266656616}},{"sx":1,"sy":1,"depth":26,"w":{"0":0.06498177064295989,"1":-0.13815801151386897,"2":0.3178176012796264,"3":0.056324482498182386,"4":-0.20922779740090494,"5":-0.22770748001911412,"6":-0.07907839707270219,"7":-0.019861015202064965,"8":-0.22966019325997408,"9":0.14242259724254933,"10":-0.34571407738044063,"11":-0.013535590923134607,"12":0.2013316779573334,"13":0.2598368506787258,"14":-0.5160311048706285,"15":-0.022477223458168275,"16":-0.13051198327450905,"17":0.25482265407392984,"18":-0.3432798778070402,"19":-0.182481281462407,"20":0.34863851870826734,"21":0.13354476153289982,"22":0.22523098590891882,"23":0.1953596648783129,"24":-0.02521397019296721,"25":-0.08693286777236814}},{"sx":1,"sy":1,"depth":26,"w":{"0":0.020262044693858,"1":-0.2846787976475785,"2":0.07029729069774544,"3":-0.02390980417204059,"4":-0.4144571001141127,"5":-0.408525396640401,"6":0.0543850884349246,"7":-0.15658008615637115,"8":-0.1630773871613487,"9":-0.15015881820847105,"10":-0.09883112636093723,"11":0.24289199686587032,"12":0.06203836747503344,"13":0.06781915540431184,"14":-0.12062481404442321,"15":-0.1514093655327762,"16":0.274612933798684,"17":0.11423852071398718,"18":0.14961328987388836,"19":-0.03733000010682575,"20":-0.06733633980752338,"21":-0.20222219330640348,"22":0.43598463408638444,"23":-0.10302884118214362,"24":0.10403548902218172,"25":0.11631768233518247}},{"sx":1,"sy":1,"depth":26,"w":{"0":0.14076258606121583,"1":0.4479870116440076,"2":0.20003817642918564,"3":-0.0692813054685928,"4":-0.04326349691297393,"5":-0.07052190355999542,"6":0.006120515511256849,"7":0.11481345061456032,"8":-0.1707722657303913,"9":0.2449117343310936,"10":-0.3243419348809367,"11":-0.08555837091545264,"12":0.24556647491062683,"13":0.019700235912586142,"14":0.17125908937845363,"15":0.14030791531848424,"16":-0.09657498494874718,"17":-0.1654526065669701,"18":-0.11340478274651453,"19":-0.04664331604199988,"20":0.06635583842484552,"21":-0.188226649239005,"22":0.07072518790559891,"23":0.09447507598727607,"24":-0.03789528602446318,"25":-0.25335714558121564}},{"sx":1,"sy":1,"depth":26,"w":{"0":-0.30415180922028173,"1":-0.07762091249268713,"2":-0.11956620010769332,"3":0.2946805617550154,"4":-0.07692621077070759,"5":0.003492456232815527,"6":-0.025791013732864843,"7":-0.06119263221537489,"8":0.0592534936814066,"9":-0.12092074646799622,"10":-0.007325156079679621,"11":-0.24657917599719253,"12":-0.3382014259681998,"13":0.18992589930753567,"14":-0.2511256653113479,"15":0.1702979680373784,"16":-0.09141292708896376,"17":-0.031736189268860904,"18":-0.16450547745572502,"19":-0.028230831681741043,"20":-0.14312477876467114,"21":-0.09800396948730196,"22":0.0493454308423078,"23":0.10141792434111602,"24":0.3531777614290125,"25":-0.19251410684334924}},{"sx":1,"sy":1,"depth":26,"w":{"0":-0.06925001416438124,"1":0.10626200324984741,"2":0.0035984520552546965,"3":0.210935888906538,"4":-0.012881968946916924,"5":0.10181916689728929,"6":0.0072049108659574665,"7":0.3290092690221162,"8":-0.29251593981093654,"9":-0.084527056389965,"10":-0.5071964462671718,"11":0.12153250301160663,"12":-0.05617826372068868,"13":-0.16208153578764317,"14":0.11340622086599034,"15":-0.11570864789735667,"16":0.13293154043405384,"17":-0.24034844490656845,"18":0.11672770188459623,"19":-0.02302106006183983,"20":0.08542755054241817,"21":-0.06863523455625635,"22":0.3044710917525259,"23":-0.2618889167097744,"24":0.13324824204430252,"25":-0.06168928199595979}},{"sx":1,"sy":1,"depth":26,"w":{"0":-0.052350598948738954,"1":0.057601507480691316,"2":-0.00896072278840917,"3":-0.44240272701511646,"4":0.0011230424151976734,"5":-0.22009203612369446,"6":-0.028851148423102817,"7":0.10642125005558495,"8":0.25879438243997827,"9":0.07212773172764611,"10":-0.1888085061392587,"11":0.1807657873226044,"12":-0.12139798626165783,"13":-0.05181620416988797,"14":-0.013121000451282895,"15":-0.29912576105227645,"16":-0.010584752831368442,"17":0.32214971078945404,"18":0.0719200661908356,"19":-0.12047065747903293,"20":-0.0857853840287097,"21":0.2565484773050454,"22":-0.3628857892130415,"23":0.12104629596643157,"24":-0.3552563069762642,"25":-0.08911386890946243}},{"sx":1,"sy":1,"depth":26,"w":{"0":0.10985342375615394,"1":0.25337736618335305,"2":0.3049751717859141,"3":0.2506273420709115,"4":-0.39855774619978995,"5":-0.03962814461328926,"6":-0.15982223322556746,"7":-0.015379938017082585,"8":0.08248426607818739,"9":0.15698719665798858,"10":0.05384470789892187,"11":0.12078783173436176,"12":-0.34391792825927436,"13":0.11185688460060407,"14":-0.29092122193377207,"15":0.06458856116011488,"16":-0.27925940969916074,"17":0.08214262557197848,"18":-0.0659601324657123,"19":0.7735886721668086,"20":0.14426708375562952,"21":0.1025524609991043,"22":-0.05847722343625305,"23":-0.20994551793369065,"24":-0.4593892604726442,"25":-0.030235088780455728}},{"sx":1,"sy":1,"depth":26,"w":{"0":-0.1266264403647347,"1":-0.222601160121844,"2":-0.17866229447402876,"3":0.23611652425501026,"4":-0.020294867161759395,"5":0.32633763422948564,"6":-0.08789988826021958,"7":0.13913456830658513,"8":-0.5585802140217437,"9":0.11857086740964307,"10":-0.07764714673952619,"11":0.07201110083476897,"12":0.15368103876376898,"13":-0.25176955415285274,"14":0.09051081346943546,"15":0.13535849901330568,"16":0.028885691241954548,"17":-0.2487464706811811,"18":-0.19787622533928292,"19":-0.011925638542085129,"20":0.26322351527043863,"21":0.16330675285536672,"22":0.3357315094914887,"23":0.20336938338404723,"24":-0.03524539405927587,"25":0.29313084845202414}},{"sx":1,"sy":1,"depth":26,"w":{"0":-0.11182706282244663,"1":0.05047631130624796,"2":-0.06612696378111478,"3":-0.28486111184717755,"4":-0.0899204822662665,"5":0.2818980929772612,"6":-0.21571114934599867,"7":0.15215399226714862,"8":-0.4454593419059964,"9":0.05466911783590025,"10":0.04856959298579808,"11":0.010133801479051834,"12":-0.2038470625543074,"13":-0.08273306211530092,"14":0.3083067271194369,"15":0.2653867455480405,"16":-0.22045812895221156,"17":0.2920661286019067,"18":-0.5334777509886608,"19":0.08914504073242498,"20":-0.2329669385244968,"21":0.129591833827048,"22":-0.11676012826239084,"23":0.06621376314210141,"24":0.18585306414518063,"25":0.14061456142794124}},{"sx":1,"sy":1,"depth":26,"w":{"0":0.11112805499842959,"1":0.048972594236852914,"2":0.025458999711984755,"3":0.3463563569289701,"4":-0.13038253028995192,"5":-0.25785196069921373,"6":-0.1806623048912858,"7":0.0320160805052659,"8":0.28624837796544217,"9":-0.2203890115165077,"10":-0.00038339246087622,"11":-0.12878727568287676,"12":0.08645333749523114,"13":-0.0009502298775867367,"14":-0.1137244222077285,"15":0.31227042242849024,"16":-0.1848631086148697,"17":-0.12381421092740962,"18":-0.1900707484028752,"19":-0.04832906415618511,"20":-0.020537741064444108,"21":-0.06833580873409101,"22":0.09290078422466319,"23":-0.2857506209476855,"24":-0.22923646443442497,"25":-0.18293333822366864}},{"sx":1,"sy":1,"depth":26,"w":{"0":0.22559400370601548,"1":0.14246793297565888,"2":-0.12861394612357868,"3":0.16344772618777836,"4":-0.042955882630719554,"5":0.30939605522667807,"6":-0.02908547371941302,"7":0.274265383445893,"8":-0.0003516079724804187,"9":0.031430038253447305,"10":-0.05115209085747832,"11":0.2929806576326867,"12":-0.2829436359183626,"13":-0.49632234448167367,"14":-0.1526143386082008,"15":-0.08211223595987444,"16":-0.07266770887555338,"17":-0.06133918922861257,"18":0.06200263908008294,"19":0.26707768103424784,"20":-0.06424363357409191,"21":0.022631297210251845,"22":0.15602383170550885,"23":-0.0963629434013838,"24":-0.017211192256547925,"25":0.009751442777760869}},{"sx":1,"sy":1,"depth":26,"w":{"0":-0.17410783655155782,"1":-0.16889223649791785,"2":-0.18599770906223823,"3":-0.15697507173820238,"4":0.24247915507609388,"5":0.16731563727115412,"6":-0.23214828125239018,"7":-0.06442258592689891,"8":-0.2789750485108375,"9":-0.048644207528379266,"10":0.1146238502127602,"11":0.13461853468120757,"12":0.37900317655927374,"13":0.3471690026802773,"14":-0.00748164275451595,"15":-0.03646346676200708,"16":-0.13697053452980912,"17":-0.02767806898434529,"18":-0.3599789267787948,"19":-0.20649138089027633,"20":0.3048286894032589,"21":0.2123226862428487,"22":0.09781869855958034,"23":0.4109651417227741,"24":0.3281932791874189,"25":0.04332968135202497}},{"sx":1,"sy":1,"depth":26,"w":{"0":0.2140848828703797,"1":-0.025252581349579452,"2":-0.18389825147096328,"3":-0.23872488016385535,"4":0.12362693816198049,"5":-0.02296168938528915,"6":0.06262323883966738,"7":-0.01650166990793086,"8":-0.16497345928648358,"9":0.10771187906431345,"10":-0.24273428020029436,"11":-0.09009274300760428,"12":0.5050501185540859,"13":-0.1168821870821761,"14":-0.18842685032425724,"15":0.31078213870564736,"16":0.16271093876370724,"17":-0.08688665645136426,"18":0.02306098799741083,"19":0.02902817079460804,"20":0.43043817167238735,"21":-0.26059030762976637,"22":-0.10481161686565392,"23":-0.1496566291606938,"24":-0.32405235019822365,"25":0.07441744444099346}}],"biases":{"sx":1,"sy":1,"depth":26,"w":{"0":0.1,"1":0.1,"2":0.1,"3":0.1,"4":0.1,"5":0.1,"6":0.1,"7":0.1,"8":0.1,"9":0.1,"10":0.1,"11":0.1,"12":0.1,"13":0.1,"14":0.1,"15":0.1,"16":0.1,"17":0.1,"18":0.1,"19":0.1,"20":0.1,"21":0.1,"22":0.1,"23":0.1,"24":0.1,"25":0.1}}},{"out_depth":26,"out_sx":1,"out_sy":1,"layer_type":"relu"},{"out_depth":33,"out_sx":1,"out_sy":1,"layer_type":"fc","num_inputs":26,"l1_decay_mul":0,"l2_decay_mul":1,"filters":[{"sx":1,"sy":1,"depth":26,"w":{"0":-0.12664338959764604,"1":0.17462537126746158,"2":0.3802575548213049,"3":0.08173866044634623,"4":-0.032459894503865515,"5":0.13241053200586075,"6":-0.18381942300044266,"7":-0.3749053771423546,"8":0.2883671827510141,"9":-0.10897548283959459,"10":-0.1439771885608876,"11":0.11148754562549647,"12":-0.1875536510673706,"13":0.090807981975542,"14":-0.46512819843671316,"15":0.04271429820939184,"16":-0.17846506505609774,"17":-0.30746863534826163,"18":-0.21988801172669786,"19":-0.03361751124948357,"20":0.17891231509033506,"21":-0.2900295615049271,"22":-0.09010142058841374,"23":-0.07343624063624646,"24":-0.25949347316228955,"25":0.07384172734865561}},{"sx":1,"sy":1,"depth":26,"w":{"0":-0.2373608999388645,"1":0.25791609058652754,"2":-0.13359893560382224,"3":0.2704665451813023,"4":-0.007222668283044139,"5":0.4392342611963589,"6":-0.15828966681349005,"7":-0.011170250157444175,"8":-0.17955068292903098,"9":-0.16996188623517552,"10":-0.07804324359444378,"11":0.2760470916632698,"12":-0.07902037066464045,"13":0.04657648134269133,"14":-0.4922656620291614,"15":-0.15479670727460257,"16":0.19363751740004825,"17":0.1502273252680687,"18":-0.1907924357645218,"19":0.0036900783754334286,"20":0.04875801550226598,"21":-0.44703396127010336,"22":0.0006082854528348306,"23":-0.06642333888712176,"24":-0.2520534425490559,"25":-0.17798268688133762}},{"sx":1,"sy":1,"depth":26,"w":{"0":0.07086591698759075,"1":-0.05033909697062059,"2":-0.2049374306203909,"3":0.23315707740617866,"4":0.2476388678500652,"5":0.0787557800587985,"6":0.009958155168090356,"7":0.004428612222787131,"8":0.3775319867882923,"9":-0.17146983145920489,"10":0.09477627984796003,"11":0.004650835421396422,"12":0.25546037637664415,"13":-0.17930871636672877,"14":-0.009338774123662831,"15":0.10707698087628459,"16":0.17489296632075058,"17":0.027573560355444653,"18":0.1643075184235582,"19":0.15670932598276538,"20":0.014174955968723665,"21":-0.04348232219168598,"22":0.15860138283644862,"23":0.09094194103670306,"24":-0.22095302529717484,"25":0.13292485820108815}},{"sx":1,"sy":1,"depth":26,"w":{"0":-0.06718089209375715,"1":0.027384417753670415,"2":-0.35234344819075347,"3":0.08831200953879549,"4":-0.2395597847165666,"5":-0.28022566728343634,"6":-0.17620024710967175,"7":-0.2793215480404863,"8":-0.04932456902677187,"9":0.29784454261465704,"10":-0.017461716873119464,"11":0.06683761801011422,"12":0.1472703610117653,"13":0.19258522229437228,"14":-0.09750508127918918,"15":0.023705986516979874,"16":-0.00950020818487955,"17":-0.03969980942087342,"18":0.025423911160203146,"19":-0.15934941017563112,"20":-0.27718640918764526,"21":-0.3008011125379235,"22":-0.31391611268347447,"23":0.29542155144117166,"24":-0.22337976760147452,"25":0.22878806616270006}},{"sx":1,"sy":1,"depth":26,"w":{"0":-0.1898365638938051,"1":-0.08763614608618353,"2":0.13185550818858338,"3":-0.0847768878571542,"4":-0.01514660860312401,"5":0.06441555988762544,"6":0.12761883747717814,"7":0.05060110008667942,"8":0.20410053698907127,"9":-0.27492041107297077,"10":0.5998675673854877,"11":-0.07683738781393401,"12":0.08526719229008672,"13":0.2239382168419313,"14":0.12303680418924981,"15":-0.17972931713168044,"16":0.22803224340854775,"17":0.08148674371255919,"18":-0.22376504635277666,"19":-0.1218372516696094,"20":-0.021991986531691078,"21":-0.010414106756200504,"22":0.03010028371360471,"23":0.029268628126331735,"24":-0.21950581308480888,"25":0.2927953917906775}},{"sx":1,"sy":1,"depth":26,"w":{"0":-0.1557027276252968,"1":-0.26290774878824125,"2":0.499804555855514,"3":-0.0225879526198734,"4":0.03253974463138451,"5":0.04719000403718535,"6":0.06987393504133793,"7":0.3363744052514888,"8":-0.15473289121785552,"9":-0.013673486033764472,"10":-0.4628769450496428,"11":0.23717986146506592,"12":0.23956751392915987,"13":0.36033355841588177,"14":-0.18499936424899396,"15":0.1354916537365446,"16":0.11635932667047336,"17":-0.03921101994860749,"18":0.033627359025071156,"19":0.26106267189311816,"20":0.07488848148794293,"21":-0.006427424647620015,"22":-0.09325341684534917,"23":0.05115962635876974,"24":0.3107166975737656,"25":-0.03439570348240018}},{"sx":1,"sy":1,"depth":26,"w":{"0":0.36055029086096857,"1":0.12740671964688366,"2":0.07327132123511239,"3":-0.21872254678873995,"4":0.010483062801336377,"5":-0.2032488331073617,"6":0.23882667613862013,"7":-0.01934630216534414,"8":0.03715833164345981,"9":-0.39084098874009565,"10":0.06275196112859492,"11":0.3590473755236219,"12":0.19946377575984517,"13":-0.19286764755744826,"14":-0.3994580886754109,"15":-0.08141390371888468,"16":0.19531306692194347,"17":0.07387064665269052,"18":0.008746849535297967,"19":0.3443117635598047,"20":-0.09794702190831811,"21":-0.3174543504130102,"22":-0.07840061106687297,"23":0.20306946269944331,"24":-0.26049962983873176,"25":0.02908098410526609}},{"sx":1,"sy":1,"depth":26,"w":{"0":0.10770201782877693,"1":-0.15092492700465768,"2":-0.44738926629299536,"3":0.26463494158227213,"4":-0.12448829608191524,"5":-0.2974341025682318,"6":-0.40021928947328395,"7":-0.047368782271523115,"8":-0.026790628949661863,"9":0.0722441036504663,"10":0.14996324580555992,"11":-0.5572618996615326,"12":-0.2702347388973871,"13":0.13694429229757427,"14":-0.09328826728279797,"15":-0.1244404018017557,"16":-0.13784873916337864,"17":0.36879303080646625,"18":-0.15096444279107668,"19":-0.1645970208349968,"20":-0.1453293954143873,"21":-0.3049448347550063,"22":0.02721214820711074,"23":-0.1645796814092974,"24":-0.02132150319164166,"25":0.08935411813228235}},{"sx":1,"sy":1,"depth":26,"w":{"0":0.16239411554580913,"1":-0.11181240490141331,"2":0.18434002911449654,"3":-0.09049685814668557,"4":-0.020927686524955316,"5":0.1868469808770783,"6":-0.13343519220786496,"7":-0.04435976488813627,"8":-0.17723505379732143,"9":-0.10102642723847571,"10":-0.07420423463056386,"11":0.43358908282814324,"12":0.004319473907503305,"13":0.11083422608737023,"14":-0.151855475991483,"15":0.023217871885468838,"16":0.08094084319988828,"17":0.0230715738667143,"18":-0.03246831032184283,"19":-0.09655703819159382,"20":0.31694914024973564,"21":-0.09803238862562967,"22":0.5269591226282535,"23":0.11616087243510204,"24":0.0024328201881687254,"25":-0.01914473580569787}},{"sx":1,"sy":1,"depth":26,"w":{"0":0.13917151389268673,"1":0.3537358988749146,"2":-0.03821825263984157,"3":-0.1914225743891672,"4":0.05073352625204671,"5":-0.1551674052392081,"6":-0.10396993117461861,"7":-0.007808559118783768,"8":-0.04603502765834846,"9":-0.05263033052653257,"10":0.20882806593512648,"11":-0.10721917278121759,"12":0.031959683834843794,"13":0.07335691119080974,"14":-0.12085592912700552,"15":0.0058374872962475444,"16":-0.02749924617365654,"17":0.36824046108076863,"18":-0.40482041668998975,"19":-0.06575313202508194,"20":0.1463035024582913,"21":0.26737255900390544,"22":0.3324454962448167,"23":-0.1378151926909026,"24":-0.102306295942519,"25":-0.003665747235397557}},{"sx":1,"sy":1,"depth":26,"w":{"0":0.013475893362898332,"1":-0.2882715506303182,"2":-0.00009177613656445168,"3":-0.23202349473168044,"4":-0.21707223714846308,"5":-0.02871933904263706,"6":0.15020482669296858,"7":0.17536346478936443,"8":0.06535710954876196,"9":0.13184951280408755,"10":0.10130930925444778,"11":-0.10796777924852186,"12":0.1684635877723533,"13":-0.14442315145473575,"14":0.623470727416422,"15":-0.15575662446474128,"16":0.26238618388538354,"17":-0.04140093424769805,"18":0.22488230280910185,"19":0.16342677439242606,"20":0.16063991186273152,"21":0.2768551571521546,"22":-0.045901162959965096,"23":0.09683562828404496,"24":-0.20891211573501042,"25":-0.7485211345437306}},{"sx":1,"sy":1,"depth":26,"w":{"0":0.17558400546633704,"1":-0.23046316077764867,"2":-0.04367584648842862,"3":-0.06914726024717062,"4":0.07221718474956497,"5":0.23203561230541028,"6":-0.09710176782093657,"7":0.39188840958600435,"8":0.27751569321337244,"9":-0.027510755569919686,"10":-0.22126425597960103,"11":0.10401824425013281,"12":0.1920432296186548,"13":0.09323905177512021,"14":0.05950914664643307,"15":-0.2608997138578809,"16":-0.13255704528555856,"17":-0.04860926426463476,"18":0.16858189478854851,"19":-0.3356190865138465,"20":-0.07968710473726771,"21":-0.1402643041997086,"22":0.08852228139443023,"23":0.3403640225119291,"24":0.1459913767299292,"25":-0.04827697638479718}},{"sx":1,"sy":1,"depth":26,"w":{"0":0.20479784404169124,"1":0.10466953498578467,"2":0.13090734373796148,"3":0.02531749472429238,"4":-0.30489952648409785,"5":-0.22380594793447148,"6":0.2733329848719723,"7":0.1403228498163799,"8":0.11145525839825911,"9":0.11665542925084771,"10":0.023538646653381998,"11":-0.0060093440549769915,"12":0.19153525395529428,"13":0.32644370710508935,"14":0.10545627488526427,"15":-0.11360369951655193,"16":-0.02270025915459529,"17":-0.05873349381759228,"18":-0.07341901669193047,"19":0.1908631838050978,"20":0.5364592825570001,"21":0.49015763536224183,"22":-0.0028676847043577302,"23":-0.02037091351985399,"24":-0.1976261137672552,"25":-0.3431111038819968}},{"sx":1,"sy":1,"depth":26,"w":{"0":0.026465881154580286,"1":0.10931245946675022,"2":0.05591102784558597,"3":0.1446897019033307,"4":-0.13551338998101992,"5":0.11343527832011074,"6":0.31320472735142796,"7":-0.15108138559954812,"8":0.09132597714456414,"9":-0.4584330186419875,"10":-0.13468542807724312,"11":-0.1829641232358067,"12":-0.02756583910924165,"13":0.17570483279085108,"14":0.40709086139775497,"15":0.09511945380640875,"16":0.0518895394154559,"17":-0.283370642980512,"18":-0.021370200298064076,"19":0.21872434701905077,"20":0.3518241285143415,"21":0.23784133818713893,"22":-0.12297689020560558,"23":-0.1602033721646565,"24":0.006975147846200491,"25":-0.13281574331901982}},{"sx":1,"sy":1,"depth":26,"w":{"0":-0.3526041354802438,"1":-0.1098440948356284,"2":-0.18426905024478593,"3":0.17421341897962014,"4":0.22465378913393105,"5":0.051142683122451627,"6":-0.050565248753211535,"7":0.012309749001522341,"8":-0.07872921010982005,"9":-0.1825689489034671,"10":-0.30124786757181987,"11":0.07677725752655333,"12":0.25627706805109113,"13":-0.0029936858083100867,"14":0.06877930763996738,"15":0.014014415156330028,"16":-0.022524148719358778,"17":-0.12103218563109276,"18":0.13242743972028742,"19":-0.0061687804596155344,"20":-0.3264723106660641,"21":-0.25613223055084244,"22":-0.03284387716625439,"23":0.2728542608472865,"24":-0.13951082813094612,"25":-0.10639309640127853}},{"sx":1,"sy":1,"depth":26,"w":{"0":0.2692718710828841,"1":-0.4265958384955909,"2":-0.5528226933567255,"3":-0.0028158925993696056,"4":-0.053782507628134905,"5":0.17874843937143986,"6":0.0030169145835907555,"7":-0.18085555041261062,"8":0.05958682449844829,"9":-0.46282193510017117,"10":0.053672550542217506,"11":0.0958160612010577,"12":-0.019694087508746228,"13":0.13513677692934659,"14":0.1334290686690913,"15":0.1512944708066258,"16":-0.16520067524468499,"17":0.025472601012383956,"18":0.02615401864382026,"19":-0.1561590909777006,"20":-0.1783566930135034,"21":0.17832702709127135,"22":0.13907144017932213,"23":0.27238230334030256,"24":-0.04312731491216206,"25":-0.062274152662122086}},{"sx":1,"sy":1,"depth":26,"w":{"0":-0.18432124745278525,"1":0.16771612278446443,"2":0.16875209687297496,"3":0.012406499814193872,"4":0.23984386209982406,"5":-0.12454944715020794,"6":-0.170040515818034,"7":-0.25195648912815577,"8":-0.1765589527211221,"9":-0.037746193049019716,"10":0.13099032782257658,"11":-0.15198460932252777,"12":-0.34662042895669554,"13":0.08617497786133713,"14":0.038257350368923665,"15":0.2799172808380471,"16":0.20420008611746118,"17":0.2863467385411818,"18":0.04156492744849688,"19":-0.12485604486714282,"20":0.11668668190195705,"21":0.23209763829484314,"22":-0.1693653209587141,"23":-0.14469448560098172,"24":-0.2465340503834653,"25":0.04789800520661069}},{"sx":1,"sy":1,"depth":26,"w":{"0":0.12769886572402764,"1":0.11795397239040512,"2":0.0672511479749012,"3":-0.2781074607819635,"4":0.12601983070734818,"5":-0.11679064778641822,"6":0.16210783997443753,"7":0.16192583919455084,"8":-0.37882153284425846,"9":0.001642327810465618,"10":0.32589887325941624,"11":0.2937166911543164,"12":-0.20041486220545365,"13":0.007138801100154781,"14":-0.10709468577221548,"15":0.03477755690171009,"16":0.05849315303833017,"17":0.004073488610996848,"18":-0.1296444016936474,"19":0.13479186952649172,"20":-0.09234732554101557,"21":-0.020101553179969735,"22":0.30066113880117673,"23":0.30066331687320286,"24":-0.15346252054010223,"25":0.04366596744055895}},{"sx":1,"sy":1,"depth":26,"w":{"0":0.41157712089957327,"1":0.09167127029461328,"2":0.1338472051357256,"3":-0.17144057840626037,"4":0.00633239156694953,"5":0.03986074200782174,"6":-0.03097674053032665,"7":-0.24320838116600482,"8":-0.1559009712518491,"9":-0.36787855742188524,"10":-0.038480770020764075,"11":0.05391836892465826,"12":-0.27601523875784556,"13":-0.22569528805744787,"14":-0.06269175296648757,"15":-0.07540253785735763,"16":-0.3721229468997056,"17":0.07288771494875608,"18":0.21691283230079386,"19":0.15792347871740559,"20":0.146284427414677,"21":0.1657000875986456,"22":-0.08649450781349098,"23":-0.008495379365616349,"24":0.1698676373570626,"25":-0.16612860107147845}},{"sx":1,"sy":1,"depth":26,"w":{"0":-0.018521625669341808,"1":-0.10645573491945631,"2":0.14701137524766436,"3":-0.29526600012607673,"4":-0.09607460723301925,"5":0.3370069482912637,"6":-0.18647772754936362,"7":-0.2699042660390752,"8":-0.18216017094704595,"9":0.42127481433017355,"10":-0.010446810685591723,"11":-0.19443469821241427,"12":0.40667666304274497,"13":-0.16515650388877057,"14":0.10347503878600786,"15":-0.08840617994517044,"16":-0.286109492113367,"17":-0.1513661481521717,"18":-0.008858848311268014,"19":0.10651080335444779,"20":0.4187320795044716,"21":-0.36025075531015904,"22":0.07029970989283864,"23":0.06309333757698915,"24":0.16894969133165266,"25":0.000701822564066336}},{"sx":1,"sy":1,"depth":26,"w":{"0":-0.13053891719352925,"1":0.11002483799607671,"2":-0.1848797588168282,"3":0.26474446106674177,"4":0.1391164027154707,"5":-0.0831233918797054,"6":0.053200434054207234,"7":0.36042076647715504,"8":-0.10338335299274616,"9":0.10352393543533137,"10":0.19933677134602934,"11":-0.296431038020283,"12":0.013936221260618204,"13":-0.16639849162305936,"14":-0.20426913789685433,"15":0.1873957087778747,"16":-0.033231281327435296,"17":0.2542687213278353,"18":-0.42807464907798604,"19":-0.16092716498038503,"20":0.1365994651801281,"21":0.11202515808477072,"22":-0.10762341978246369,"23":-0.36500764787982537,"24":-0.47977696400377073,"25":-0.198108370761092}},{"sx":1,"sy":1,"depth":26,"w":{"0":-0.04914678959009842,"1":-0.0796639257384977,"2":0.3624823072341642,"3":0.121022209164132,"4":0.23599436728043002,"5":0.13667740009723162,"6":0.05777648953624879,"7":-0.08957549637570628,"8":0.0364936582163544,"9":-0.01386534743319163,"10":0.16741849495744204,"11":-0.014549456543506107,"12":-0.10635053368430769,"13":0.1418248508482926,"14":0.30282071426564233,"15":-0.08031904391229512,"16":-0.04302990701737263,"17":-0.19562591213715871,"18":-0.14431636859476224,"19":-0.1378390295521442,"20":0.13984214696671166,"21":0.25938307646386627,"22":-0.16451127620568365,"23":0.4121013542640624,"24":0.12507918784222635,"25":0.06784757218408152}},{"sx":1,"sy":1,"depth":26,"w":{"0":-0.12324313532804868,"1":-0.005673008988778315,"2":0.13521600824180394,"3":-0.07346768278263152,"4":0.32390678341619633,"5":-0.020567587528527578,"6":0.20961684233870484,"7":-0.21327753039680816,"8":-0.1836642579089306,"9":0.29096415297501005,"10":-0.14529948622795852,"11":0.3060164745027431,"12":0.2703852085947477,"13":-0.14647058579669694,"14":0.4586034192814747,"15":0.26383051126413387,"16":0.23464309109637296,"17":-0.1327494823733999,"18":0.23961394723149645,"19":0.09845945720371166,"20":0.09154218588347299,"21":0.004679442405337152,"22":-0.6921088386477424,"23":0.18007525677911268,"24":0.13562613216900873,"25":0.29413897089789465}},{"sx":1,"sy":1,"depth":26,"w":{"0":-0.12138061953968805,"1":-0.27508453757161183,"2":-0.004688422669819701,"3":0.04842559077506888,"4":0.13788365533598526,"5":-0.276430822039316,"6":0.0668214594309954,"7":0.26109120275570946,