{"moveNetwork":{"layers":[{"out_depth":320,"out_sx":1,"out_sy":1,"layer_type":"input"},{"out_depth":50,"out_sx":1,"out_sy":1,"layer_type":"fc","num_inputs":320,"l1_decay_mul":0,"l2_decay_mul":1,"filters":[{"sx":1,"sy":1,"depth":320,"w":{"0":-6.098455098560287e-24,"1":-3.463424872798267e-24,"2":-1.1604922581435647e-24,"3":-6.063942668912024e-25,"4":9.290243701573632e-25,"5":-1.9538704232590723e-25,"6":-1.826298595454002e-24,"7":1.939201935735897e-24,"8":1.7147280085069284e-25,"9":-1.9461814490309094e-24,"10":-4.3900140213649235e-24,"11":-2.113674858246712e-24,"12":-8.389379843489809e-24,"13":-2.6861341982912896e-24,"14":-1.1678473721525099e-23,"15":-2.7005322654798385e-25,"16":-2.655954564659451e-24,"17":-2.1247352816343212e-24,"18":6.219408370334988e-24,"19":-1.205591777572211e-25,"20":3.521857627395034e-24,"21":-1.5697708852314387e-24,"22":9.336755332598442e-24,"23":-1.2564684071504501e-24,"24":-7.719769227606366e-24,"25":8.025336676850758e-26,"26":-8.165847780377071e-24,"27":-2.9143406823782872e-24,"28":-4.93434140447518e-24,"29":-3.009678862455693e-24,"30":3.0899426752241194e-24,"31":7.952963763850154e-25,"32":-4.429292762107038e-25,"33":-8.700215931989504e-25,"34":-1.3858903743150923e-24,"35":-1.950069545651819e-24,"36":-1.630932014162962e-24,"37":-7.202042915708069e-25,"38":-5.0072506745825216e-24,"39":4.402884812815406e-25,"40":-9.778964951209661e-25,"41":-4.236340358809899e-24,"42":-4.850909537483781e-24,"43":-2.3139996542456334e-24,"44":1.07024967396277e-25,"45":-1.6786851634982586e-24,"46":-1.9410000661597665e-24,"47":-2.8166499369940485e-24,"48":2.9979021337713052e-24,"49":-1.5120447364175818e-24,"50":6.278274506427188e-24,"51":-1.9440303204567944e-24,"52":8.483733114753078e-24,"53":-2.94824430433034e-24,"54":3.849267341174548e-24,"55":1.1653752820352055e-24,"56":-1.4860173660125393e-23,"57":1.8779749445678501e-25,"58":1.27784176734507e-23,"59":-2.5554598405619915e-24,"60":-5.088661098861695e-24,"61":-1.699950291751479e-24,"62":1.7313579647514683e-24,"63":7.021912760975057e-25,"64":-8.80746716612938e-24,"65":-1.444587159961144e-24,"66":-1.6296963725259652e-23,"67":-1.9852469449434855e-24,"68":-1.5769376905308858e-23,"69":-5.233342420751442e-24,"70":-9.403568624497086e-24,"71":-4.232893462851182e-24,"72":-1.811572950026494e-24,"73":5.199951175482367e-25,"74":-6.64923028124437e-24,"75":-1.8806021773483597e-25,"76":-1.0733734647600707e-23,"77":-4.000245999758787e-24,"78":-2.7835390487953542e-24,"79":-1.5954497636927725e-25,"80":-3.875585436459172e-24,"81":-2.8589216860426883e-25,"82":3.808869943708609e-25,"83":-6.774400787993675e-24,"84":1.1754934463704933e-23,"85":3.1272403900766725e-24,"86":1.6453203713621903e-24,"87":3.30129227205486e-25,"88":-7.933311692774378e-24,"89":-5.049180166991951e-24,"90":5.4898160710130046e-24,"91":2.0721973039725766e-25,"92":-9.351684756849269e-24,"93":2.3339901154860243e-24,"94":-9.647461167557932e-25,"95":-7.312911008984754e-24,"96":-1.5019550059453272e-24,"97":-8.067595201846697e-25,"98":7.665301663720784e-24,"99":1.4342198646417552e-24,"100":8.561142161934584e-25,"101":-6.991688865554337e-24,"102":-1.6120535351436927e-23,"103":9.879554503216153e-25,"104":6.224556060729038e-24,"105":-1.3071706654589146e-24,"106":-6.7103308845692e-24,"107":-8.914630012957242e-24,"108":-8.911241411334089e-24,"109":3.558559705388092e-25,"110":-1.2292226040166098e-23,"111":-1.8569300662930244e-24,"112":-1.3644093842237835e-23,"113":-9.466097599129511e-24,"114":-1.0831942299450823e-24,"115":1.2491850184860763e-24,"116":1.2625869674044909e-24,"117":-1.9296799453330602e-24,"118":-9.815437740734928e-25,"119":4.453145609759955e-24,"120":8.557846030838844e-24,"121":-8.110170163378946e-25,"122":9.003831396369796e-24,"123":1.3176721296207632e-24,"124":9.3049991419871e-24,"125":1.1953693710353034e-23,"126":6.24102173867832e-24,"127":3.389833498331512e-24,"128":7.77234387590801e-24,"129":1.1846317597698873e-24,"130":2.3854943202005104e-24,"131":5.1117160658668625e-25,"132":1.108487766477537e-24,"133":-7.942110953704095e-25,"134":3.470270402935533e-25,"135":2.034538337171784e-24,"136":1.3666036340965165e-24,"137":4.142825820508266e-25,"138":1.6090572357026061e-24,"139":-3.539137944687652e-24,"140":2.192071957890237e-24,"141":2.749029020887048e-24,"142":-1.825330749043858e-24,"143":-1.115532550172926e-24,"144":-4.496822018549115e-25,"145":3.152486282342422e-24,"146":-2.2077763011092816e-24,"147":-1.5441039003870977e-25,"148":-4.190370662314154e-25,"149":2.335899397811205e-24,"150":1.6485829688527704e-24,"151":8.815760383004933e-25,"152":6.8060463803990565e-25,"153":4.093303770226301e-25,"154":3.7583952022219966e-25,"155":1.1383673903230014e-24,"156":-5.958346022731101e-25,"157":2.747454650718332e-26,"158":-1.8639399869581233e-24,"159":-5.7060435122497605e-25,"160":-6.661516511465538e-25,"161":-1.5743494925555992e-24,"162":2.8800555703030988e-24,"163":-1.996676606086434e-25,"164":1.0365728046095095e-24,"165":-6.565443318545433e-25,"166":-2.550823819905088e-24,"167":1.0104022477666731e-25,"168":-3.294211093819893e-25,"169":-3.3042265214021366e-25,"170":1.2778386028662466e-24,"171":5.297476127297411e-25,"172":-1.0235650973849939e-25,"173":-1.137695666757943e-25,"174":-1.1275761095695456e-24,"175":1.740756191627215e-24,"176":-1.2877532548534345e-24,"177":2.1290894092318397e-25,"178":-4.538524965829712e-25,"179":-2.2069989247946444e-24,"180":-7.761728139153198e-26,"181":-2.7825529024296105e-24,"182":-1.3436724239819195e-24,"183":1.697018351442189e-25,"184":1.592585979355909e-24,"185":-2.8764458685368113e-24,"186":-8.46806606650355e-25,"187":-2.1928225522451985e-24,"188":-1.2974607163792968e-24,"189":-3.46671369802915e-26,"190":-7.975935530237399e-24,"191":-6.803347417804194e-24,"192":-1.5472960815464306e-24,"193":-1.0072134959472092e-23,"194":1.724027859371771e-25,"195":6.869647877860262e-25,"196":6.644887700302753e-24,"197":1.3875534853619533e-23,"198":1.197978347035254e-24,"199":-2.9130840137941876e-25,"200":-3.112092855561503e-25,"201":-2.2014341925935102e-24,"202":-2.8413432571598964e-25,"203":-2.250271946962448e-25,"204":4.196399358762764e-25,"205":-1.2000432116394111e-24,"206":-7.553058771929003e-24,"207":-6.1612617363154045e-27,"208":-5.815739026530892e-24,"209":-2.2109756195583318e-24,"210":4.387889823440411e-25,"211":1.03193742215213e-24,"212":9.355514205248051e-25,"213":2.7891127436058487e-25,"214":5.408425293957978e-26,"215":1.2749737755359461e-24,"216":-6.308999662669344e-25,"217":8.345503317433976e-25,"218":-8.660200650527676e-25,"219":1.1903970146189337e-24,"220":9.959052769524137e-25,"221":-1.510984252316991e-24,"222":1.9671779249564645e-25,"223":-2.992866561531113e-24,"224":-1.9602931852419572e-24,"225":-6.045882348130623e-24,"226":-5.3135474273315916e-24,"227":-7.074116829749725e-24,"228":-7.190075060039385e-24,"229":-4.635225958881503e-24,"230":-8.872362445416007e-24,"231":-9.8565492525092e-24,"232":-7.69085000178246e-24,"233":-1.079837510800882e-23,"234":-5.948856441016097e-24,"235":-2.5984223855378003e-24,"236":2.703087056976836e-24,"237":7.164492839412576e-25,"238":-1.214024477027475e-24,"239":1.344729203400378e-24,"240":-2.108618536115744e-24,"241":-7.699451984625585e-25,"242":8.350046984569954e-25,"243":-1.1228801932473822e-24,"244":2.665577380198268e-25,"245":-9.139824239298537e-25,"246":1.1734993139529908e-25,"247":1.873068708481599e-24,"248":1.3181088151235667e-26,"249":8.675583785619923e-25,"250":-1.6216934266796265e-24,"251":5.024220322932325e-26,"252":-6.813701275775425e-25,"253":8.304467759526725e-25,"254":-5.887912570878609e-25,"255":-1.356731784646296e-25,"256":-5.117234794638125e-25,"257":-1.1537956586852915e-24,"258":2.4336987682534365e-25,"259":-1.9821950974550417e-24,"260":9.183029678588158e-25,"261":-1.7281102778992845e-24,"262":8.69205889901841e-25,"263":-1.8364629529921123e-24,"264":1.9622998628680716e-24,"265":-5.781330496050994e-25,"266":1.005877210018878e-24,"267":8.929343070896937e-26,"268":-1.63298465823893e-25,"269":2.153345591797712e-25,"270":-2.434604167999792e-25,"271":2.3757216452236058e-24,"272":-8.498978205639988e-26,"273":-8.730680549555334e-25,"274":2.512250242507094e-25,"275":-6.900635516906499e-25,"276":-2.423834350873226e-24,"277":-6.322531634036897e-25,"278":-1.1722496308191773e-24,"279":1.2610292422574492e-24,"280":-5.949018757247074e-25,"281":-1.5265952542078628e-24,"282":1.182066801728798e-24,"283":1.502457590275247e-24,"284":1.279453313550494e-24,"285":-2.205411398431802e-24,"286":-1.4186399130538241e-24,"287":1.5817958003130609e-24,"288":-9.409787300827987e-25,"289":1.1497956482476963e-24,"290":1.0703768151152854e-24,"291":-6.875977565389543e-25,"292":-6.3861102508533644e-27,"293":-3.902402692513005e-25,"294":-1.19323886588072e-24,"295":-3.237922394717915e-25,"296":-2.51264006370413e-24,"297":-2.1635528777402395e-24,"298":7.510808979835305e-25,"299":-2.757791528361595e-25,"300":6.809466368621498e-25,"301":2.6540157232977445e-24,"302":-1.891108371924808e-24,"303":-4.202526782853943e-25,"304":1.4900231287771692e-24,"305":-8.846719602720111e-25,"306":-6.6983365281207855e-25,"307":1.9694740659481432e-24,"308":1.5846681123482779e-24,"309":-1.4271870536300206e-24,"310":-1.0783011020898036e-24,"311":-1.3848029329349652e-24,"312":-2.6439754999096457e-24,"313":1.6765262879068995e-24,"314":6.976949446947019e-25,"315":7.8660619101320175e-25,"316":-8.256437804854171e-25,"317":1.8367643981009545e-25,"318":-1.0617336641077101e-24,"319":-1.9578268494718863e-24}},{"sx":1,"sy":1,"depth":320,"w":{"0":-3.83440794909916e-19,"1":-3.0628467476017884e-19,"2":-7.811170983710842e-25,"3":1.1719034306513805e-24,"4":1.801599712359648e-24,"5":2.9900739634466774e-26,"6":-3.809838867581779e-22,"7":1.9292372763929581e-25,"8":9.71129477917076e-26,"9":-1.3138826103625144e-24,"10":-1.123033389231757e-19,"11":-1.4465070000947706e-19,"12":-1.2481660429002052e-19,"13":-7.787478812550171e-20,"14":-3.3448212507175494e-19,"15":-3.4165857247806e-20,"16":-2.632714715715609e-19,"17":-1.6604661766647637e-19,"18":-1.3298474625002095e-19,"19":-6.112208161877762e-20,"20":-2.407351628520709e-19,"21":-4.544071233565721e-20,"22":-1.6050701520501523e-19,"23":-1.8345309116478774e-19,"24":-1.8120066968764515e-19,"25":-5.3694955805056755e-20,"26":-2.1984080167039976e-19,"27":-4.578348501472096e-20,"28":-1.0430999559131209e-19,"29":-1.9652313342875813e-19,"30":-1.755746607585787e-19,"31":-5.472817395176722e-20,"32":-3.422117851453182e-19,"33":-4.4944734648848154e-20,"34":-1.2822374774193798e-19,"35":-2.0569878005728946e-19,"36":-1.4745080372357983e-19,"37":-4.982865256682153e-20,"38":-2.331994311635651e-19,"39":-4.692089417772964e-20,"40":-1.6068644528723815e-19,"41":-2.2054258113038637e-19,"42":-1.5285424338282949e-19,"43":-5.175075037824795e-20,"44":-2.7041956112287868e-19,"45":-4.5892138947723944e-20,"46":-1.751343108700157e-19,"47":-2.2889988938702477e-19,"48":-1.796767108192836e-19,"49":-5.779285952775072e-20,"50":-2.9372766767411545e-19,"51":-4.996944254343356e-20,"52":-1.6685258598456935e-19,"53":-2.4433537102756485e-19,"54":-2.2463763766715163e-19,"55":-5.685102634396751e-20,"56":-2.6941120256825384e-19,"57":-4.7145826097927253e-20,"58":-1.6954284566772495e-19,"59":-2.565373774174446e-19,"60":-1.2084171405920507e-19,"61":-4.909723514983878e-20,"62":-2.6722935596370554e-19,"63":-4.25633993664797e-20,"64":-2.1194940029190444e-19,"65":-2.7086554790552715e-19,"66":-1.6023405857810131e-19,"67":-4.712084889012739e-20,"68":-3.4847412253631294e-19,"69":-4.1431591136853496e-20,"70":-2.2466754249456303e-19,"71":-2.820190430908385e-19,"72":-1.8195227043437327e-19,"73":-5.251350565335065e-20,"74":-2.909632007534979e-19,"75":-5.396560053330976e-20,"76":-2.8239898595692595e-19,"77":-3.0108207313601824e-19,"78":-2.3813143151241257e-19,"79":-5.2261576099023195e-20,"80":-2.1229963125635428e-19,"81":-4.791324258599497e-20,"82":-1.6128147090442615e-19,"83":-3.1509706753731513e-19,"84":-9.717382531303646e-20,"85":-3.78433223290588e-20,"86":-2.7178377796313226e-19,"87":-5.3047603403211957e-20,"88":-1.9823252818789057e-19,"89":-3.2904390563966205e-19,"90":-1.3039862448652786e-19,"91":-3.3593085101660567e-20,"92":-3.32454998949772e-19,"93":-5.795034607504627e-20,"94":-1.4952551929464929e-19,"95":-3.3896538292174476e-19,"96":-1.2677343654726264e-19,"97":-4.38158838813401e-20,"98":-2.471005191600756e-19,"99":-4.8786340257161444e-20,"100":-1.495734498765857e-19,"101":-3.6049497977690494e-19,"102":-1.9429636072187024e-19,"103":-3.64292409287691e-20,"104":-2.2621184489803494e-19,"105":-3.962636662487418e-20,"106":-2.2469978374204204e-19,"107":-3.710784845004612e-19,"108":-1.574328829495184e-19,"109":-3.434897108653995e-20,"110":-2.4279235328442183e-19,"111":-5.1371381626915984e-20,"112":-1.061885020364731e-19,"113":-2.923639949238826e-19,"114":-1.6295069343245084e-19,"115":-3.846445949906391e-20,"116":-1.6469108753180713e-19,"117":-3.8506508016100205e-20,"118":-8.868183527849024e-20,"119":-1.775632277493038e-19,"120":-4.5282735725234705e-20,"121":-1.6078287073603638e-20,"122":-9.570788560545856e-20,"123":-2.8589120906159844e-20,"124":-4.2353512674920175e-20,"125":-9.717262455562019e-20,"126":-4.916591162232941e-20,"127":-7.483394403766289e-21,"128":-9.867698123321341e-20,"129":-9.83504401780426e-21,"130":1.0045421052568339e-24,"131":-1.1438663221998885e-24,"132":9.73535034272015e-25,"133":3.3021066581840006e-25,"134":-2.4137534860806446e-24,"135":-1.0987699084586627e-24,"136":-9.455576682660095e-25,"137":-1.4470520391646228e-24,"138":-1.4226452784466937e-24,"139":-1.2649375685861122e-24,"140":9.87074908688369e-25,"141":2.628896358828317e-26,"142":-3.2753796477426293e-25,"143":-6.545062912704154e-25,"144":-2.7422688232548132e-24,"145":1.0055617206847633e-24,"146":-2.2674193602333537e-25,"147":-2.976061105179214e-25,"148":-1.2455777304710347e-24,"149":-1.4143925505759077e-25,"150":-1.4622206772413342e-24,"151":-1.3240572746716661e-24,"152":3.8367699661081813e-25,"153":-9.818385371179503e-25,"154":1.160377214648749e-24,"155":-6.530441911525694e-25,"156":5.026006239757554e-25,"157":-7.632560519545907e-25,"158":-6.585675023406524e-25,"159":4.321181341557294e-25,"160":-2.5010321123130766e-25,"161":-2.5531119482924676e-25,"162":-1.8811120356460058e-24,"163":1.836204341321698e-24,"164":6.597750639816366e-25,"165":2.6753054500601194e-27,"166":-7.469891091975731e-25,"167":1.7646519298942798e-24,"168":-1.3300087336853441e-24,"169":5.512755520434303e-25,"170":-2.2480284212055927e-24,"171":1.1177756165577278e-24,"172":-1.0704753782898132e-24,"173":-2.5995663540381603e-24,"174":-3.640331875657752e-25,"175":-8.990926657435807e-25,"176":1.541252549718786e-24,"177":-1.3971090416331945e-24,"178":7.381199066246085e-25,"179":-5.860710591050253e-25,"180":9.056312359824739e-25,"181":-1.9737156554295355e-24,"182":3.418191952594382e-26,"183":9.753036792426766e-25,"184":1.5173756170568492e-24,"185":-4.850712032018469e-25,"186":1.4134250885758558e-24,"187":2.358368995947496e-25,"188":-1.8335823143270618e-24,"189":5.896195952298266e-25,"190":-3.1273274058853236e-19,"191":-2.286403785116901e-19,"192":-2.6121607601826547e-20,"193":-1.9362333858385946e-19,"194":-1.2117360589569795e-19,"195":-2.122973046996698e-20,"196":6.873006534235947e-23,"197":9.146574370709449e-23,"198":3.759469836639672e-24,"199":-3.1029939833799825e-24,"200":-1.5812082392595625e-25,"201":-1.460436487337524e-24,"202":2.2453296262644266e-24,"203":-2.056290243311695e-25,"204":1.670398394068002e-26,"205":-2.065764896330051e-19,"206":-2.1947601265169913e-19,"207":-2.7446869281552102e-21,"208":-2.422271411158382e-19,"209":-1.8602452365136722e-19,"210":-1.834914957629688e-21,"211":-1.5555917524549637e-20,"212":-1.1641107896500535e-20,"213":-1.151118540393166e-22,"214":-1.0965460447488923e-24,"215":-2.979760959831987e-25,"216":1.6791744971793767e-24,"217":-1.0255001389638454e-24,"218":1.7211829673921882e-24,"219":7.48491429344007e-25,"220":-1.8281468871594356e-19,"221":-1.8325918328166432e-19,"222":-1.7149549252430182e-19,"223":-2.432714363532517e-19,"224":-7.965769115212004e-20,"225":-1.4277897018626092e-19,"226":-1.4461500566389951e-19,"227":-1.419533535423582e-19,"228":-2.2153128943061747e-19,"229":-1.0955998771028197e-19,"230":-1.435844562803729e-19,"231":-9.714319606804604e-20,"232":-1.443435612239773e-19,"233":-1.8553589789683403e-19,"234":-9.95646959391425e-20,"235":-5.1457844704463794e-20,"236":-6.477835019017109e-20,"237":-5.148577603136878e-20,"238":-7.97650308837733e-20,"239":-3.026834034598694e-20,"240":-8.212891541394797e-21,"241":-1.3990432606444368e-20,"242":-7.97856357750585e-21,"243":-1.2216637812776899e-20,"244":-3.714556112410799e-21,"245":-5.606226518148008e-25,"246":1.4585040341906566e-24,"247":1.1717997294408727e-25,"248":-4.0766192984775894e-25,"249":-1.433802301132243e-24,"250":1.1234702054129629e-24,"251":6.466048918084107e-25,"252":-4.5692672184973147e-26,"253":-8.477084832250627e-25,"254":8.096811770357679e-25,"255":2.8546967194111907e-25,"256":-9.406330204951641e-25,"257":-1.9228690624659283e-25,"258":3.041609397467847e-24,"259":2.2034950625929527e-25,"260":-8.700997640222316e-25,"261":-1.7007167896667175e-24,"262":1.2582577723487096e-24,"263":-1.5894578008736116e-24,"264":-1.6321793836711832e-24,"265":-3.291198840224905e-25,"266":-1.986658688061422e-24,"267":7.300651611144517e-25,"268":4.5261082555490176e-26,"269":-4.384929618124037e-25,"270":3.9956130154522397e-25,"271":1.2136643769950297e-24,"272":9.049770629446368e-25,"273":1.2235732986560203e-24,"274":2.0892076694333322e-24,"275":-3.1540396956130042e-25,"276":-4.514013322425033e-25,"277":-6.899482437782654e-26,"278":1.7006870929536335e-24,"279":-6.5733207342381885e-25,"280":-2.5082477971878595e-25,"281":1.8320929734393168e-24,"282":-1.2916272050902533e-24,"283":-4.18671002527597e-25,"284":1.1109669376984593e-24,"285":1.9829040151219522e-24,"286":-5.187635166436714e-25,"287":2.149231922597629e-24,"288":-1.4869104316250924e-24,"289":-6.889959844140461e-25,"290":9.555069155335877e-25,"291":3.5362210586693056e-25,"292":4.927489785572045e-25,"293":3.0681124887658323e-24,"294":-1.4021453108162405e-24,"295":1.3639788113401796e-24,"296":-3.5098448554074706e-25,"297":-3.086040534098638e-25,"298":1.0355563702200913e-24,"299":-8.99901211890505e-25,"300":-2.1071437027030334e-24,"301":-6.064027869320983e-25,"302":-7.378592327769652e-25,"303":4.85619148972308e-26,"304":2.1749806925593102e-25,"305":-1.3641327196571504e-24,"306":1.366696463262002e-25,"307":-2.0716159240415042e-24,"308":5.83662849280897e-25,"309":-1.2761368328752775e-24,"310":2.270208338496887e-25,"311":-7.558757965751718e-25,"312":1.446717797723354e-24,"313":5.7135304712416275e-25,"314":3.586123423007879e-24,"315":-4.874248459058606e-25,"316":1.1160057656807831e-24,"317":1.5263860865184227e-24,"318":9.067938607299307e-26,"319":-3.235616924192208e-24}},{"sx":1,"sy":1,"depth":320,"w":{"0":-1.1363712095001044e-23,"1":-6.5201897606563705e-24,"2":1.1429255908839726e-24,"3":-2.3066643464146048e-24,"4":-4.265353181966593e-25,"5":1.928547566688424e-24,"6":-7.706760251094971e-25,"7":-6.933678213081622e-25,"8":-1.2956712144170659e-24,"9":-1.4080090283681893e-24,"10":-9.658920830851386e-24,"11":-1.1325447648011887e-24,"12":-3.4703141684852704e-24,"13":-1.943741144735905e-24,"14":-1.1510571139279415e-23,"15":2.2953392048324434e-24,"16":-9.828151923831446e-24,"17":-4.450268537564265e-24,"18":4.0433203795549436e-24,"19":-1.647063790814906e-24,"20":1.498524851663978e-24,"21":-6.635912568341962e-25,"22":-6.310132404705244e-24,"23":-3.593362149335577e-24,"24":-1.0975254604510095e-23,"25":-2.4971297513099787e-24,"26":-1.229138539811982e-23,"27":-7.305642087339505e-26,"28":1.3838493737678002e-24,"29":-5.096625302002417e-24,"30":-1.6192682313979708e-24,"31":-6.350967121347956e-25,"32":3.3423209378446397e-25,"33":-2.0816129478722145e-24,"34":8.103409793870775e-25,"35":-5.0381229992833356e-24,"36":-1.125617536999429e-24,"37":-1.640552109567328e-24,"38":-1.1952991433392246e-23,"39":-8.561927870890294e-25,"40":-5.694347361655126e-24,"41":-7.378398952697075e-24,"42":-7.882365979494762e-24,"43":-3.0643033288777138e-24,"44":-9.567511737559496e-24,"45":-3.147805941810364e-24,"46":-7.582829230641881e-24,"47":-6.868545585976724e-24,"48":-4.7080205253490775e-24,"49":-2.657968489103851e-24,"50":-2.896930427223787e-24,"51":-1.7156201882181837e-24,"52":5.766902659029994e-24,"53":-7.430550022876564e-24,"54":-9.67837544986028e-25,"55":-1.2513300582620433e-25,"56":-1.2537875422460933e-23,"57":-8.838924106188435e-25,"58":1.3341300645108337e-24,"59":-6.035768542791969e-24,"60":-9.721844962778186e-24,"61":-3.54685339619973e-24,"62":-1.2891208134561754e-23,"63":-1.8274097795691183e-24,"64":-2.475422166933774e-24,"65":-5.6699997889856195e-24,"66":-6.425188210266803e-24,"67":-1.040568393621932e-24,"68":-8.915633969238119e-24,"69":-2.7521209656269514e-26,"70":-1.2524665459477042e-23,"71":-1.1933877089102463e-23,"72":-8.865742180479983e-24,"73":-1.2269267531348117e-24,"74":-1.2024268104025717e-23,"75":-1.2362960546820171e-24,"76":-1.3973656070823187e-23,"77":-1.0353226860330763e-23,"78":-2.8380822733117884e-24,"79":-3.823952385486849e-24,"80":-5.1184053333776666e-24,"81":-1.2498739873504042e-24,"82":-4.2132446306897834e-24,"83":-7.698098695984532e-24,"84":-3.726465636189219e-24,"85":-7.549884882292833e-25,"86":-1.1265036447314939e-23,"87":2.1684893291651595e-24,"88":-4.9905098335862996e-24,"89":-1.2084460610222745e-23,"90":-6.458270609444238e-24,"91":-2.5647703161783087e-25,"92":-1.1325690625769585e-23,"93":-7.291798128693687e-24,"94":-5.9531813510214714e-24,"95":-9.839835412013015e-24,"96":-2.83714507883287e-25,"97":-4.0187013694231406e-24,"98":-5.2772974394233444e-24,"99":-1.2578941097981167e-24,"100":1.0417851361699573e-24,"101":-1.1676459472876358e-23,"102":-1.1717888648140411e-23,"103":1.394695100626748e-24,"104":-2.6589286245953202e-24,"105":8.186559065465663e-26,"106":-9.820669752698275e-24,"107":-1.0043370754043854e-23,"108":-8.95337284485432e-24,"109":4.605108715235108e-25,"110":-1.2422158486023351e-23,"111":-8.819574289654997e-25,"112":-8.782176878191762e-24,"113":-9.947010294026121e-24,"114":-6.206534421825122e-24,"115":-2.193066037107999e-24,"116":-3.3056773207788223e-24,"117":-9.085777728340514e-25,"118":1.7569224197243873e-24,"119":6.894722563834831e-24,"120":7.903859942318855e-24,"121":8.776263755504336e-25,"122":4.830805638278905e-24,"123":8.031114964011202e-25,"124":2.7422799278442614e-24,"125":9.683700648057239e-24,"126":4.180768000899094e-24,"127":4.351011599750769e-25,"128":5.633609706028404e-24,"129":1.5363228926320844e-24,"130":2.3213552887200082e-24,"131":-1.1226199826920621e-24,"132":-1.8368528772175955e-24,"133":3.0331603337218178e-25,"134":-1.6400452760157537e-24,"135":1.8833185729214594e-24,"136":1.0542130158863763e-25,"137":1.0781140760822092e-24,"138":-2.1979326081787947e-25,"139":9.978542285970298e-25,"140":1.1964169585955838e-24,"141":8.697162469924277e-25,"142":1.2773506531803325e-24,"143":-2.5504775114096163e-25,"144":2.7786101324847927e-25,"145":2.357115504738995e-24,"146":7.383573647148146e-25,"147":1.8041126629219548e-24,"148":1.746846382204946e-25,"149":1.1784508777125335e-24,"150":-2.1445873413936623e-24,"151":3.058297523571674e-24,"152":-1.6834149561026685e-24,"153":2.9110301676188338e-24,"154":-6.809104930989442e-25,"155":5.594495640399395e-25,"156":-1.3295136020619574e-24,"157":5.292228427337679e-25,"158":9.921874150253959e-26,"159":-6.655428173104925e-25,"160":-8.125560637238562e-25,"161":2.584627830133525e-24,"162":-3.779367754277908e-25,"163":1.3614915506749953e-24,"164":1.8139598500151587e-24,"165":1.9609644986934156e-24,"166":7.322377983071362e-25,"167":3.7740375347856727e-25,"168":3.2931355792482043e-25,"169":-1.8825649439363078e-24,"170":1.4921217862413622e-24,"171":7.189001851045873e-25,"172":5.564056555675981e-25,"173":-7.36198305099924e-25,"174":-7.759036773647197e-25,"175":3.545001213360146e-24,"176":-1.3936164215797898e-24,"177":9.385668754500682e-25,"178":-1.1918654991950903e-24,"179":3.7050563023894027e-25,"180":-1.2805237015726769e-24,"181":4.0270401698959886e-25,"182":-1.5247917669303412e-24,"183":-2.6872806365844767e-24,"184":-4.0783539774409762e-25,"185":1.0740085874032722e-24,"186":1.368926239715141e-25,"187":1.5304720872840097e-24,"188":2.074588513076932e-25,"189":-2.1341266943884315e-25,"190":-1.053184647382495e-23,"191":-7.329789534897876e-24,"192":7.693516092959461e-26,"193":-1.5442966493802348e-23,"194":-6.48573972644877e-24,"195":-2.686771234562079e-24,"196":5.140479329913016e-24,"197":7.079532695737074e-24,"198":-1.282535717473787e-24,"199":-5.709667751177972e-25,"200":-7.369550666932421e-25,"201":-2.897929387930812e-25,"202":-1.113337758134111e-24,"203":2.1884960344220727e-24,"204":-4.938418477099326e-25,"205":-7.697913584532339e-24,"206":-6.3157738090650904e-24,"207":1.7509477402316434e-24,"208":-8.106923272617752e-24,"209":-4.266490641800874e-24,"210":3.4684839564058644e-26,"211":-6.440711659343756e-25,"212":-1.3547880677180712e-24,"213":7.915774840401846e-25,"214":5.444579265716712e-25,"215":7.64473309098298e-25,"216":-7.142821290866919e-25,"217":-8.468985707067349e-25,"218":1.1332180194689686e-24,"219":-1.843425349635931e-24,"220":-6.58186379404717e-24,"221":-8.797461267753894e-24,"222":-5.936816573011507e-24,"223":-6.560302849653425e-24,"224":-1.6743394818586673e-24,"225":-3.9365139196127766e-24,"226":-5.956804852802439e-24,"227":-5.8730297149487664e-24,"228":-1.0533448193698297e-23,"229":-3.021077984907095e-24,"230":-7.150309368932565e-24,"231":-1.0189379740800059e-23,"232":-8.972218614246547e-24,"233":-1.0903792790686707e-23,"234":-2.7344529656233945e-24,"235":-1.3687219746155215e-24,"236":-1.688099867823578e-24,"237":1.8330059361447743e-25,"238":8.982830125066206e-26,"239":-1.20358704013018e-24,"240":-8.053378880793583e-25,"241":2.24035223003819e-25,"242":3.3644239151399624e-25,"243":-2.800552695780739e-25,"244":6.737099508384932e-25,"245":-5.753533189745336e-25,"246":-1.963574798803612e-24,"247":4.123955611528222e-25,"248":-7.640268724758032e-25,"249":-1.4358598102317936e-24,"250":6.425429605386624e-25,"251":-1.4115164698070156e-24,"252":-2.199075636323995e-25,"253":-1.0080869458241678e-24,"254":-1.4700823490739542e-24,"255":1.0654247290220872e-24,"256":3.753802227326073e-25,"257":8.204489587628935e-25,"258":7.240398762377846e-25,"259":7.230058531693429e-25,"260":2.216169221790118e-25,"261":-1.6226394084187491e-24,"262":-1.3093393376026668e-24,"263":-1.8651704086943447e-24,"264":-1.931802067705992e-24,"265":-1.8228279145369702e-25,"266":1.0359618451211558e-24,"267":1.4639216017687138e-24,"268":7.281828907374408e-25,"269":-5.759166921447251e-25,"270":1.1587991552595815e-24,"271":-1.56090850907848e-24,"272":1.5998789660997418e-24,"273":3.42628437845438e-25,"274":6.519670593848285e-25,"275":-1.4002394901963281e-24,"276":-1.1308945353419343e-24,"277":-1.6833284489942322e-26,"278":1.1962072339908899e-24,"279":9.692929465992381e-25,"280":1.0924045205080383e-24,"281":-2.726155960349143e-24,"282":-5.833369669760389e-25,"283":-3.2068689389547076e-25,"284":1.5677719508768835e-24,"285":-3.143142671404694e-24,"286":1.075022057418818e-24,"287":-2.5069994544909546e-25,"288":-7.510133427648348e-25,"289":-1.513571203790756e-24,"290":-3.297987921544524e-25,"291":-1.8260137918446486e-24,"292":3.8688787730064153e-25,"293":-2.9295654419499636e-24,"294":-4.61755755255305e-25,"295":-1.9966004711771446e-24,"296":-5.892867965425374e-25,"297":-9.924519408344474e-25,"298":-1.885626838151494e-24,"299":-1.0378779954044107e-24,"300":1.4241566488765618e-24,"301":-1.4602250969044614e-25,"302":-6.606473952232255e-25,"303":-8.816188423579665e-25,"304":6.919322885845713e-25,"305":2.2909782582987763e-25,"306":-2.7452459138794606e-25,"307":4.0878143488860825e-25,"308":4.0998384997415654e-25,"309":-9.376376677218965e-25,"310":-4.395953831761763e-25,"311":1.6948454726358774e-24,"312":1.938525427226436e-24,"313":3.9852052006093705e-25,"314":2.295458512799544e-24,"315":-8.30427736868606e-25,"316":-1.2898286939499813e-24,"317":5.132043263142774e-25,"318":1.5395736287288975e-24,"319":1.955383088881714e-24}},{"sx":1,"sy":1,"depth":320,"w":{"0":-5.828413921207503e-19,"1":-5.069142314033599e-19,"2":3.614110877008778e-25,"3":2.7564484444590797e-24,"4":-3.469116361072954e-24,"5":-1.1219422349096044e-24,"6":-4.266091587829278e-22,"7":-1.7828326179233072e-24,"8":2.4887185469036312e-25,"9":1.4329393805586718e-24,"10":-2.379004497253678e-19,"11":-2.194733634797411e-19,"12":-2.190681498793838e-19,"13":-1.0703299916427846e-19,"14":-4.221548344486539e-19,"15":-5.642795682558772e-20,"16":-2.971191480077696e-19,"17":-2.4512783595120754e-19,"18":-2.7982231414496477e-19,"19":-9.01673958733841e-20,"20":-3.680129351310133e-19,"21":-6.518642569594371e-20,"22":-3.2703296037791793e-19,"23":-2.652475204920192e-19,"24":-2.3311069715245766e-19,"25":-6.898299982664998e-20,"26":-3.3160985377139354e-19,"27":-5.143720889601043e-20,"28":-2.6953064641440033e-19,"29":-2.803883713427094e-19,"30":-2.6622932546340765e-19,"31":-6.938509272947482e-20,"32":-4.394362889062629e-19,"33":-5.4735263597425e-20,"34":-3.1612832864186674e-19,"35":-2.9161553833764968e-19,"36":-2.0211791288885815e-19,"37":-6.787192462233319e-20,"38":-4.1981149076748564e-19,"39":-5.746965007275706e-20,"40":-3.7533066854700915e-19,"41":-3.064639666636617e-19,"42":-1.5999774066433632e-19,"43":-7.207074401432767e-20,"44":-4.3277928068806485e-19,"45":-5.984821776544683e-20,"46":-2.746293012898353e-19,"47":-3.223180717341017e-19,"48":-3.2369344932876237e-19,"49":-7.413483464279273e-20,"50":-4.532103733727346e-19,"51":-6.265894751625998e-20,"52":-3.4754059546852356e-19,"53":-3.4173358380091857e-19,"54":-3.8197411589907543e-19,"55":-8.436737914943164e-20,"56":-4.2624861629009973e-19,"57":-6.808614710911759e-20,"58":-3.519120800756141e-19,"59":-3.601333529267318e-19,"60":-1.5413630377666227e-19,"61":-7.46670361712017e-20,"62":-3.9773732367111556e-19,"63":-6.749208863442364e-20,"64":-3.554531166378609e-19,"65":-3.790279805027756e-19,"66":-1.8549255298941968e-19,"67":-6.139600714504799e-20,"68":-4.759629577294159e-19,"69":-5.959131017157987e-20,"70":-3.029024475023997e-19,"71":-3.968509401158247e-19,"72":-2.7675355470746065e-19,"73":-7.589556409885261e-20,"74":-4.870808163260796e-19,"75":-7.311654769420153e-20,"76":-3.9701112661800533e-19,"77":-4.2300806928573653e-19,"78":-3.0523918686090856e-19,"79":-7.796682493258709e-20,"80":-3.7496056758735466e-19,"81":-8.425402745040003e-20,"82":-2.5407870923923784e-19,"83":-4.401928717928977e-19,"84":-2.1669250876450718e-19,"85":-6.946911444107825e-20,"86":-3.952053774992656e-19,"87":-8.871906982134838e-20,"88":-3.0618842265233884e-19,"89":-4.562149644298652e-19,"90":-2.2696974870878007e-19,"91":-6.258539372650297e-20,"92":-5.09319838976994e-19,"93":-9.823224281380526e-20,"94":-2.3218899603313035e-19,"95":-4.733378040443735e-19,"96":-2.3966434860258016e-19,"97":-7.237773428655341e-20,"98":-4.4953992461046025e-19,"99":-1.1434386156425949e-19,"100":-2.356097941507281e-19,"101":-5.0051050083094655e-19,"102":-2.757894614261815e-19,"103":-6.464000190964571e-20,"104":-3.923159414654166e-19,"105":-6.176201880735859e-20,"106":-2.794687679678367e-19,"107":-5.16718894436076e-19,"108":-2.4662516818282996e-19,"109":-6.504090111084805e-20,"110":-4.017201818164663e-19,"111":-7.090776907657747e-20,"112":-1.4101243331216294e-19,"113":-4.659330301990791e-19,"114":-2.9272091887749954e-19,"115":-6.481278843146236e-20,"116":-3.112671854983509e-19,"117":-6.773664709788625e-20,"118":-1.7379953100280247e-19,"119":-3.773667133115096e-19,"120":-1.8929258193856945e-19,"121":-4.1576556950141385e-20,"122":-2.5469395427180035e-19,"123":-8.469812749957106e-20,"124":-1.8806763537813242e-19,"125":-2.965252948838852e-19,"126":-1.9972672231463766e-19,"127":-2.6123604979288508e-20,"128":-1.8077454653601583e-19,"129":-2.865116309070428e-20,"130":3.3120193466364607e-25,"131":1.5162382688639435e-25,"132":2.800353110233933e-25,"133":5.609153895436398e-25,"134":5.286017679294086e-25,"135":-2.0909349642053276e-24,"136":1.0384221258056427e-24,"137":1.4251356594532993e-24,"138":2.188649193041125e-25,"139":2.8177885845799156e-25,"140":-8.738256046527293e-25,"141":-6.215403359374517e-25,"142":9.144701342133202e-25,"143":5.2101833556549085e-25,"144":-1.1545542351063215e-24,"145":1.4099010553188147e-24,"146":-8.260988862987478e-25,"147":9.25842618911283e-25,"148":2.4302345430125614e-24,"149":-2.4741386509600447e-24,"150":-1.9872588802124593e-25,"151":2.055230507767826e-25,"152":-6.980544616912316e-25,"153":-1.5877597176879435e-25,"154":-6.309482522598879e-25,"155":-1.5807462644780893e-25,"156":9.076924145785179e-25,"157":7.954344461007169e-25,"158":-5.165272274534556e-25,"159":-9.821016347216984e-25,"160":-2.1233980320120257e-24,"161":7.28277710529438e-25,"162":-1.512998488114251e-24,"163":-2.1850455615040683e-24,"164":-9.280210794847918e-26,"165":1.5219443498968144e-24,"166":5.504754917314343e-25,"167":-2.9427241906346356e-24,"168":1.8390758093278138e-24,"169":2.7568863304241042e-24,"170":-2.3048123387146057e-24,"171":-4.2291834175407225e-25,"172":-5.273864738277371e-25,"173":-6.205623727235257e-25,"174":5.425938593757092e-25,"175":4.349412820372694e-25,"176":3.7006877910634675e-25,"177":2.756136142606568e-26,"178":-1.479192097458236e-25,"179":1.4110107595692625e-24,"180":9.719013401238529e-26,"181":-8.420816376529218e-26,"182":1.3299466450054717e-24,"183":5.9516889970109845e-25,"184":-6.31230122589739e-25,"185":1.5539517578977004e-24,"186":1.2881962268581736e-24,"187":4.54513339364894e-25,"188":2.219065259111356e-25,"189":-1.291560640947517e-25,"190":-4.54861644268337e-19,"191":-2.1270683712740977e-19,"192":-3.396924960619703e-20,"193":-2.0247655665058684e-19,"194":-1.7004975087994246e-19,"195":-4.4617201502934577e-20,"196":-1.466601938664937e-19,"197":-2.0936561832245436e-19,"198":-1.2018896891963902e-20,"199":1.036411840429318e-24,"200":2.613308207357806e-24,"201":2.8176961917008295e-24,"202":9.614180999921442e-25,"203":1.7232713916988067e-24,"204":8.19744625275316e-25,"205":-3.673347010517772e-19,"206":-2.226997722495085e-19,"207":-5.000594938614182e-21,"208":-3.2830823870341206e-19,"209":-2.6972838905962463e-19,"210":-2.8164451332989586e-21,"211":-1.2711915150164804e-20,"212":-9.50979942560545e-21,"213":-9.370772160231137e-23,"214":-1.1161068985913752e-24,"215":1.4848440438442094e-24,"216":1.7091445634023727e-24,"217":-5.9662535401059115e-25,"218":-6.259225233919746e-25,"219":-9.661934009127493e-25,"220":-2.8003606956171784e-19,"221":-2.1208582836300794e-19,"222":-2.691002929484325e-19,"223":-3.620251955509898e-19,"224":-1.15450775564605e-19,"225":-2.5494785864898907e-19,"226":-2.0759299276176582e-19,"227":-1.5525256736510146e-19,"228":-2.7397528355116035e-19,"229":-1.2186224820525185e-19,"230":-1.1912559434849164e-19,"231":-9.380508443751599e-20,"232":-1.1961034900495886e-19,"233":-1.726635585554433e-19,"234":-8.448644223720748e-20,"235":-4.8045653397655113e-20,"236":-6.347700713992265e-20,"237":-4.783708934842228e-20,"238":-7.350731561418455e-20,"239":-2.6832562717695036e-20,"240":-7.800197358347024e-21,"241":-1.7933544919263143e-20,"242":-7.706061991176242e-21,"243":-1.8202051993807838e-20,"244":-5.2295309114414545e-21,"245":-1.1339726265645323e-24,"246":-1.1008533938693865e-25,"247":6.605039848489996e-25,"248":2.5726944420461e-25,"249":6.757783203656287e-25,"250":3.31583811339896e-24,"251":-1.2469451526544436e-24,"252":-2.868543757332108e-24,"253":2.4008820849261804e-24,"254":9.945444219078167e-25,"255":-3.196098193687242e-25,"256":2.5472902004779596e-26,"257":1.8638653791397137e-24,"258":-2.297123788478896e-24,"259":2.037507416705117e-25,"260":-1.0515733207522811e-24,"261":-1.0048535874585545e-24,"262":3.257197129294329e-25,"263":1.7090569813234766e-24,"264":-8.644682680060636e-25,"265":-1.4615227704715263e-24,"266":2.65610296659624e-25,"267":-4.6159784255324365e-25,"268":-7.784097530435866e-25,"269":-8.236452337323726e-25,"270":3.337528653132198e-24,"271":-1.5112362234943745e-25,"272":-9.100625752940664e-25,"273":-2.5622632354981854e-24,"274":-6.158611539375328e-25,"275":-7.821640630885042e-25,"276":1.72299931838844e-24,"277":2.6397111999164693e-24,"278":6.869345664314826e-25,"279":-6.482066085004669e-25,"280":-2.3624510477573847e-25,"281":4.156145952567914e-25,"282":2.4866608405487056e-25,"283":-3.8123492424356896e-25,"284":-1.2897710695625114e-24,"285":4.60296547732321e-25,"286":1.5132994690513501e-24,"287":5.267210457205067e-25,"288":-1.5128801703141435e-24,"289":-1.8640340589210115e-24,"290":2.080241158567389e-24,"291":9.265685773701872e-25,"292":1.5008088126973078e-24,"293":1.0534005836255299e-25,"294":-1.0850029199594551e-24,"295":-1.3393605859535176e-24,"296":5.851256666864653e-25,"297":-1.4232166966058634e-24,"298":-1.222217411012273e-24,"299":-1.3717195230687032e-24,"300":6.128971413075562e-25,"301":1.4025599043692113e-24,"302":3.697973947693921e-25,"303":-7.610446742620835e-25,"304":1.9722058852221962e-24,"305":-6.136787066474818e-25,"306":1.4444691799371159e-24,"307":3.5721652806317037e-25,"308":-8.536738013963989e-25,"309":-1.285320525503883e-24,"310":-1.4368717961281725e-25,"311":-1.8791625725831848e-25,"312":1.3828572802275287e-24,"313":1.0371511981966833e-24,"314":3.899088896947226e-25,"315":1.3355502015472066e-24,"316":1.9319777152948407e-24,"317":3.265941358913606e-25,"318":9.770712316931801e-25,"319":4.972095654736811e-25}},{"sx":1,"sy":1,"depth":320,"w":{"0":-3.3395472324038296e-24,"1":-1.6453367044005232e-24,"2":9.748342349687773e-25,"3":8.871687015882046e-25,"4":-1.911704262737361e-24,"5":-1.1609104493216263e-24,"6":6.88084043515945e-25,"7":5.230398808694665e-25,"8":3.6420314520889635e-25,"9":-2.573372421984749e-25,"10":-3.0461904807506647e-24,"11":1.7114995686870895e-24,"12":-1.045325195088312e-24,"13":-5.810707873827912e-25,"14":-1.0222163527209312e-24,"15":-6.904630945474196e-25,"16":1.0348317246250473e-25,"17":-1.881699674311701e-24,"18":-1.4268796402134232e-24,"19":2.132365466634137e-24,"20":-1.7624032140085694e-24,"21":-3.7481056124570833e-25,"22":1.2566732025357712e-24,"23":2.0063164504475612e-24,"24":1.9030917307615376e-24,"25":6.636283913602823e-26,"26":-1.421123597239832e-24,"27":-6.940730845847385e-25,"28":-2.624531060092908e-25,"29":-5.9002609941194935e-25,"30":-1.6151893423021177e-24,"31":-9.361861131612707e-25,"32":-5.223638107180635e-25,"33":-1.026400552910304e-24,"34":-1.5878730553517942e-24,"35":5.614825430276651e-25,"36":-5.145193682242162e-25,"37":5.04636254714283e-25,"38":-4.737991082624127e-25,"39":-2.2157248157489665e-25,"40":-1.5125481599653127e-25,"41":-1.7044769355518653e-24,"42":-5.327115576650012e-25,"43":1.455508625177232e-24,"44":-8.39613084413437e-25,"45":2.6787808669663077e-25,"46":3.1062308941021565e-24,"47":-1.5895873261523947e-25,"48":1.8964004425666614e-24,"49":-8.406718913626338e-25,"50":-1.0935121208852077e-24,"51":6.7032648844060855e-25,"52":-2.326270928889839e-24,"53":-1.5793851911526218e-24,"54":3.678126386496933e-25,"55":1.1103112305643626e-24,"56":-1.2554524324757661e-24,"57":1.8494863011084816e-24,"58":-2.9499843334828944e-24,"59":4.369216189149065e-25,"60":-3.9420098373995308e-25,"61":-1.948920471417651e-24,"62":5.5979319450589045e-25,"63":1.0415008450137714e-24,"64":1.3962274785080781e-24,"65":3.8309482297874612e-25,"66":1.2069187569935127e-24,"67":4.468412974365292e-25,"68":-9.657105630714675e-25,"69":7.404988326691124e-25,"70":-4.203966817195387e-25,"71":1.3549526975041768e-24,"72":-8.106752182311937e-26,"73":7.336337748857705e-25,"74":4.198968747638601e-25,"75":-1.963943567876997e-24,"76":7.800650459275938e-25,"77":1.5678920106332167e-24,"78":4.745642003003084e-25,"79":-2.902507486392251e-25,"80":7.140299302919357e-26,"81":-1.3846404043513135e-24,"82":3.0482436649000963e-24,"83":1.1040162022558471e-24,"84":1.3682387292739147e-24,"85":-2.351332539266458e-24,"86":-4.487758089431217e-25,"87":-4.471506626066631e-25,"88":-2.115569313573962e-25,"89":-3.986019731107546e-27,"90":4.905778326840791e-25,"91":-4.257268023539492e-26,"92":-1.9681913413938217e-24,"93":7.236134566124436e-25,"94":-2.020144997834048e-24,"95":-1.4246731858455197e-24,"96":-1.4658080008228983e-24,"97":7.213493913327177e-25,"98":1.665951159233886e-24,"99":-4.850244418530708e-25,"100":6.706746852153647e-25,"101":-7.594421627393726e-25,"102":-2.82369311124942e-25,"103":-1.8835152262074024e-25,"104":-1.0834651222242781e-24,"105":-1.4232048473677257e-25,"106":-1.822777098262728e-24,"107":-2.26087620574956e-24,"108":8.14932617035788e-26,"109":4.4379796848102395e-25,"110":-3.775675497788806e-25,"111":1.0059890999476798e-24,"112":2.781921489610665e-24,"113":-1.114900293981542e-24,"114":2.2545038732281345e-24,"115":1.0431662203413006e-24,"116":-1.0073668665774505e-24,"117":-1.6890106801286776e-24,"118":2.5260105336509213e-24,"119":2.0769644402335656e-24,"120":2.4933641666563634e-24,"121":-1.8532494269743276e-25,"122":-2.009920745020653e-24,"123":4.817713285612235e-25,"124":-3.39779191604621e-26,"125":4.0194396596599724e-24,"126":8.750289056331216e-25,"127":2.648350289136349e-25,"128":-3.471530814006653e-24,"129":-7.648993207375086e-25,"130":-2.503524535626549e-26,"131":-2.7020067895620325e-24,"132":-3.356331670823171e-25,"133":-1.8775015773446558e-24,"134":-3.555283791901191e-24,"135":-1.7831979572702826e-24,"136":-8.62281369700511e-25,"137":-4.109476767550509e-25,"138":-1.5966584096383734e-24,"139":-2.0721740921991265e-24,"140":-2.1787375356108816e-24,"141":6.07217721582546e-25,"142":-1.249342919337175e-24,"143":5.8910693471330425e-25,"144":1.3936592447678918e-24,"145":7.250225279100757e-25,"146":-1.9642410544133463e-24,"147":-1.4264701664735547e-24,"148":1.4518678806185141e-24,"149":3.693910776482393e-24,"150":1.8303734955127057e-24,"151":-1.663485049048139e-24,"152":8.430670853670664e-26,"153":-2.9257303512766403e-25,"154":8.753906938157996e-25,"155":-8.63262804231273e-25,"156":1.6120703715084743e-25,"157":-9.028277648286689e-26,"158":-3.101377732967247e-25,"159":-5.515943095722192e-25,"160":7.2386433105381185e-25,"161":-8.942225043594061e-25,"162":6.139419984014796e-25,"163":-1.8790332687230334e-24,"164":-5.257649561847305e-25,"165":1.1862187418301167e-24,"166":-4.184245695803799e-26,"167":-1.1154873720655489e-24,"168":-8.935986801902812e-25,"169":-1.3485041798841398e-25,"170":-2.328317221893418e-24,"171":-1.9280684085428716e-25,"172":-1.6783340167984245e-24,"173":-5.25321055810376e-25,"174":3.1972436220664925e-24,"175":1.3665946301016635e-24,"176":-2.187375543874372e-24,"177":9.603733028223503e-25,"178":1.2479315937774321e-24,"179":1.9913371914562022e-25,"180":1.6649940888878173e-24,"181":1.848703509748394e-24,"182":2.5130508964234934e-24,"183":1.8939262929764793e-24,"184":2.3000139114020486e-24,"185":1.4534880972422307e-24,"186":1.8402694743835626e-24,"187":1.850990224185478e-24,"188":-1.3473994464560827e-24,"189":-1.6798683839936335e-25,"190":8.167500694111826e-25,"191":-7.978451515133097e-25,"192":-2.0211275505005453e-24,"193":-8.415239590931182e-25,"194":1.2603839470934433e-24,"195":5.409555647276192e-25,"196":9.9070680121714e-26,"197":4.77848015327104e-25,"198":2.703373194967693e-25,"199":5.407846660999758e-26,"200":2.1625915023408102e-24,"201":2.0370358482845544e-24,"202":-2.7243602165339836e-24,"203":2.446769022898468e-25,"204":2.8713056717235885e-25,"205":9.672530981227162e-27,"206":6.5493311742482095e-25,"207":-7.087253053979863e-25,"208":9.459439573162339e-25,"209":-6.610689210184887e-25,"210":-9.302771883396522e-25,"211":-4.925982312424137e-25,"212":1.0503197671310591e-25,"213":5.442890506798181e-25,"214":3.1605255643264422e-24,"215":6.7072052739489715e-25,"216":7.697949865668594e-25,"217":-7.8047230461052795e-25,"218":2.466527766775398e-24,"219":-1.1658771225869266e-24,"220":-1.2525913244093614e-24,"221":2.86432558702333e-26,"222":1.2990044823901008e-25,"223":-2.2134332178034424e-24,"224":9.867010914676216e-25,"225":-1.8108377702463214e-25,"226":-2.7776375020293798e-24,"227":1.659326572597116e-24,"228":-5.382955598332603e-25,"229":1.8327851396184686e-25,"230":4.188541345502602e-25,"231":-6.394815743122412e-25,"232":-7.661448023611045e-26,"233":-1.4510801049977777e-24,"234":-3.717347263140165e-25,"235":4.531863781073421e-25,"236":4.201894217452074e-25,"237":5.812064857543084e-26,"238":-1.9098100391163715e-26,"239":1.0284506358794133e-24,"240":1.9748117573407582e-25,"241":2.533868894786374e-24,"242":3.936970403041113e-26,"243":-1.845521243736247e-25,"244":-2.0179792439294837e-25,"245":4.753925650040757e-26,"246":-8.242767921328775e-25,"247":-1.8373404640033056e-25,"248":9.483478079728192e-25,"249":-1.1726474471813277e-24,"250":-7.868920888389959e-25,"251":-1.2484424490287258e-24,"252":-3.9005985884723875e-25,"253":9.76326900848255e-25,"254":2.2983557621261045e-24,"255":4.130181952199519e-25,"256":5.326306304944188e-25,"257":-2.4987062731734736e-24,"258":1.4995021052626386e-24,"259":-5.176565996221305e-25,"260":1.5041563198151434e-25,"261":1.138098300506216e-24,"262":7.534679024751899e-27,"263":4.281153880334585e-25,"264":1.705190546235524e-24,"265":-3.8784246199420016e-24,"266":-1.9035627929914572e-25,"267":-2.040825091727479e-24,"268":-6.89965734220821e-25,"269":1.824105487807788e-24,"270":1.786829345104653e-24,"271":3.73420951477673e-24,"272":5.214817176801453e-25,"273":-6.781210895623554e-25,"274":-1.2191280950323853e-24,"275":2.477846038665071e-24,"276":2.466311782465868e-25,"277":9.168244709025381e-25,"278":-1.7053370839000337e-24,"279":-2.705541102738965e-25,"280":4.231860524682044e-25,"281":1.4198190617515584e-24,"282":-1.577475638503712e-24,"283":1.2330045515415964e-24,"284":1.0814561267543631e-24,"285":-1.0935290391765062e-24,"286":-4.1085918768682224e-25,"287":9.05223889538564e-26,"288":2.3710748469545754e-25,"289":4.588399589719458e-25,"290":-4.848680008244773e-25,"291":-5.183877571108537e-25,"292":-1.440622923341834e-24,"293":6.649080012509592e-26,"294":2.6415796044164594e-24,"295":1.926213097919967e-24,"296":5.9198479951545205e-25,"297":3.194835697633015e-24,"298":-2.9923391646915136e-24,"299":4.1172438822203204e-25,"300":-2.8409496962587645e-25,"301":4.0372906389684734e-25,"302":2.6219682421025895e-24,"303":1.1591624797584479e-25,"304":3.6391512471609475e-25,"305":8.746359648452869e-25,"306":7.095250046514834e-25,"307":-6.215140091840355e-25,"308":-2.178641329701597e-25,"309":1.1582474151268728e-24,"310":-4.718337852203534e-25,"311":1.0116195699616214e-24,"312":6.914188542855093e-25,"313":-2.11387309797811e-24,"314":1.312708483246191e-26,"315":2.3629700437617013e-24,"316":-1.7188927054420147e-24,"317":-9.404074258222712e-25,"318":-4.265480561599915e-25,"319":1.0102085538313805e-24}},{"sx":1,"sy":1,"depth":320,"w":{"0":-0.000007454832116432203,"1":-0.000007063707759611791,"2":-3.451103136252248e-24,"3":1.3054816722031203e-24,"4":5.556145605428745e-25,"5":-5.764842310283712e-25,"6":-5.6915375249290875e-9,"7":-1.8981149701789463e-24,"8":4.462063232145142e-25,"9":1.0103097398125364e-24,"10":-8.558502182827939e-7,"11":-0.0000014600028156936985,"12":-0.000003203381744805337,"13":-0.00000289862162360507,"14":-0.0000033418339250469862,"15":-7.722746658874194e-7,"16":-8.202930394073543e-7,"17":-0.0000023132450552064645,"18":-0.0000054316706266854826,"19":-0.0000017650288300075524,"20":-0.000009826059520733747,"21":-8.46078604854189e-7,"22":-0.000004084314336291791,"23":-0.0000029532225726654393,"24":-0.000003305865484414435,"25":-0.00000113138430084985,"26":8.588787476061476e-7,"27":-8.432434276796622e-7,"28":-0.0000052229754617063506,"29":-0.0000032129724917758308,"30":-9.862282874605003e-7,"31":-0.0000011619071801585786,"32":-0.000007094492249320987,"33":-4.5777567106858307e-7,"34":-0.000003654675407289043,"35":-0.000003401703298220783,"36":-0.000002359155219932594,"37":-8.063797182019893e-7,"38":-0.0000047044920716299775,"39":-8.017806454912733e-7,"40":-0.000006628050300209081,"41":-0.0000037513793470188714,"42":-0.0000012274246811816546,"43":-9.75901559227483e-7,"44":-0.000006447180346651938,"45":-5.213907081389938e-7,"46":-0.0000040042513801877035,"47":-0.0000040979626372556975,"48":-0.00000417648248074106,"49":-0.000001276158046569043,"50":-0.00000253619903997219,"51":-0.0000010099318103902629,"52":-0.000005384662577104763,"53":-0.000004240223340644105,"54":-0.000007132941767496831,"55":-0.0000016760362817777528,"56":-0.00000883613626348022,"57":-0.0000011900235005912942,"58":-0.000004597713430026943,"59":-0.0000045108630910192195,"60":0.0000012480569181329488,"61":-9.63110992695645e-8,"62":-0.000006047765237749642,"63":-4.295349873725571e-7,"64":-0.000006659322226461076,"65":-0.000004609370192187144,"66":-0.00000435766911073731,"67":-0.0000018455892406713942,"68":-0.0000044546708112232465,"69":-0.0000014740323664538145,"70":-0.000004515564645461178,"71":-0.0000047521644700505375,"72":-0.0000020246642977854467,"73":-9.286781804453387e-7,"74":-0.000005470068681850955,"75":-7.216086325298728e-7,"76":-0.0000037396137189466133,"77":-0.0000051807684788939025,"78":-0.0000073280808165172695,"79":-0.0000011263295343651088,"80":-0.000008711575233982328,"81":-0.0000022308221518415415,"82":-0.000002824811955515529,"83":-0.000005229105425693698,"84":-0.0000017223549898236736,"85":-0.0000011357138169618835,"86":-0.000005390400022788276,"87":-0.0000029347199180084547,"88":-0.000006205912965590903,"89":-0.000004828473598210102,"90":7.115886168130065e-7,"91":-3.5208441525413835e-7,"92":-0.00000910154757236186,"93":6.837193208218606e-7,"94":-0.000003663171749038014,"95":-0.000004929773167354822,"96":-0.000005150880661974676,"97":-0.000001037624972653859,"98":-0.000006069347059285822,"99":1.0089219381518661e-7,"100":-0.0000010819063848389237,"101":-0.000005070514420527059,"102":-0.0000020098869124354435,"103":-0.0000015922458434729027,"104":-0.000004034337992727598,"105":-0.000001713214620583617,"106":-0.0000036879445310984644,"107":-0.000005127143459307707,"108":-0.0000013508953408750796,"109":-6.869235564792083e-7,"110":3.601123530231043e-7,"111":-3.2796137902656766e-8,"112":-0.0000012239118966161707,"113":-0.000008693909779773359,"114":-0.00000554976182893929,"115":-0.0000016143155502196255,"116":-0.000010544274096509129,"117":-0.0000013124584106262433,"118":-0.00000706882734462207,"119":-0.00001118511936339194,"120":-0.000003914072721392784,"121":-9.713147802460586e-7,"122":-0.0000061660443394036535,"123":-8.160931787723457e-7,"124":-0.00000388696766273458,"125":-0.000003523397226422312,"126":-0.0000014042411263154695,"127":-2.8472482470360406e-7,"128":-0.000001655075863626415,"129":-9.223344549816966e-7,"130":1.001228501505882e-24,"131":-1.8724719673061678e-24,"132":-1.987053329135381e-24,"133":-2.3627466178525322e-24,"134":-2.865388494814645e-25,"135":-8.953981877553677e-25,"136":-6.055265164517463e-25,"137":3.8267569435423654e-25,"138":6.718909648965285e-26,"139":1.9129058580398742e-25,"140":-5.863129002436505e-25,"141":-3.135307055059516e-25,"142":2.3696462467265204e-24,"143":9.290717749185999e-25,"144":-9.647248872018244e-25,"145":-3.017641561471616e-25,"146":1.5099468938244939e-25,"147":-2.873565857929839e-24,"148":1.9358415047238492e-24,"149":5.59113439986262e-25,"150":-2.6561458871757844e-24,"151":-6.339380575593935e-27,"152":1.6334797534513316e-24,"153":-4.168825910584506e-25,"154":-1.8396749148394193e-24,"155":-8.764052988493456e-25,"156":-3.190323219547309e-25,"157":-1.5665586738798472e-25,"158":3.221093965536861e-25,"159":4.6849686001570725e-25,"160":-6.171382787910229e-25,"161":-1.655412269137934e-24,"162":7.381932966498922e-25,"163":1.772488703773122e-24,"164":3.505984904215203e-25,"165":-2.3690848401639534e-24,"166":-1.0015480356096559e-24,"167":-7.472880122631166e-25,"168":5.062981939704249e-25,"169":6.979227572361488e-25,"170":8.79787709513889e-25,"171":2.6026175596507442e-24,"172":2.408116840936528e-24,"173":1.1587923726398513e-25,"174":-2.600441623815293e-25,"175":2.740233085142478e-24,"176":1.1278630180707074e-24,"177":-8.84812204896227e-25,"178":8.916596948490775e-25,"179":-4.875048003293188e-25,"180":-3.0136912672143917e-25,"181":4.813400966424316e-26,"182":1.8261661876473863e-24,"183":1.1116373423933804e-24,"184":-3.4552296531642315e-25,"185":5.234882907334851e-25,"186":1.0886184608763436e-25,"187":1.2301880932887585e-24,"188":-1.4521083992134707e-24,"189":2.4748962335935768e-24,"190":-0.000006277990988475988,"191":-0.0000021615444432978802,"192":-3.9326315451543037e-7,"193":-0.000004132734547480408,"194":-0.0000028301998534668196,"195":-7.17064320424076e-7,"196":-0.0000018442504483484324,"197":-0.000002181127474123932,"198":-1.4505522082348906e-7,"199":-7.576688978634457e-25,"200":-7.99333856096233e-25,"201":-2.572091036757559e-25,"202":-2.6983224213712984e-25,"203":3.256466654136652e-24,"204":-5.1290638488919055e-25,"205":-0.0000055235261821964575,"206":-0.0000023516502057216293,"207":-6.940535035022704e-8,"208":-0.000004748785007633578,"209":-0.0000034338577408892396,"210":-4.1423250158066354e-8,"211":1.5054291374262361e-21,"212":1.130612410078469e-21,"213":1.2001007106563738e-23,"214":7.853816287490446e-25,"215":2.156239858428527e-24,"216":-1.744860577209981e-24,"217":3.288095770076717e-25,"218":2.4115204528996867e-24,"219":-8.21564139855925e-25,"220":-0.0000039729451360801996,"221":-0.0000018662696856145824,"222":-0.0000034067087633204076,"223":-0.00000484984326522187,"224":-9.837309470861967e-7,"225":0.000003199861816526187,"226":0.0000020541536170873384,"227":8.494610456931249e-7,"228":-0.0000013970059597405487,"229":-4.5255285020521636e-7,"230":1.862138962065801e-7,"231":0.0000019186225433029014,"232":-4.599214933905005e-7,"233":0.000001349942728551046,"234":-3.4519690413857e-7,"235":0.0000015885673797707969,"236":-3.543289933346516e-7,"237":9.63351361536397e-7,"238":4.758528867726165e-8,"239":1.356530489069501e-7,"240":7.942530094699283e-7,"241":8.059912751048115e-7,"242":7.672628748593302e-7,"243":0.0000011523667465328458,"244":3.717362765218347e-7,"245":5.152416592267237e-25,"246":1.8407030088228117e-25,"247":-8.625147610312311e-25,"248":-1.5467884882002558e-25,"249":-3.003426080750822e-26,"250":1.0081093184634968e-24,"251":-1.6687727941486371e-25,"252":-1.0507025635320873e-24,"253":1.3778342139606884e-24,"254":-6.883251908016438e-25,"255":-1.3210313538088267e-24,"256":-1.0818634470629317e-24,"257":-1.1819098137420754e-24,"258":-6.360324542795766e-25,"259":1.1354564585534846e-24,"260":-1.2151118438926382e-24,"261":2.4548730049468682e-24,"262":-9.217326018957716e-25,"263":7.658360511751435e-25,"264":-2.030981905121632e-24,"265":2.426135038728014e-24,"266":-1.2484831943350546e-24,"267":-9.44223762153343e-25,"268":8.814584848726494e-25,"269":8.085921556688315e-27,"270":-3.818274659349294e-25,"271":-2.421951931752273e-24,"272":1.1361342981323529e-24,"273":-3.2467563722720054e-24,"274":5.750025739061486e-27,"275":-1.6388443457829005e-24,"276":-2.9470338673870263e-24,"277":-9.44527967579283e-25,"278":-9.633296256166414e-25,"279":4.1336504996431944e-25,"280":-1.2449194542853178e-24,"281":-1.6715113784699716e-24,"282":9.41900093698274e-25,"283":-2.0484333070095314e-24,"284":-1.398934131882751e-24,"285":-9.986302256099475e-26,"286":8.668678870275395e-26,"287":2.7123363977151033e-24,"288":-1.206340655843621e-25,"289":1.1729299413800823e-24,"290":-2.616559726140345e-25,"291":1.5265864163295806e-24,"292":2.298730933648711e-25,"293":-8.065143006936467e-25,"294":5.477274651647571e-25,"295":-8.680735299240566e-26,"296":-8.61701206939664e-25,"297":-5.6946984078210205e-25,"298":2.3721371904730694e-25,"299":-8.379471021745962e-25,"300":-1.8699945487108884e-24,"301":-9.236508688424583e-25,"302":-8.678841419566434e-25,"303":-2.008273185854892e-24,"304":-9.675617709423011e-25,"305":5.828077691640719e-25,"306":1.2621409736569126e-24,"307":1.2844611854550108e-24,"308":-5.900996959178602e-25,"309":-4.515844090402673e-25,"310":1.4823788694752999e-24,"311":5.297880081814246e-26,"312":-2.316825351413336e-24,"313":8.334305289692166e-25,"314":-1.5487782444553027e-24,"315":-7.549734120896823e-27,"316":1.1503498805605432e-24,"317":1.2595346440555565e-24,"318":-1.7352776342854667e-24,"319":1.8081468166464654e-24}},{"sx":1,"sy":1,"depth":320,"w":{"0":-1.384695779304038e-24,"1":-3.523689013394134e-24,"2":2.4290912622076784e-24,"3":1.0537251739060254e-24,"4":3.156094514738071e-25,"5":-9.69244680272718e-25,"6":-1.0675633159201335e-24,"7":-1.1133186993028886e-25,"8":-5.238422091206226e-25,"9":-1.2830769120108326e-24,"10":2.6123540988631762e-24,"11":3.35221601931022e-24,"12":-3.837600183176558e-24,"13":-1.1341102999431201e-24,"14":2.8445347434550132e-24,"15":3.315870460465704e-25,"16":1.3988738829732187e-24,"17":-2.6780486643656655e-25,"18":-4.81188798394458e-24,"19":-5.361374221279003e-25,"20":-2.4962293193781867e-24,"21":-7.1339561647154135e-25,"22":-3.441437486251529e-24,"23":-2.7601382681728235e-24,"24":-1.6750318632801324e-24,"25":3.25800454115526e-25,"26":3.8854190171351435e-24,"27":1.0905365281851746e-24,"28":-7.085738745162896e-24,"29":-6.827910698075784e-26,"30":-2.0997948464963357e-24,"31":-8.1107184393890155e-25,"32":-4.674786058017577e-24,"33":-2.951272275919386e-25,"34":-1.5770619624582355e-24,"35":1.712180556930126e-25,"36":3.445427307711629e-24,"37":-1.281092427348089e-24,"38":2.1852043262426565e-24,"39":-1.6051151292238943e-25,"40":-3.801809561477246e-24,"41":4.963622913155145e-25,"42":1.218341587820138e-24,"43":8.361143438475945e-25,"44":-4.421886978233146e-24,"45":1.623687812865582e-24,"46":-2.0813510902110807e-24,"47":4.535347817902722e-25,"48":-3.806773427145716e-24,"49":5.914195798395365e-25,"50":-2.551385302283188e-24,"51":7.952610232762097e-25,"52":-3.2279402221944405e-24,"53":9.487689870735307e-25,"54":-3.8009654816115315e-24,"55":8.74968866860718e-25,"56":1.4560530323800718e-24,"57":-1.8958803304718276e-24,"58":-7.886469310568691e-24,"59":3.3527441901861833e-25,"60":-5.34593697922449e-25,"61":-2.9105380580181895e-24,"62":7.2021886335019505e-25,"63":-2.1667413079804812e-24,"64":-4.4444541359201816e-24,"65":3.4339541002338107e-25,"66":7.062958949443693e-25,"67":-8.71115731310191e-25,"68":-3.761443496794767e-24,"69":1.568455320400308e-24,"70":-9.870884666986072e-25,"71":-1.3832920694476344e-25,"72":-3.9300573668950326e-24,"73":-3.172065747054769e-24,"74":-2.0000631271006428e-24,"75":-4.318077599337366e-25,"76":-3.0583866773405036e-25,"77":-2.1703377010454893e-24,"78":-2.174216228376092e-24,"79":-4.139009677174876e-25,"80":-2.4275630760660495e-24,"81":-2.1509196799425215e-24,"82":5.2988948176748055e-24,"83":6.064831290382711e-26,"84":-2.946967004815611e-24,"85":1.496448057969638e-24,"86":-4.691334910910255e-24,"87":7.429340873625419e-25,"88":2.2560419091396033e-24,"89":1.374537163313744e-24,"90":-3.770097376681467e-24,"91":-1.807613765603843e-24,"92":2.2134277583498295e-24,"93":-4.302134155957969e-24,"94":-9.567476840991026e-25,"95":-2.7085356644977504e-24,"96":-2.4968656420174606e-24,"97":-1.2703109134587658e-24,"98":-5.945940004626326e-24,"99":-4.952710384056978e-25,"100":-5.823382224453447e-24,"101":-3.6554306812468437e-25,"102":1.5724292194353731e-24,"103":-1.7987933960058515e-24,"104":-4.184558944203313e-24,"105":-1.4032051931271302e-24,"106":3.893970184942154e-24,"107":1.46818670529656e-24,"108":2.8229081660801236e-24,"109":-1.582877419149641e-24,"110":5.230769945632107e-24,"111":-9.850054391953504e-25,"112":1.5926757213576597e-24,"113":9.200351541539872e-25,"114":3.1598438311295825e-24,"115":-1.7287072292836727e-24,"116":2.676206641516835e-24,"117":-7.744783353541023e-26,"118":1.427351986797325e-24,"119":2.6541385605603435e-25,"120":-1.9670493503884612e-24,"121":1.0101986823174566e-24,"122":-5.308088261638353e-24,"123":-1.8235390308276448e-25,"124":-9.864824578623581e-24,"125":-5.757765012936343e-24,"126":-4.960270612811018e-24,"127":9.887654738381665e-25,"128":-3.967411738764284e-24,"129":1.2568263850108258e-24,"130":7.603553550864459e-25,"131":-5.583538847235506e-25,"132":-5.861916437935474e-25,"133":-3.953973037039937e-25,"134":3.0339660300267205e-24,"135":-1.717620391012657e-24,"136":-1.1402777917092669e-24,"137":-9.165069349491606e-25,"138":-2.3626821666076614e-25,"139":1.1239056108012659e-24,"140":-7.478524626153236e-25,"141":-2.407622913933243e-24,"142":2.02260058968065e-24,"143":1.3789024761347686e-24,"144":-1.7946782289900348e-25,"145":-1.0181117271813967e-24,"146":-4.172737515398114e-25,"147":-4.467841242051171e-25,"148":3.1843660342213987e-25,"149":-4.438384029083714e-25,"150":-1.3621076019213918e-24,"151":2.5091800419987605e-24,"152":-4.557972219800412e-25,"153":1.5248083878367633e-26,"154":9.797604190571434e-25,"155":3.0957924904797456e-25,"156":1.6428341381660475e-24,"157":-1.5718503893067611e-24,"158":1.006088684834422e-24,"159":-7.509079395394386e-25,"160":1.6107748353467455e-26,"161":-7.998007819019408e-26,"162":7.643018895174128e-25,"163":8.220222765807873e-25,"164":6.23650224053923e-25,"165":3.453037823250863e-25,"166":-2.0579621385825644e-24,"167":9.820277658861897e-26,"168":-3.845569220149057e-25,"169":-1.390692091545746e-24,"170":-2.019055765974092e-24,"171":-3.939958869106797e-25,"172":1.0113833117827329e-24,"173":1.0755956737019593e-24,"174":-2.9268845030427263e-24,"175":1.3240307881965464e-25,"176":-1.5904568718806027e-24,"177":-1.7144940752716406e-24,"178":-1.836544141029018e-24,"179":-1.5917246292132195e-25,"180":-8.690916252640224e-25,"181":-7.791760922613174e-25,"182":1.0589000513382462e-28,"183":1.4480342948436502e-25,"184":-2.5275915200010438e-24,"185":-1.1262433633847534e-24,"186":3.580226722082048e-25,"187":1.577585891825883e-24,"188":9.62382073442921e-25,"189":-1.6009180131362253e-24,"190":1.2947470016415272e-24,"191":4.8469596553715214e-24,"192":3.105281824833287e-25,"193":1.4978380191901519e-24,"194":3.564436161657142e-26,"195":-9.805407618611457e-25,"196":-3.425823651593583e-24,"197":-8.359419966449641e-24,"198":-2.294169617169414e-24,"199":5.962013163039536e-25,"200":-1.4311069148974363e-24,"201":9.530704794063458e-25,"202":6.466287103289114e-26,"203":-5.728752160335862e-25,"204":1.0830191298890646e-26,"205":-1.2550832621551567e-24,"206":3.7415946948019885e-25,"207":4.949685902599676e-25,"208":-1.948770790563257e-24,"209":-3.655243094623283e-24,"210":-1.6148849609543823e-24,"211":-2.7517447943195235e-25,"212":9.722346512240808e-25,"213":7.286449091706456e-25,"214":2.6091133067953474e-24,"215":-2.989471112161574e-25,"216":6.111042531513621e-25,"217":1.720459743127826e-24,"218":6.444497339240509e-25,"219":8.495387700763493e-26,"220":-3.8022986858669915e-24,"221":8.853655426954763e-25,"222":-1.939803904696873e-24,"223":-4.546794730830626e-24,"224":-8.913957076720555e-25,"225":1.5728121502154237e-24,"226":-1.6344981690003228e-24,"227":1.2451094029112346e-25,"228":3.9586812064841334e-24,"229":8.689474364940318e-25,"230":2.8245956701100905e-24,"231":2.0539857808053937e-24,"232":2.2539279378063957e-24,"233":5.6339587728307435e-24,"234":2.251093754480169e-25,"235":1.118132176320781e-24,"236":-1.413527848329116e-25,"237":-1.8839097477505848e-24,"238":1.7458933310829757e-24,"239":3.2329408659144073e-24,"240":4.3407040481160365e-25,"241":5.200438909218407e-25,"242":1.174847885494875e-24,"243":1.4140271529408902e-25,"244":-4.279326039057539e-25,"245":-3.398884737816136e-25,"246":-5.16602988105236e-25,"247":2.7950863772424232e-24,"248":-2.0364312683311695e-24,"249":-7.103887053899657e-25,"250":-1.066182429105667e-24,"251":1.5147490902304575e-24,"252":-1.2401561771274499e-24,"253":-1.026143599678974e-25,"254":-1.269248055760449e-24,"255":1.0777869153480775e-24,"256":-9.28603791779516e-25,"257":-2.0655794153534897e-24,"258":-9.161361004836197e-25,"259":5.828472673445352e-25,"260":5.036410075235225e-25,"261":-1.3098562383193132e-24,"262":-2.111842689368641e-24,"263":1.201830070316558e-24,"264":5.593680568797854e-25,"265":-5.609995824588944e-25,"266":-1.241554610180001e-24,"267":2.600708234639079e-25,"268":-3.1515053898466835e-25,"269":7.465309968957883e-26,"270":1.710676432035563e-24,"271":-2.9174826467771578e-24,"272":-3.462284566262497e-26,"273":-4.056731813383159e-25,"274":-3.241412592857567e-24,"275":1.3517325680180408e-24,"276":-6.010015903702031e-26,"277":-7.120852146356316e-26,"278":-3.4813868220733996e-25,"279":-2.1173667750075004e-25,"280":1.3760941946551724e-24,"281":1.0321082955625091e-24,"282":-3.1004654787113124e-25,"283":-6.891785899292187e-25,"284":3.520272093445165e-25,"285":1.0906384870550918e-24,"286":4.785053149167175e-25,"287":5.765780038937415e-25,"288":2.197565849030214e-25,"289":-2.4030446011503394e-25,"290":-7.793406911540688e-25,"291":1.055551357261134e-24,"292":-2.6012582786534943e-24,"293":-3.140847753288119e-24,"294":-1.2686725212663027e-25,"295":1.9454931484364213e-24,"296":5.2937181838313565e-25,"297":-2.7701704383394387e-25,"298":1.0182256830832386e-24,"299":-1.1866840717342164e-24,"300":4.23505482191806e-25,"301":2.525301003643747e-24,"302":-2.453365501373158e-24,"303":-2.4003709732950266e-25,"304":-5.436446967964649e-25,"305":9.73932339276362e-25,"306":1.2452729261808183e-24,"307":6.7500049733484835e-25,"308":2.1709786833639485e-24,"309":-7.154913371848528e-25,"310":1.5941379328059698e-24,"311":1.3349268590449948e-24,"312":-1.7855248813025477e-24,"313":2.1312580494756673e-25,"314":1.42383058305607e-24,"315":1.4363190130821509e-24,"316":-1.2498734464125017e-24,"317":-2.1506719728688632e-24,"318":3.3188024417549536e-25,"319":1.20210065093828e-24}},{"sx":1,"sy":1,"depth":320,"w":{"0":1.2906668592452882e-25,"1":-2.340800270793786e-25,"2":-1.0812938066430641e-24,"3":-5.000727682260436e-25,"4":2.1241031225514856e-24,"5":-1.4302216084921442e-24,"6":-1.2112523013241784e-24,"7":8.80421984559755e-25,"8":-1.5336681458936196e-25,"9":-1.6698771980033458e-24,"10":6.338817177944578e-25,"11":-1.2140215089345563e-24,"12":-2.396079268085035e-24,"13":1.4835465091822716e-25,"14":-1.4935505940692655e-24,"15":4.278729199464965e-25,"16":-7.988148264938072e-25,"17":-7.312578064200502e-25,"18":-2.1335468800307896e-24,"19":-6.431346719831789e-25,"20":4.556310033817326e-25,"21":2.3249750135060344e-24,"22":2.313626270745891e-25,"23":2.629654708324538e-24,"24":2.303921251691038e-24,"25":-2.2084333131782924e-24,"26":-1.548827945464708e-24,"27":-3.348256143178234e-24,"28":1.694253014829572e-24,"29":-7.670492697421371e-25,"30":-3.372607005387116e-25,"31":7.009827500958357e-25,"32":-6.606857013417691e-25,"33":-3.2812784288875764e-24,"34":-1.2578371969530087e-24,"35":-2.0170537454953554e-24,"36":-1.338715882589309e-24,"37":-3.2506734894692705e-25,"38":-1.6507967928317732e-24,"39":-1.822333628487486e-24,"40":-1.6305133268472434e-24,"41":-1.484433352157014e-24,"42":-1.47410043345576e-25,"43":-1.5257550093664394e-24,"44":-1.0931034244046215e-24,"45":1.2287879124527024e-24,"46":-1.3298295426159718e-24,"47":-1.4356873434936118e-24,"48":2.0474135706405264e-24,"49":2.581157994520384e-24,"50":-1.6178931420989676e-24,"51":-9.430883445978561e-25,"52":-5.102822689098817e-25,"53":2.1627168854060575e-25,"54":7.814058775439742e-25,"55":8.914823444156014e-25,"56":4.628956303780898e-25,"57":1.9511225650577931e-25,"58":6.640104273038815e-26,"59":-1.3808520180275273e-24,"60":1.008870612002893e-24,"61":-1.0593458376791744e-24,"62":1.391718353606698e-24,"63":-1.429293540509071e-24,"64":-5.686169142750535e-25,"65":-4.356952775435296e-25,"66":9.46046216611234e-25,"67":3.9161114930344264e-25,"68":-1.0381453698484083e-24,"69":-2.889064377010102e-25,"70":-1.5606452243400036e-24,"71":-2.053839263087424e-24,"72":-1.0139243763372607e-24,"73":2.979542869174325e-25,"74":3.0967312690648185e-25,"75":-4.131444155134775e-25,"76":1.935464654965943e-24,"77":5.287843517125949e-25,"78":-9.960767159214363e-25,"79":9.979334414790669e-26,"80":1.1901416763167177e-24,"81":5.402699356414547e-25,"82":-1.3565267198887954e-24,"83":9.4799124968363e-25,"84":-1.2688318952011113e-25,"85":-1.267306686840008e-24,"86":-1.6900424741310056e-25,"87":-1.0576807919182453e-24,"88":1.777935278098538e-25,"89":-1.35933072498225e-24,"90":7.780857364247747e-25,"91":8.928196464092718e-25,"92":8.075114644917093e-25,"93":3.5754927666846174e-25,"94":-1.9929264940016373e-24,"95":-8.836433037071282e-25,"96":-1.5761118365923004e-24,"97":-3.0049583115295994e-26,"98":1.0200907148852232e-24,"99":4.593981371701848e-25,"100":1.9439220004322626e-24,"101":6.898725977841291e-25,"102":-1.0825117782363112e-24,"103":2.847900748994103e-24,"104":-4.3111675276672e-25,"105":3.0519840706224695e-25,"106":-1.8878323193345287e-24,"107":2.08162481462827e-25,"108":1.9628264391947514e-24,"109":1.1402198245866984e-26,"110":-1.4705797419737028e-25,"111":-2.6640506012064465e-24,"112":-5.488175028715766e-25,"113":6.446838599734085e-25,"114":-6.425549210770329e-25,"115":2.0664397127330804e-24,"116":-5.7114206016214e-25,"117":-1.7157681700874076e-24,"118":1.0437118869341086e-24,"119":-3.911409846615741e-25,"120":-2.869821069742826e-24,"121":2.3025979509150714e-24,"122":-7.8780928089537275e-25,"123":8.896052534685932e-25,"124":-4.543063762067329e-25,"125":2.2775992059513327e-24,"126":7.681695169728364e-25,"127":-2.670148268823235e-25,"128":-1.7295526668530806e-24,"129":-2.8414780460651785e-25,"130":1.2766446846745878e-24,"131":9.520557173127496e-25,"132":9.520455649273527e-25,"133":9.514976751662241e-25,"134":1.5718298229710237e-24,"135":2.7857025231211186e-25,"136":2.143409444482292e-24,"137":2.497053483015457e-25,"138":1.421508768461342e-24,"139":4.568782288810525e-25,"140":1.6250963112380497e-24,"141":-1.1655146010469478e-26,"142":9.306787686912231e-25,"143":-2.238320143849071e-24,"144":1.833766701052011e-24,"145":-1.0093091223108904e-24,"146":9.730688875998277e-25,"147":-1.335462413361314e-24,"148":6.398167076586122e-25,"149":1.2546856307056431e-24,"150":1.12296758284126e-24,"151":-1.5950400835686121e-24,"152":2.4490381092142497e-25,"153":-5.690594998880007e-25,"154":4.9413402960538715e-25,"155":-1.051833021639906e-24,"156":1.1136422934924711e-24,"157":-1.1341779712801662e-24,"158":-2.728998890629036e-24,"159":-2.0771198012485835e-24,"160":4.501048188820566e-25,"161":2.4840840448663367e-24,"162":9.77316852557144e-25,"163":1.1406832573457468e-24,"164":-1.3134904111119783e-24,"165":-1.7436616833183607e-24,"166":-1.1810254863857028e-26,"167":-2.6401514026399237e-24,"168":-4.51183368147359e-25,"169":-1.636571876619227e-25,"170":6.257350746072646e-25,"171":1.0700355695936225e-24,"172":-3.693074211960254e-25,"173":1.1781750973373742e-24,"174":-2.4329854838726474e-25,"175":-5.853895615825031e-26,"176":-1.790598968950869e-24,"177":-1.120849462158829e-24,"178":5.186288065884623e-25,"179":8.707753551122968e-25,"180":1.775112123564034e-24,"181":1.53896944538384e-24,"182":-1.904234307700541e-25,"183":-2.3170481113436636e-24,"184":1.2265059224064323e-24,"185":-3.591179508653752e-25,"186":2.0624647331230805e-24,"187":4.788340103041197e-25,"188":-1.0785145993086442e-24,"189":1.1380952400125432e-24,"190":-7.7804155127384575e-25,"191":1.1692335726716143e-25,"192":3.4195750822419086e-26,"193":3.5320739720096467e-25,"194":2.5181474138649913e-26,"195":1.2909769147262406e-24,"196":6.202084704537943e-25,"197":-1.714871309253886e-24,"198":-1.2898412819880774e-25,"199":3.454605267353289e-24,"200":-1.128830988421763e-24,"201":5.318762191964139e-25,"202":-1.5291403896019034e-24,"203":5.656728540165079e-26,"204":-2.7717318268636415e-24,"205":2.901603773406586e-24,"206":6.139517480324867e-25,"207":-8.29408860372747e-25,"208":-6.188607596190876e-25,"209":-5.100142495623606e-25,"210":1.5071439724495687e-25,"211":-2.2683555931917332e-24,"212":-1.4037155677749748e-24,"213":1.7703567426611713e-24,"214":3.8681509324818727e-25,"215":1.7619409398764036e-25,"216":1.3198097388799228e-24,"217":1.3459876033828012e-24,"218":3.681098436265542e-25,"219":-1.4464425308890944e-24,"220":-1.01670469087375e-24,"221":1.4218564812032252e-24,"222":2.5226125968440964e-25,"223":-2.3608840644363457e-24,"224":5.473509897679271e-25,"225":-7.359407331871881e-25,"226":1.3961761233087925e-24,"227":2.470245417906204e-25,"228":-2.1293248145619747e-24,"229":-9.966720071092548e-25,"230":1.3184411987982784e-24,"231":-1.7308559868249866e-25,"232":1.0599359788191658e-24,"233":8.118748711374831e-25,"234":-1.8213858731578058e-25,"235":-6.838521919308603e-25,"236":-9.185297017344334e-25,"237":1.809066421968291e-24,"238":1.0273926614725297e-24,"239":-7.175214307837923e-25,"240":1.6547369768906294e-24,"241":6.111463564225063e-25,"242":2.534923633565969e-25,"243":1.7842170474819283e-24,"244":-1.2075244890888324e-24,"245":-6.706403277825966e-25,"246":-2.5467109803993745e-24,"247":1.6138425200832314e-25,"248":-3.167677831633723e-24,"249":-1.6422569416612022e-24,"250":-1.265414198090092e-24,"251":1.655448714980091e-24,"252":6.679350136898089e-25,"253":1.4426840172944215e-24,"254":-2.777042090638179e-24,"255":-2.2373988901216725e-25,"256":-9.69637565539047e-25,"257":1.3409614299982181e-24,"258":-4.550570447628145e-25,"259":9.51124672430525e-25,"260":1.8096065214927755e-25,"261":6.981026042581767e-25,"262":3.008302202499816e-24,"263":8.940405694992226e-25,"264":-5.147872400326084e-25,"265":-3.5156095407511015e-25,"266":1.6748821651016136e-24,"267":9.265141344255775e-25,"268":1.5733288283532347e-25,"269":1.1447926515224145e-25,"270":-1.1231861048153292e-24,"271":-5.463177956994968e-25,"272":7.651518431678158e-25,"273":-2.2316236989409417e-25,"274":-8.994960858536847e-25,"275":2.4339008674605036e-24,"276":-3.585266679930915e-25,"277":8.619153693309571e-25,"278":-4.357650886791886e-25,"279":-1.885818046741316e-25,"280":3.206817869324619e-25,"281":-2.202591179539755e-24,"282":7.731175324850076e-25,"283":-1.454032368295252e-24,"284":-2.425580511117258e-25,"285":1.2070458305677881e-24,"286":1.5055856098312653e-24,"287":1.8826281138478407e-24,"288":-1.695020550351136e-25,"289":4.901196834985717e-25,"290":1.114433899733623e-25,"291":-5.842752235403767e-25,"292":-1.9060606374103318e-24,"293":-1.3531772552353011e-24,"294":-8.410695746350668e-25,"295":-7.258866911851567e-26,"296":3.732607155044713e-25,"297":1.2630761580607322e-25,"298":4.607678244646808e-25,"299":2.1038323304294723e-24,"300":-4.125820669047749e-25,"301":-2.1043607454746333e-25,"302":-1.0521525445984878e-24,"303":9.072418791083215e-25,"304":1.5080080825734242e-24,"305":9.064207117737352e-25,"306":8.013594253081981e-26,"307":-6.825700678566546e-25,"308":1.3983718655500787e-24,"309":-2.5680520578963408e-24,"310":-2.7633708871448814e-24,"311":4.865397076192448e-25,"312":5.844879491516565e-25,"313":-4.050473863201337e-25,"314":-1.2643530938252387e-24,"315":1.7510145421794634e-25,"316":-1.0718925104954923e-24,"317":-1.7085552599846152e-24,"318":-1.939083180308809e-24,"319":6.258778888358692e-25}},{"sx":1,"sy":1,"depth":320,"w":{"0":-3.303509611600981e-19,"1":-2.882423552774725e-19,"2":3.3835353097362984e-25,"3":1.646746814361627e-24,"4":1.560722134374967e-24,"5":-5.280559762371827e-25,"6":-2.40390241282363e-22,"7":-3.5634755293793977e-25,"8":-1.5586560433402263e-24,"9":3.0379927411335095e-24,"10":-1.3357734850459125e-19,"11":-1.2430133891359486e-19,"12":-1.2516648899267158e-19,"13":-6.072509866365199e-20,"14":-2.3413961582995953e-19,"15":-3.229765523526988e-20,"16":-1.6239137267588666e-19,"17":-1.387870843731532e-19,"18":-1.6188865972540123e-19,"19":-5.107638334722886e-20,"20":-2.1124387116560937e-19,"21":-3.6066716065521715e-20,"22":-1.898811148338454e-19,"23":-1.4994380191575061e-19,"24":-1.3192758769820896e-19,"25":-3.8823666022809266e-20,"26":-1.8563590606363286e-19,"27":-2.855957345257542e-20,"28":-1.5807453184742897e-19,"29":-1.5851566959566626e-19,"30":-1.4792876598171568e-19,"31":-3.894406199601652e-20,"32":-2.506088037166753e-19,"33":-3.0709322785328894e-20,"34":-1.8189951085249908e-19,"35":-1.6471739766482966e-19,"36":-1.1138452842758752e-19,"37":-3.8187919009267565e-20,"38":-2.39660592403806e-19,"39":-3.2232350266113085e-20,"40":-2.1526639157473144e-19,"41":-1.7319135644028004e-19,"42":-8.941889612833075e-20,"43":-4.135111981167953e-20,"44":-2.442285319020072e-19,"45":-3.4120322341481947e-20,"46":-1.541969779517404e-19,"47":-1.8245819466469786e-19,"48":-1.861669690060046e-19,"49":-4.1901835276306843e-20,"50":-2.6131443661387823e-19,"51":-3.529547606902478e-20,"52":-2.0114473484225825e-19,"53":-1.9357341864092278e-19,"54":-2.188327003925042e-19,"55":-4.8342395265216417e-20,"56":-2.4203380796239793e-19,"57":-3.867588719704069e-20,"58":-2.0095235592949424e-19,"59":-2.0380928953823393e-19,"60":-8.8071175219231e-20,"61":-4.224597458294391e-20,"62":-2.240473704542756e-19,"63":-3.7985163487678397e-20,"64":-2.0284334468397103e-19,"65":-2.140449523711872e-19,"66":-1.0375786334450991e-19,"67":-3.4835650703477037e-20,"68":-2.6712418785493174e-19,"69":-3.3891343256504725e-20,"70":-1.7209746370885075e-19,"71":-2.2421487982467444e-19,"72":-1.5852863714966682e-19,"73":-4.308018461323541e-20,"74":-2.7593260291556603e-19,"75":-4.0912397115414454e-20,"76":-2.249657960000418e-19,"77":-2.390261645255206e-19,"78":-1.7108217402129163e-19,"79":-4.43607849112527e-20,"80":-2.1564649678106462e-19,"81":-4.7941637693386974e-20,"82":-1.4350411937379268e-19,"83":-2.485975787270704e-19,"84":-1.2588158041587567e-19,"85":-3.9993983213833506e-20,"86":-2.240801752013513e-19,"87":-5.0357633025698396e-20,"88":-1.7064982764712032e-19,"89":-2.573047165429672e-19,"90":-1.3100391968302017e-19,"91":-3.6358473501114325e-20,"92":-2.887735263035956e-19,"93":-5.841128657025494e-20,"94":-1.3321280952637632e-19,"95":-2.6707775605660044e-19,"96":-1.369034621671456e-19,"97":-4.138815334341693e-20,"98":-2.555376233923852e-19,"99":-6.437072997083871e-20,"100":-1.3278961944833658e-19,"101":-2.825647977168988e-19,"102":-1.5613887575348405e-19,"103":-3.713239083957882e-20,"104":-2.25693413019564e-19,"105":-3.473558859392971e-20,"106":-1.585386305640374e-19,"107":-2.9153829469268887e-19,"108":-1.422698453930903e-19,"109":-3.758558833739541e-20,"110":-2.3063460802357686e-19,"111":-3.900524437397156e-20,"112":-7.940860338871815e-20,"113":-2.686601878589703e-19,"114":-1.6906046226800512e-19,"115":-3.829420422825248e-20,"116":-1.7907747448453934e-19,"117":-3.881207150081788e-20,"118":-1.0104203674008417e-19,"119":-2.199426043603476e-19,"120":-1.1194419506687396e-19,"121":-2.4548513639124498e-20,"122":-1.4961420506919562e-19,"123":-4.9347549509861953e-20,"124":-1.108029809951578e-19,"125":-1.7200721601835533e-19,"126":-1.1621884358491374e-19,"127":-1.5332464715320156e-20,"128":-1.040358126862757e-19,"129":-1.6460367717564646e-20,"130":8.336513758044696e-25,"131":9.733303136108976e-25,"132":1.2952483439794117e-25,"133":1.2344006093623374e-24,"134":2.4705811523532126e-24,"135":-3.5868749219899257e-25,"136":8.562502717974416e-25,"137":2.441676284596834e-24,"138":1.5137279698893684e-26,"139":1.4649693397202711e-24,"140":9.965523159852506e-25,"141":2.974592796667585e-24,"142":1.4494305653120863e-24,"143":2.1681246731512067e-26,"144":-1.5904319242040962e-24,"145":-1.2892137005539918e-24,"146":-1.6987761712077766e-24,"147":-4.638287822902021e-25,"148":-8.385049268545022e-25,"149":-1.747900729419473e-24,"150":-1.3826799764855434e-24,"151":-2.4321296956455814e-24,"152":-1.7871516282348417e-24,"153":-1.2017675042717076e-24,"154":-2.1787104667966756e-24,"155":-7.923926685756779e-25,"156":1.9877955586709884e-25,"157":-3.6825455281930937e-25,"158":4.739551844059062e-25,"159":-1.3618536095494582e-25,"160":4.074949929707269e-24,"161":-6.4284069404228435e-25,"162":1.784497792069394e-24,"163":-2.3476457828885675e-24,"164":-1.5891141072973067e-24,"165":-2.919044460362268e-24,"166":-1.741624106085855e-25,"167":2.5717746738277155e-25,"168":1.035301843615062e-24,"169":3.9309568641246624e-25,"170":1.3090772990496839e-24,"171":-5.640968021051183e-25,"172":-8.533130293708987e-25,"173":-3.255178233904371e-24,"174":-1.552587832120126e-25,"175":3.205009476440573e-25,"176":1.4629076513494797e-26,"177":-1.04589341010518e-25,"178":1.11912079261792e-24,"179":1.4828428376054891e-24,"180":4.847542494427015e-25,"181":2.3184106970284524e-25,"182":9.944666702356533e-25,"183":1.4140028173417506e-24,"184":-1.016743260226105e-24,"185":-8.70303287478605e-25,"186":1.1824656408444584e-24,"187":1.1742184457447042e-24,"188":-1.8527260026861442e-25,"189":-9.335991302831994e-25,"190":-2.586644739420619e-19,"191":-1.1866495588991463e-19,"192":-1.918509463953535e-20,"193":-1.1467806142806452e-19,"194":-9.724196294116721e-20,"195":-2.5804964064504893e-20,"196":-8.665656098354831e-20,"197":-1.2388460334648729e-19,"198":-7.101344394661271e-21,"199":-1.139316821349626e-24,"200":-3.2867113296982927e-24,"201":2.138015390668136e-24,"202":-1.2650447090502485e-24,"203":-3.309777730642246e-25,"204":2.411998763961107e-24,"205":-2.0970615638192407e-19,"206":-1.2372032932122505e-19,"207":-2.8572691729095335e-21,"208":-1.8576697245646248e-19,"209":-1.5394229255540875e-19,"210":-1.602658264469835e-21,"211":-8.291455864645558e-21,"212":-6.202144983834096e-21,"213":-6.131108980827947e-23,"214":-1.1831372899082197e-24,"215":8.233037852222663e-25,"216":5.142333641547255e-25,"217":-1.9424050095734946e-25,"218":-2.9980537414271343e-25,"219":1.7097508531909876e-24,"220":-1.5710865337122029e-19,"221":-1.197289742578129e-19,"222":-1.5129487744920963e-19,"223":-2.0577788961955588e-19,"224":-6.58792622400393e-20,"225":-1.4401871019246942e-19,"226":-1.1767192670817711e-19,"227":-8.567740485638126e-20,"228":-1.5307546781782298e-19,"229":-6.702209274018553e-20,"230":-6.638131243129054e-20,"231":-5.182088990037196e-20,"232":-6.652678547907872e-20,"233":-9.539395757802499e-20,"234":-4.81360504430706e-20,"235":-2.8087670386491634e-20,"236":-3.6502730661064913e-20,"237":-2.793940811912598e-20,"238":-4.1900645336658825e-20,"239":-1.537935268365244e-20,"240":-3.956970603068971e-21,"241":-9.403749051759157e-21,"242":-3.937420864211399e-21,"243":-9.927361189045999e-21,"244":-2.8355675864060646e-21,"245":6.305508778522178e-25,"246":-8.498292600897154e-25,"247":5.133943488845321e-25,"248":-5.311137877799879e-26,"249":-6.676396582220296e-25,"250":-2.2109525373448352e-24,"251":7.032400393161357e-25,"252":-3.7719096233530318e-25,"253":2.8197077800085614e-24,"254":1.2417269144626895e-24,"255":-1.074867442025657e-24,"256":-7.247206172088044e-25,"257":8.932603630138727e-25,"258":7.44169045774121e-25,"259":-4.603328657191331e-26,"260":-1.3947295490803446e-24,"261":-3.4532850553039924e-25,"262":-1.8807403070175196e-25,"263":3.0362327568014025e-24,"264":-7.798680744108373e-25,"265":-4.254755902900128e-24,"266":1.1639950477781675e-25,"267":3.342683360851705e-25,"268":-3.064354680558824e-25,"269":-2.2864443397561754e-25,"270":-8.415077718870651e-26,"271":-1.7311600679433077e-24,"272":-7.006010134905502e-25,"273":-2.190398093407037e-25,"274":1.057684288517306e-24,"275":1.6270235363134021e-24,"276":-3.9951527954496435e-25,"277":1.8379918766272507e-24,"278":3.0503870487475103e-26,"279":1.3305879655656855e-24,"280":4.0837989780028314e-25,"281":-2.1045926088544163e-24,"282":2.6953843460681925e-26,"283":-1.772531613316297e-24,"284":-6.165619268236996e-25,"285":-1.1439090814332407e-24,"286":2.6965690576661635e-25,"287":-7.386265033363515e-25,"288":6.952608513429151e-25,"289":2.2666714106335685e-25,"290":1.4392097286449152e-24,"291":-5.849759712639515e-25,"292":2.8904776013894524e-24,"293":8.003853714037096e-25,"294":2.902307636797627e-25,"295":-1.0330437424378326e-24,"296":-1.0731152344868997e-24,"297":-6.7499417217306955e-25,"298":-1.246478346186554e-25,"299":1.0983984250902228e-24,"300":1.061601638164728e-24,"301":-1.1276795136336261e-24,"302":8.113088600737574e-26,"303":-1.8281247277696404e-24,"304":2.4799815784443546e-24,"305":-1.3279366409544732e-24,"306":2.4348022479930512e-24,"307":5.8787811845085725e-25,"308":5.5358921906780855e-25,"309":2.8885281175993555e-25,"310":-3.2912218420535497e-25,"311":-2.131485412879653e-24,"312":9.173740307128618e-25,"313":2.018864435952716e-24,"314":-2.043858866180248e-24,"315":1.2015394626964964e-24,"316":1.5776069799276874e-24,"317":7.054091058584425e-25,"318":6.894536072391379e-26,"319":2.1119193881547746e-25}},{"sx":1,"sy":1,"depth":320,"w":{"0":-6.805824135760403e-25,"1":-5.171158163695374e-25,"2":-3.788118347562998e-25,"3":4.404706736109981e-26,"4":2.0971142228415077e-24,"5":7.279602971892068e-25,"6":-9.40790372088888e-25,"7":1.9404197210764588e-24,"8":1.0645891996704554e-24,"9":-2.2358903184846e-25,"10":5.132937318729736e-25,"11":2.4776071567800655e-25,"12":-1.8298137684180154e-24,"13":2.851454959852067e-25,"14":5.332302744164999e-25,"15":-1.6638783129608018e-24,"16":-1.0486111815571706e-24,"17":-7.095290789260884e-25,"18":-4.53647358470299e-25,"19":8.544139233899716e-25,"20":-6.516714290699173e-25,"21":9.628371400782156e-25,"22":-2.7380031295278326e-24,"23":1.1283699861883766e-24,"24":-9.920202664736344e-26,"25":-2.2598951320549087e-24,"26":-2.117293988730627e-24,"27":5.4325407267589745e-25,"28":1.6444443152026371e-25,"29":-1.222857664414725e-24,"30":1.0755778424264677e-24,"31":-1.9405119378798995e-25,"32":-9.840224476162998e-25,"33":6.1173023827386216e-27,"34":7.219015114507981e-25,"35":-1.5832365664694587e-24,"36":-8.969473640976504e-25,"37":-2.0839937804013178e-24,"38":-2.2422414169144545e-24,"39":-5.226934530935415e-25,"40":-2.4318793391425554e-24,"41":-1.5882379754323594e-24,"42":-3.04655984380683e-24,"43":7.206534305182234e-25,"44":-1.4332512562114785e-24,"45":-3.063053208846239e-24,"46":-1.5761666967238703e-24,"47":-2.280517942232072e-24,"48":-1.1090458332401336e-24,"49":-5.141396900939682e-25,"50":-4.673890575241218e-25,"51":9.331598116929379e-25,"52":-5.9309823345920475e-25,"53":-2.0147573180479417e-24,"54":-8.030958315118686e-25,"55":-2.689927271602076e-24,"56":-4.186845848869967e-24,"57":6.1118532627289334e-27,"58":-6.079009859837979e-25,"59":-1.5341061259322154e-24,"60":5.426074657098375e-25,"61":-6.8825569401836245e-25,"62":-1.7110700446084103e-24,"63":-1.5836252933655158e-24,"64":-3.311738076318875e-24,"65":-5.420340896615958e-25,"66":-5.05785300551933e-25,"67":-9.534961815281735e-25,"68":7.0794396870390955e-25,"69":-9.006546317958927e-25,"70":-1.8754379875224846e-24,"71":-2.2967258922252826e-24,"72":-5.164191835740149e-25,"73":-2.954015819730562e-24,"74":6.883351260605435e-25,"75":3.9493963553730985e-25,"76":-1.5117143817010239e-24,"77":-2.1074503430944958e-24,"78":-4.780117449449688e-25,"79":-1.0179337265058011e-24,"80":-3.2864958991628287e-24,"81":-9.170149387804422e-26,"82":-6.813461483042987e-26,"83":-3.8306286583614606e-24,"84":-1.750800592321829e-24,"85":3.849933998859083e-26,"86":-3.061733148476751e-24,"87":1.5468618654701515e-24,"88":-1.8499563909553743e-24,"89":-8.149853092163672e-25,"90":-1.810721942810649e-24,"91":3.2101547883533127e-24,"92":-1.9515931984463e-24,"93":1.835040768633916e-25,"94":-6.356273481024697e-26,"95":-1.4491298333773329e-24,"96":1.5891576138921668e-25,"97":-7.560027604367595e-25,"98":3.4104273972968613e-25,"99":-1.3550704565985754e-24,"100":4.771132100856922e-25,"101":-2.5767112492717706e-24,"102":-1.4839551858587897e-24,"103":-1.6554556246733066e-25,"104":3.666851922447174e-25,"105":-5.89293944243719e-25,"106":-1.1999910687984474e-24,"107":-9.170888422632584e-25,"108":-4.5373612459835047e-26,"109":-1.3843185120235202e-24,"110":1.9223152374453596e-25,"111":-1.961365590613245e-24,"112":6.783508258241769e-25,"113":-6.90989796271195e-25,"114":2.531391718199231e-25,"115":-2.161398129890713e-24,"116":1.3984017232353257e-24,"117":-2.0679653028683265e-24,"118":-3.2419115927496956e-25,"119":-5.988995313245427e-25,"120":8.318166510436552e-25,"121":9.175338078148678e-26,"122":-9.961900157905929e-25,"123":8.098797926555452e-26,"124":2.6474474363312102e-24,"125":-1.3446429716734679e-24,"126":-4.475798688150854e-25,"127":1.1084475410355729e-24,"128":-1.9781681759546962e-24,"129":-7.7202693150952635e-25,"130":-4.65834631276642e-25,"131":-7.709837028877712e-25,"132":2.430236468293649e-24,"133":-1.4915067249009209e-24,"134":-2.562332294952625e-25,"135":-1.978036755284877e-24,"136":1.32302131682353e-24,"137":1.4361820274121437e-24,"138":2.612038998132724e-25,"139":-1.062194077716239e-24,"140":5.065031231751989e-25,"141":-1.0320676607947619e-24,"142":4.00963812876757e-25,"143":-1.6128577981672097e-24,"144":-1.3167768414989246e-25,"145":-1.056532730650955e-24,"146":1.6738789418930747e-25,"147":-7.339935390801724e-25,"148":-1.0114517993721204e-24,"149":-7.29593687927641e-25,"150":-4.7621203495330805e-25,"151":-6.550308673987941e-25,"152":1.55102705773864e-24,"153":5.722781413654038e-26,"154":4.633466338082457e-25,"155":-6.370453516123521e-26,"156":-1.215289364967529e-24,"157":-9.863144428449619e-25,"158":-1.827398290618677e-25,"159":3.267380533054504e-25,"160":1.050504119089871e-24,"161":-7.839009357296741e-25,"162":-5.608302021738584e-25,"163":3.6031202094224665e-25,"164":4.3733042333968576e-24,"165":1.702445335539118e-25,"166":-3.9035249597793104e-25,"167":1.2620394144898756e-24,"168":1.5409283956294925e-24,"169":-5.633720340452398e-25,"170":-6.883825469170673e-25,"171":3.3340504356616175e-24,"172":-1.0775460118129006e-25,"173":-1.661151831447185e-25,"174":1.9959853817228022e-24,"175":-7.6589359817327395e-25,"176":2.502082318056704e-24,"177":-4.039900008497381e-25,"178":9.453731246388695e-26,"179":1.434920449582614e-24,"180":1.3988375028519746e-25,"181":5.629796205154098e-25,"182":3.358798481593877e-25,"183":-1.7021757970858063e-24,"184":6.907320483774385e-25,"185":1.931917285421857e-24,"186":2.3010009490975316e-25,"187":-6.242675676497294e-26,"188":1.0163886871642219e-24,"189":-3.655494427297927e-26,"190":-1.50275597060405e-24,"191":-1.941307200892481e-24,"192":7.348035529455011e-25,"193":-2.5349776374102683e-24,"194":-3.3247944425550563e-25,"195":-8.28346037679163e-25,"196":2.0066036622262528e-24,"197":2.9089583545906214e-24,"198":2.3887794362117334e-25,"199":1.6481257447722166e-24,"200":1.9206293369807032e-25,"201":8.10277466456502e-26,"202":7.552738992827341e-25,"203":5.1288253011108235e-25,"204":1.5347623253595384e-24,"205":-1.1716010620854195e-24,"206":-6.907719919306677e-25,"207":5.956415283857208e-25,"208":9.916931029539776e-26,"209":-2.8814238171801117e-24,"210":-4.207878846054696e-25,"211":6.960707557707704e-25,"212":-2.3400542953304347e-25,"213":2.722562045076265e-25,"214":3.0999257668605874e-25,"215":1.0749159399245192e-24,"216":-5.625662444168111e-25,"217":5.103099149202872e-25,"218":-1.7548930180165993e-24,"219":1.0514378392043055e-24,"220":-4.393830711187933e-25,"221":-1.0284666455826156e-24,"222":-5.211793528811105e-26,"223":-1.6390504057067066e-25,"224":-1.1362268312213887e-25,"225":-1.2885801812971503e-24,"226":8.31393553237242e-25,"227":-1.2671334755897518e-24,"228":-1.9592938712412724e-24,"229":2.3975156698188388e-26,"230":1.2411898222845745e-24,"231":-6.986355397272055e-25,"232":1.9529596829463566e-24,"233":-2.941742461655921e-24,"234":-1.4945701798500527e-24,"235":3.6062787364088823e-25,"236":3.454021523226974e-25,"237":1.1236884235298915e-24,"238":-1.710881121699997e-24,"239":-2.2681905382905074e-24,"240":-1.470602105031409e-24,"241":4.797501958053334e-27,"242":1.258384044614676e-24,"243":-2.097268259863126e-24,"244":-7.8593954238435355e-25,"245":3.071825685353925e-25,"246":2.1448869912355988e-24,"247":7.176708974639408e-26,"248":5.836237680002674e-25,"249":1.8449953833116022e-24,"250":6.78734310466945e-25,"251":-6.667966077066869e-25,"252":-1.2219829781654032e-24,"253":-1.0361710643397014e-24,"254":-3.875067851970787e-25,"255":5.066174790491037e-24,"256":3.6842959682202726e-26,"257":6.722845490231999e-25,"258":2.172930775656375e-24,"259":-1.5895499455984712e-24,"260":-2.240106381530015e-25,"261":8.789003602351456e-25,"262":4.173432790268819e-24,"263":-1.68170088880709e-24,"264":-4.367699729079102e-26,"265":-9.941293632185723e-25,"266":-1.066993150813583e-25,"267":-1.1705891465193255e-24,"268":-2.1649259546233187e-24,"269":1.2040493110500016e-24,"270":1.4850349504354378e-24,"271":2.437434152112995e-24,"272":-3.761627169715522e-25,"273":-5.1051520164042725e-25,"274":-1.4411441915211052e-24,"275":-5.20999791695727e-25,"276":1.1584578835768642e-24,"277":4.080607983341782e-25,"278":1.4497241228243511e-24,"279":2.277664295304275e-24,"280":2.4570067422994627e-25,"281":-3.542313748635494e-25,"282":-2.090893337443066e-24,"283":-1.0894975324981493e-24,"284":1.878009257350273e-24,"285":-8.85146502230488e-25,"286":3.6243619024142896e-25,"287":-9.53563320777835e-25,"288":1.1802938527613243e-24,"289":-3.838418028921764e-25,"290":5.966550089357279e-26,"291":7.460554821580273e-25,"292":-9.555285231867441e-25,"293":-5.900621192673243e-26,"294":-1.038438616306929e-24,"295":4.163340113119302e-25,"296":-8.456650045544641e-25,"297":-1.2083254807718343e-24,"298":1.0014505928593552e-25,"299":7.279576474992327e-25,"300":1.4257592447706692e-25,"301":5.420292280234067e-25,"302":1.5491078610486123e-25,"303":-2.3893237600093075e-24,"304":9.586978363701784e-25,"305":9.127541982944223e-25,"306":1.5877894126206094e-24,"307":9.770043162261752e-25,"308":2.7665848744951353e-24,"309":-5.02200623322869e-25,"310":-6.620734649425824e-25,"311":-4.450282619537129e-25,"312":9.335539852559826e-26,"313":8.260846099980705e-26,"314":2.1710893625539137e-24,"315":-5.205819947922401e-25,"316":1.1908895818061059e-25,"317":1.0067749283603721e-25,"318":-9.224018714035523e-25,"319":2.4520565614344568e-24}},{"sx":1,"sy":1,"depth":320,"w":{"0":1.9132408160341027e-25,"1":-3.8906015948091756e-24,"2":1.073076236716152e-24,"3":1.3328508254477104e-24,"4":3.173265976007854e-25,"5":1.1302424354617503e-24,"6":1.966171505777791e-24,"7":-1.1989517725292556e-24,"8":-2.0240407928249457e-24,"9":-4.748360813013868e-25,"10":5.925343843758922e-25,"11":1.3176079190183993e-24,"12":1.4863037578440515e-25,"13":9.912438480080141e-26,"14":2.8362230405818403e-25,"15":-8.561900256439568e-25,"16":-8.203811050088472e-25,"17":-1.7101784023957667e-24,"18":-5.558987734218582e-25,"19":1.9995842107190477e-24,"20":-2.5719048398410257e-24,"21":-6.668818374420823e-25,"22":-1.8489340089335655e-24,"23":-5.843070092066564e-25,"24":5.011519537938785e-25,"25":6.007139377640544e-26,"26":1.679010314155181e-25,"27":9.337968100536046e-27,"28":2.260055757446279e-25,"29":2.8083862407753215e-24,"30":3.848010830055844e-24,"31":-8.484739089349084e-25,"32":-6.3024109795217085e-25,"33":1.194323047567304e-25,"34":2.0432064021189152e-24,"35":-2.049693129472775e-24,"36":-1.3788373955560907e-25,"37":8.31481638604573e-25,"38":-9.307920193941855e-25,"39":1.433432461673571e-26,"40":-3.8148028743354195e-25,"41":-2.2654667033327805e-25,"42":1.829933090277346e-25,"43":1.2909135944996145e-24,"44":1.7495159589282265e-25,"45":-2.257629478382397e-25,"46":-9.192786858752436e-26,"47":5.011225060815612e-25,"48":3.4637419830444034e-25,"49":1.7789817585169254e-24,"50":-4.3455199413108e-25,"51":1.152461427605976e-24,"52":-2.420240459262175e-24,"53":-1.785553680183503e-25,"54":1.2265449288485462e-24,"55":5.795846463735548e-25,"56":-6.835218708783264e-25,"57":9.276790231277822e-25,"58":-4.883219936206749e-25,"59":-3.0495675730496127e-24,"60":-3.411797268762513e-25,"61":9.48495221821991e-25,"62":2.476831201260988e-24,"63":2.479859850464108e-24,"64":1.5276933631860444e-24,"65":-2.0294729934744117e-24,"66":-1.656368507870908e-24,"67":3.0236474487656117e-24,"68":7.906356158583262e-25,"69":-9.056922922524459e-25,"70":-9.788695110926797e-25,"71":-8.166339896899627e-25,"72":4.403727567400093e-25,"73":1.0894595182838475e-24,"74":1.2794613391363618e-24,"75":-1.1399193092818362e-25,"76":1.5900084741490089e-25,"77":-2.7890745431276506e-24,"78":3.1474207124274495e-25,"79":3.2369821407299143e-25,"80":4.388633971821031e-25,"81":2.0932654782115538e-25,"82":-6.436966214946091e-25,"83":-3.3319113521696337e-25,"84":-1.6976450535296516e-24,"85":1.1550875541630421e-24,"86":-4.091150135349412e-24,"87":5.088530159361303e-25,"88":1.8757689436985996e-25,"89":6.637299147792987e-25,"90":-8.127525817526234e-25,"91":-2.667747601848064e-25,"92":-9.163934877714896e-25,"93":9.584348211729816e-25,"94":-1.4028091074464178e-24,"95":-8.068637197257824e-25,"96":-2.728487875137396e-25,"97":-1.2079305324937382e-24,"98":5.9783512462451335e-25,"99":-3.196491774973137e-24,"100":1.1250585152767714e-25,"101":1.2830776376163003e-24,"102":-1.744664015119182e-24,"103":-5.711622059293412e-25,"104":6.14240159165574e-25,"105":-2.9295999029009136e-25,"106":1.555331115046207e-25,"107":1.478295598789337e-24,"108":9.205269854179188e-25,"109":3.1804945992035143e-24,"110":7.214682579629548e-25,"111":1.6382051866622008e-24,"112":5.967752998218412e-25,"113":-9.165025070047834e-25,"114":-1.852220927473451e-24,"115":1.8644023161430435e-24,"116":-1.6842626392073473e-24,"117":4.545749720481517e-24,"118":2.4449489996517798e-24,"119":2.0981852281641396e-24,"120":-1.5889922548627738e-24,"121":1.026290164126854e-24,"122":-4.206917828785208e-25,"123":-4.561908461147826e-26,"124":-6.308593852395343e-26,"125":8.788615017873269e-25,"126":-6.4951267822500005e-25,"127":-1.208971586781642e-24,"128":5.665719064682238e-25,"129":2.3519018929721567e-26,"130":2.0637683781572728e-25,"131":-6.396781253660712e-25,"132":7.635749335526725e-25,"133":7.180586997276091e-25,"134":1.6447737259160542e-24,"135":2.1068257536615132e-24,"136":-1.6344729057303477e-25,"137":-6.635973460337638e-26,"138":-8.1661654202621595e-25,"139":1.7090761842752237e-24,"140":-1.4190976820523607e-24,"141":-2.2815615593562208e-25,"142":1.1746404843596695e-25,"143":-4.374920663043423e-25,"144":-1.0489946066310714e-24,"145":-1.1864716184992678e-24,"146":8.832220288077688e-25,"147":3.2576006568978023e-24,"148":-6.213912055993313e-25,"149":-4.051462681873779e-27,"150":3.0147753432481072e-24,"151":-7.584934245917084e-25,"152":-1.693240838442963e-24,"153":-8.231611280081609e-25,"154":3.4449875744220615e-25,"155":-1.5558667698592507e-24,"156":5.821672444473294e-25,"157":4.695445220269197e-25,"158":-1.0665682407077453e-24,"159":1.0963915053041055e-24,"160":-8.404892010198399e-25,"161":9.18530043896788e-25,"162":5.011735144783959e-25,"163":3.839576627299378e-25,"164":-1.0295463523879635e-24,"165":2.4733634617867142e-24,"166":3.5394078468754426e-25,"167":-1.2386756041334643e-24,"168":4.839381573959032e-25,"169":2.283121107881906e-26,"170":-1.5020473160420526e-24,"171":2.6981530199651596e-25,"172":-2.4438761871795967e-24,"173":-6.929084523839588e-26,"174":-5.489128858840251e-26,"175":7.175396126048034e-25,"176":-1.2872284346130037e-24,"177":1.5133746866883576e-24,"178":-2.3491192313096927e-24,"179":2.040846391834921e-24,"180":-1.2171228574518548e-25,"181":1.0792181589907181e-24,"182":-1.3503451619366039e-24,"183":7.357512296779238e-27,"184":6.985621356760453e-25,"185":2.7927275201292478e-24,"186":-1.752292577542138e-24,"187":-1.1550565835961867e-24,"188":-3.364041632260175e-24,"189":3.0041632356211885e-25,"190":5.0927203687435435e-25,"191":-5.378839170434065e-25,"192":-1.2301771077405454e-24,"193":6.459149678884584e-25,"194":-1.2363853656545302e-24,"195":-2.053752972731137e-24,"196":-2.5235081636927e-25,"197":2.5097849907692505e-24,"198":-6.049268998763635e-25,"199":-1.1954359670226839e-24,"200":-4.368757246366389e-25,"201":-2.3106776046551384e-25,"202":-1.0515884044275763e-24,"203":1.4987791694657752e-24,"204":2.262698266210397e-24,"205":2.8626721017442954e-25,"206":1.026699653103621e-24,"207":1.4305260324844806e-24,"208":-1.1911647242795714e-24,"209":-5.835679835237138e-25,"210":-1.497804311309781e-24,"211":7.068020205323906e-25,"212":7.62182080484633e-26,"213":1.138437419116758e-24,"214":-1.7496537243657186e-24,"215":1.4963618048838824e-25,"216":-1.834310183965162e-24,"217":1.2092217668845705e-25,"218":-1.7067247652694627e-24,"219":-9.870990030846645e-25,"220":3.7758252404628415e-25,"221":-1.1452651288140556e-24,"222":-6.943091676067736e-25,"223":-1.1142958723975354e-24,"224":7.491820050956383e-25,"225":-1.2896126865834687e-24,"226":2.4050591450017143e-25,"227":-1.5532357966576208e-25,"228":1.7134638363436823e-24,"229":-7.81188761230802e-26,"230":-2.809914359733341e-25,"231":-1.9064846425363553e-24,"232":9.134926687451353e-25,"233":-7.3422024681733955e-25,"234":3.3224362715741987e-25,"235":1.7738302622193655e-25,"236":-1.7433749199069185e-24,"237":3.07526486602116e-24,"238":3.478897798987873e-25,"239":7.254007446825751e-25,"240":-4.9524372447540405e-25,"241":-7.673365147937475e-25,"242":2.810147846528414e-25,"243":-5.557043511986153e-25,"244":6.592145322628811e-25,"245":-4.92346015503429e-25,"246":-2.2715479802445885e-24,"247":-9.939611280599604e-26,"248":-1.9839773038701537e-24,"249":-2.657671559567188e-24,"250":-1.741490608540601e-24,"251":2.1288685695964074e-24,"252":1.8247599631079968e-24,"253":-1.4577150714610226e-25,"254":-1.8704273830419356e-25,"255":-1.047485011837547e-24,"256":7.189420359045343e-25,"257":-6.506894582159399e-25,"258":-1.2203287962927295e-24,"259":1.8878514779983448e-24,