{"moveNetwork":{"layers":[{"out_depth":159,"out_sx":1,"out_sy":1,"layer_type":"input"},{"out_depth":26,"out_sx":1,"out_sy":1,"layer_type":"fc","num_inputs":159,"l1_decay_mul":0,"l2_decay_mul":1,"filters":[{"sx":1,"sy":1,"depth":159,"w":{"0":0.07005913722933761,"1":0.02876878761164112,"2":-0.1113276905490189,"3":0.04564613392004579,"4":0.041950935033329605,"5":-0.15474790310929132,"6":0.013197664775107688,"7":0.13524724806412539,"8":0.12167448108139885,"9":-0.12673155806474712,"10":-0.026259355731151107,"11":-0.0790630028330506,"12":-0.002546746464945912,"13":0.015306708583028116,"14":0.0344418099734034,"15":0.10665698311217124,"16":-0.07729071127444626,"17":0.011149920316489955,"18":0.03537010064803702,"19":-0.07070623351915303,"20":0.12078638850414516,"21":0.0561128488467268,"22":0.07236345712931688,"23":-0.012219521744966244,"24":-0.08740218048831495,"25":-0.05228898377472826,"26":-0.022443264731078442,"27":-0.12713164224580742,"28":0.08830873283940786,"29":-0.06047269067347033,"30":0.062278350951628876,"31":0.004218747429621571,"32":0.011063838917369532,"33":0.09459495331128685,"34":-0.002594181371719231,"35":0.11671641366400479,"36":-0.05594432240084521,"37":-0.05593825678456412,"38":-0.08863059935742158,"39":-0.05487514855420286,"40":-0.08479989053942653,"41":-0.005050163642014578,"42":-0.041991072087858655,"43":-0.032072210068234366,"44":-0.02020858387481311,"45":-0.006132295114329119,"46":-0.05047361230131288,"47":0.025589318563554127,"48":0.01659668411612713,"49":-0.0031930594789525172,"50":-0.03464402523978475,"51":-0.04471831809014811,"52":-0.0918234914066959,"53":-0.07142997730968143,"54":0.06015673837422928,"55":-0.11847879249883851,"56":0.04577219419667201,"57":0.11512017957282179,"58":-0.02315754223276126,"59":0.07579387286353531,"60":0.004337858429077378,"61":-0.07690210770802887,"62":0.00794468237057977,"63":0.06923909850895042,"64":0.012170461481312017,"65":-0.04862126067125928,"66":-0.028015072642269857,"67":-0.01228658181925389,"68":0.059253872561464214,"69":0.07753477130492042,"70":0.033894413322994144,"71":-0.008117537920658616,"72":-0.14982275163304146,"73":-0.013378330000429137,"74":-0.029055765923001728,"75":-0.03204181205771642,"76":0.1040282867665141,"77":0.04238267014384247,"78":-0.09827508508073166,"79":0.03174457594910007,"80":0.04079735744245415,"81":-0.07751518519157857,"82":-0.028597356524744762,"83":0.1942287865935391,"84":0.08779104974713754,"85":0.12734561563976576,"86":0.05233881559149015,"87":0.0380221994005155,"88":-0.1772615403058021,"89":-0.050229369397248105,"90":0.1466896784212676,"91":-0.014423688549203591,"92":-0.10379376629055698,"93":-0.01958649651423885,"94":-0.028583449788532264,"95":-0.13049705501089673,"96":-0.01995926388158993,"97":0.10272458152871507,"98":0.1432622496024483,"99":0.0132247114528156,"100":-0.1421021601819084,"101":0.052668922535477246,"102":-0.1512082940905111,"103":0.1773274292852598,"104":-0.0771355105770914,"105":0.18187571586067786,"106":0.03509184415513362,"107":-0.04671868429086585,"108":-0.053659392278289204,"109":-0.06540561622077559,"110":0.008216249562800162,"111":0.10551903606724967,"112":0.12581339815198248,"113":-0.06740960174943042,"114":0.06706330526434548,"115":0.01329223560732066,"116":0.16588377027686188,"117":0.03147014843144575,"118":0.03436734109806947,"119":-0.06444107247429295,"120":0.14499100343128304,"121":-0.09526012571974275,"122":-0.05128260035505131,"123":-0.012114990702621621,"124":-0.11432967084482316,"125":-0.019433955551298704,"126":0.05414656582932907,"127":-0.057248792097768786,"128":0.006409057583338554,"129":0.07868167192835936,"130":-0.06834260130125046,"131":-0.13430769780969193,"132":-0.0748277378156477,"133":-0.08225277273083378,"134":-0.002569976888904989,"135":-0.031267703523932926,"136":-0.025285815828455464,"137":0.05260369486431875,"138":0.025997563325075888,"139":0.03552242955077587,"140":0.017591937443241848,"141":0.01576807443930845,"142":0.051428984484533785,"143":-0.09576075246502785,"144":-0.10779622053140124,"145":-0.05836393087307335,"146":0.05900900039772558,"147":0.021687562651910526,"148":0.10893789227250249,"149":-0.017809067582636423,"150":0.07732981020327866,"151":-0.061454044462333095,"152":0.016983478676458254,"153":-0.15275794349951627,"154":-0.026877894650442907,"155":0.1232771846103551,"156":0.11016322459854952,"157":-0.0754991798438907,"158":-0.12926416404384225}},{"sx":1,"sy":1,"depth":159,"w":{"0":0.13655906689247463,"1":-0.15588158851347578,"2":0.03355853704796841,"3":-0.0637403101405007,"4":-0.03661385744021681,"5":0.09687472843861804,"6":0.0037481655775304192,"7":-0.07175229052085892,"8":0.031595694799523635,"9":-0.013175654886617746,"10":-0.12923548240872024,"11":-0.017460780511510284,"12":0.09478864058792696,"13":-0.03330148055151325,"14":-0.17481725629379055,"15":-0.011836894368800664,"16":-0.008484511619738707,"17":0.0060352943842018995,"18":-0.0655379949041408,"19":-0.057578754434903213,"20":0.03870778486332525,"21":-0.043013168625938306,"22":-0.10872061974511472,"23":0.03146956712404241,"24":0.0400791336767691,"25":0.11911659096845399,"26":-0.09797840468469034,"27":0.06166875671694357,"28":0.014900588945946399,"29":0.026889297825316082,"30":-0.07363652591713933,"31":0.007487407860740996,"32":-0.09949137063414981,"33":0.021083636321878842,"34":-0.03410605866591205,"35":-0.00867431734933179,"36":-0.11470865700902105,"37":0.06300457007821343,"38":-0.05856320165146078,"39":-0.06986550854680015,"40":0.09295813802472397,"41":0.035906708282035675,"42":-0.11662630311034891,"43":0.0990483726313664,"44":0.03093817004590907,"45":0.11414659294774199,"46":-0.04685371062913342,"47":0.08853361749422303,"48":-0.048751726312412445,"49":-0.11027886123427884,"50":0.13547371114595053,"51":-0.08211819222757366,"52":0.018780355531086094,"53":0.17935389156859124,"54":-0.0835899200313227,"55":0.012385981059804974,"56":0.051553463271451855,"57":-0.015220590394678976,"58":0.06417631245777991,"59":0.024232317701368286,"60":0.006452233150014016,"61":-0.08411558689871808,"62":0.12846618463387588,"63":-0.025521494312963404,"64":-0.10819975491026229,"65":-0.031005135731702566,"66":-0.023181995549128087,"67":0.06328318214420955,"68":0.04066308416996509,"69":-0.02318584630502315,"70":-0.05788909704472142,"71":0.05823334472120054,"72":-0.06750625750671817,"73":0.13535979004250784,"74":0.016289855061170356,"75":0.008369052514229171,"76":0.010858762202735043,"77":0.09241653569294932,"78":0.14343793650612216,"79":-0.018219484001137577,"80":0.03456733124240594,"81":0.0538104250169856,"82":-0.017552275612449857,"83":-0.042507302138990566,"84":-0.003969740779383889,"85":0.05749346772405008,"86":-0.11762454433035753,"87":0.00023445911220882983,"88":-0.008521374722828006,"89":0.07160737724481071,"90":0.07329494106932051,"91":-0.0266837410924817,"92":0.005374987343315178,"93":-0.08684854943378408,"94":0.049066604246133315,"95":-0.023462858261855356,"96":0.02522986807797902,"97":0.16547648058453343,"98":0.0348048511050936,"99":-0.023606189871754276,"100":0.041318464796842265,"101":-0.002388075561529004,"102":-0.056328052614307435,"103":0.03854254280044882,"104":-0.18263135509219927,"105":-0.11296169132886456,"106":-0.07469262067394877,"107":-0.028505624521961717,"108":0.06950533031811024,"109":0.05102462859741931,"110":-0.04117228232756987,"111":0.010954153458017746,"112":-0.013467016573908148,"113":0.18396018643608844,"114":0.07623029926536648,"115":-0.10129762742036034,"116":-0.09005295557803386,"117":0.0008291536740612654,"118":-0.01967288972100551,"119":-0.14594553513311384,"120":-0.1011227985616134,"121":-0.07089709286613183,"122":0.08461596916092663,"123":0.013792040529361109,"124":-0.13056934433308726,"125":-0.061178182516306294,"126":0.01973603863369635,"127":-0.11116202275214006,"128":0.009322134879655972,"129":-0.0919042368386485,"130":0.03880231652324318,"131":-0.014131525072177456,"132":-0.03759318459493281,"133":-0.03280448366468867,"134":0.10776635320052402,"135":-0.039643557931430214,"136":-0.060386405918638864,"137":0.05878603411916583,"138":-0.07346951060508265,"139":-0.06629234235724694,"140":-0.04394755981669992,"141":-0.02634907488725418,"142":0.08003727183089783,"143":-0.08876540995316969,"144":-0.08760718064433735,"145":0.11956830673247017,"146":0.01868886547379019,"147":-0.0003055686175160305,"148":-0.08982247648718612,"149":-0.07785594635494696,"150":-0.03949462205548981,"151":-0.07888554416910502,"152":-0.008151429466922846,"153":0.017082633792961627,"154":0.0692501203802643,"155":-0.08085498939708027,"156":0.07533596046511509,"157":-0.01035098783323048,"158":-0.19076724794247749}},{"sx":1,"sy":1,"depth":159,"w":{"0":-0.04765026531309055,"1":-0.10425097565044747,"2":-0.028037190559490464,"3":-0.038403743281462975,"4":0.08063201976742107,"5":-0.0521148153897506,"6":0.09630010521873907,"7":-0.0036867504621349184,"8":0.028898323654860517,"9":-0.11808284011335818,"10":-0.07423606331627974,"11":0.037431028722134226,"12":-0.055803048093020474,"13":-0.054335271581118186,"14":-0.049250601214104954,"15":-0.02773005283957283,"16":0.016632814400370052,"17":-0.06550836954146906,"18":0.07856595649348501,"19":-0.016281903832963445,"20":-0.08132022052544771,"21":-0.07270935242856215,"22":0.034905663953366126,"23":0.011412708574605223,"24":-0.03735853018894099,"25":-0.09595043926012624,"26":-0.031520594783529005,"27":0.03455288552119362,"28":-0.11142142192647855,"29":0.07380859618507474,"30":0.04626107083439229,"31":-0.12355797879155835,"32":-0.07444004627262146,"33":0.09153727042673913,"34":-0.04114916954196579,"35":-0.16265995801642952,"36":-0.13961026830372467,"37":-0.01789959406662601,"38":0.16562097430221617,"39":0.15007384122307416,"40":-0.059835191223034156,"41":-0.011083264333803643,"42":-0.1007874098652751,"43":-0.0015820143612717606,"44":-0.0592381086811601,"45":0.07760944605272041,"46":0.10034270350975505,"47":-0.03883652254767783,"48":-0.10117114306239663,"49":0.079841152917635,"50":0.033765832648026115,"51":0.061819967569475796,"52":-0.028000219095898393,"53":0.05235306188757228,"54":0.05717814104858614,"55":-0.10521143826125304,"56":0.07623310040897131,"57":-0.008077801019478123,"58":0.03565823055584483,"59":-0.1224267948094359,"60":0.08521353443257103,"61":0.03300921860228706,"62":-0.061305678788068335,"63":-0.20881035853823415,"64":0.06443072833521339,"65":0.051627433186990306,"66":0.025447530911540325,"67":-0.02337253737782478,"68":0.019174303083286562,"69":0.043095034030398875,"70":-0.010920341409753702,"71":-0.02072243239765456,"72":0.024279776837405162,"73":0.09930154664941646,"74":-0.19272649762408886,"75":-0.08913429663900449,"76":0.12522248420315962,"77":-0.18393689469219504,"78":-0.09330926850207624,"79":0.03267278714385499,"80":-0.06146374861492292,"81":0.015869716834344325,"82":-0.0019211057343311673,"83":0.01874241933980336,"84":0.19421345331815384,"85":-0.05184310546349456,"86":-0.09031711373427909,"87":0.01782608058936893,"88":0.023899890603327388,"89":-0.028384567305961356,"90":0.20734626642859116,"91":-0.021198150647144615,"92":0.07019786602054824,"93":0.11174973057345856,"94":0.059419587894175493,"95":-0.023536449907931238,"96":-0.18531064834017255,"97":0.02803244276548389,"98":0.10389729576312162,"99":0.055490282160305264,"100":-0.04754630322077711,"101":-0.0656794972565703,"102":0.012257636796154445,"103":-0.08062996865226561,"104":-0.01818599298721241,"105":-0.010581495795726915,"106":0.03415155408481226,"107":0.021288061377041548,"108":0.013432277025673345,"109":-0.14971790127080095,"110":0.11144856352465078,"111":0.056208749352568005,"112":-0.08151190668143095,"113":-0.07249576309393518,"114":-0.06056397937126592,"115":-0.05474506874223489,"116":0.061954897363454255,"117":0.03180294504339822,"118":0.0891034905696473,"119":0.014601445292173007,"120":-0.05442138106118464,"121":0.08955393691070133,"122":-0.08409652587444384,"123":-0.06534449307991978,"124":-0.08248067425613152,"125":-0.015742779759453557,"126":-0.07604219908038769,"127":0.04786692147578344,"128":0.05298415653470764,"129":0.009276147422829421,"130":0.03939981643426551,"131":-0.024687774562176395,"132":0.02460779639989161,"133":-0.10146119468342517,"134":0.05008884606947248,"135":-0.09263189603051641,"136":0.03087904063335868,"137":-0.04919077599027816,"138":0.006219631590758732,"139":0.007813313119957395,"140":0.039146838947395346,"141":0.07012482773474478,"142":0.07367614934488097,"143":0.01991379886803797,"144":0.04757103344402196,"145":0.013809460745811096,"146":0.052725786152170516,"147":0.0031637306228336783,"148":-0.06854585866869954,"149":0.027174318491796537,"150":0.11594742607975284,"151":0.060499472098836646,"152":0.05729864874575427,"153":0.047565659845540204,"154":0.07624238137220295,"155":0.08031669713221276,"156":-0.06406084399868138,"157":-0.0032132183839780905,"158":-0.026631056772586828}},{"sx":1,"sy":1,"depth":159,"w":{"0":0.07332090730378164,"1":0.05322451822156016,"2":0.01701763298025557,"3":-0.16251691288386838,"4":0.059016996316833464,"5":0.09994266338147335,"6":0.14442182033349935,"7":-0.05379143162438963,"8":0.11095221401106885,"9":0.014306432263236983,"10":-0.010871808998349683,"11":0.006132966536710998,"12":0.12831005110193436,"13":0.039455864543397105,"14":-0.06702627323871524,"15":0.03772656387606272,"16":0.0022222009714752645,"17":-0.11520036574598841,"18":0.0009439400061645297,"19":0.16951664348253498,"20":0.06882553340484197,"21":-0.023718774251553124,"22":0.04120053550313382,"23":0.09127011295155363,"24":0.09260608660861856,"25":-0.08939583801946792,"26":-0.01114688403912373,"27":-0.1255082172555476,"28":0.023030852922983396,"29":-0.1551363553650599,"30":0.059350241726199696,"31":0.07648007902172536,"32":-0.00960649158362404,"33":0.014366214795601235,"34":-0.0832399554197374,"35":0.09506863234771969,"36":-0.02766871790772112,"37":-0.1191014181772538,"38":-0.021011680526815228,"39":0.044658096557299576,"40":0.03810532569310634,"41":0.07963973722581597,"42":0.06215035998573725,"43":-0.016825848822862567,"44":0.03432379087005693,"45":0.08353860428219045,"46":0.04137095681845413,"47":0.1116440826536651,"48":0.059379779488889756,"49":0.08515809835319511,"50":-0.06755602221675425,"51":-0.11565566924266228,"52":-0.045335621463858645,"53":0.07610379398725776,"54":-0.014797476054083422,"55":0.24796512267359258,"56":0.040428376075854186,"57":0.038715772842445095,"58":0.045267305461308194,"59":-0.026849984932546207,"60":0.09802359470085821,"61":-0.030431180328024547,"62":0.0167452147709542,"63":0.0370299802101908,"64":-0.018419805816557878,"65":0.09850782558658017,"66":0.05406092072907385,"67":-0.02479107020837588,"68":0.0053277373545583375,"69":0.05512687995867015,"70":-0.1138504697745552,"71":-0.014992605180140785,"72":0.014505496791293364,"73":0.05448212241191384,"74":0.09647705538585769,"75":-0.07593306426976947,"76":0.12569764736255362,"77":0.12102401048193492,"78":0.0717783653395624,"79":-0.014705640786503422,"80":0.11215000632817106,"81":-0.005601479043148642,"82":-0.009880064289888127,"83":-0.044860403919116214,"84":-0.03889033079492958,"85":-0.007167723420266674,"86":0.059735192406480064,"87":0.11413977372532745,"88":-0.041756201776959996,"89":-0.06261317087256146,"90":-0.0326350251491375,"91":-0.023780136242218777,"92":0.059067999139941596,"93":0.008456823618406328,"94":0.019752150080584664,"95":0.12499889549863354,"96":0.11420703560902695,"97":0.015896590325876585,"98":-0.05550427781720291,"99":0.005281668473184482,"100":0.03825805517805008,"101":0.09810959528559028,"102":-0.13635936064873502,"103":0.021009849730803637,"104":-0.023646943666291248,"105":0.0809925816740738,"106":-0.055002952088014666,"107":0.03193564464873144,"108":0.022187948224229738,"109":0.15859472179127904,"110":0.02588323118215544,"111":0.00914443689593985,"112":-0.06461502288496135,"113":0.1115568825370436,"114":0.0359152905984546,"115":-0.09426121373481977,"116":-0.03288470751532911,"117":-0.08971470241793085,"118":-0.12254434586287706,"119":-0.0070347395503997,"120":0.10266536406975069,"121":0.05222775572871249,"122":0.06825386023343823,"123":0.003017866965397055,"124":-0.010686289084469166,"125":-0.004617264392274134,"126":0.006359243791515039,"127":0.11726525510795792,"128":0.094364907549158,"129":-0.011777679177936953,"130":-0.06389866414301294,"131":0.15478507232053074,"132":0.014369212585209084,"133":0.08175375389552136,"134":0.017218464205444765,"135":-0.016867112158542124,"136":-0.0567152760313167,"137":0.061675269624178644,"138":0.15718067514138992,"139":0.08244955014947884,"140":-0.04723651020639894,"141":-0.0016435614644421301,"142":-0.01050445925773701,"143":-0.09022170957348405,"144":0.023222708150561554,"145":-0.016673261253459058,"146":-0.029895217268128337,"147":0.05116934308006053,"148":0.012443749855361978,"149":-0.040037760606444144,"150":0.02659861433748849,"151":0.018463046192280962,"152":0.0013626482518940158,"153":0.050971088284666566,"154":-0.03879660553510269,"155":-0.08219296753006955,"156":0.037519732572082236,"157":0.03924660616091686,"158":-0.07983959657605239}},{"sx":1,"sy":1,"depth":159,"w":{"0":-0.07214901929838873,"1":0.055880902686697626,"2":-0.039662300864985345,"3":0.07851806296652769,"4":-0.03355159339961442,"5":-0.044123295697518425,"6":0.10514474090049068,"7":0.06196141202478133,"8":-0.032469949061304,"9":0.003059959433494976,"10":-0.02862294631031018,"11":-0.04645630296472075,"12":0.14036103813919487,"13":-0.09697829962361716,"14":-0.10215383970091672,"15":0.032680877754438016,"16":-0.017833654847835466,"17":-0.05714056433248462,"18":0.03904734931439486,"19":0.04517489498216699,"20":-0.07505666326195587,"21":-0.06243354179064217,"22":0.05166326818026258,"23":0.07906942810212743,"24":0.10667214784801853,"25":-0.15920580456712782,"26":0.1706356214986439,"27":-0.05398991796478598,"28":-0.0016626784777126736,"29":-0.006300181295596478,"30":0.19622328039991324,"31":-0.05777176155414875,"32":-0.006908003716684269,"33":-0.08017845444393636,"34":0.16943647918801572,"35":-0.011075665113046463,"36":-0.017726660034266612,"37":-0.053318405090820455,"38":-0.1530064418987512,"39":-0.17367141325756388,"40":-0.023723894654485267,"41":-0.0010794704345847385,"42":0.08783902073324512,"43":0.05994714351928768,"44":0.06604449912609123,"45":-0.008059198687916418,"46":-0.03548192009031586,"47":-0.10102089532912514,"48":0.036270148963454645,"49":0.09342586696742138,"50":0.03291071376573825,"51":0.038148645701889174,"52":-0.02444824240486989,"53":-0.02373018248574719,"54":-0.06812286669543728,"55":0.017624804581602198,"56":-0.07892575520777798,"57":0.005151459907588838,"58":-0.068404903963321,"59":0.027370231776226595,"60":0.06486793834992373,"61":0.0764925682974581,"62":-0.033873895714253796,"63":-0.0056100051570030195,"64":0.017466475877315268,"65":0.04785444855124254,"66":-0.07963989135768615,"67":-0.04454841154854014,"68":-0.0109246425967332,"69":-0.027611174407439848,"70":0.08185891705182685,"71":-0.03155206521521249,"72":-0.0533983118361729,"73":-0.009528035007800997,"74":0.07743158431870578,"75":-0.01044480734055782,"76":0.005119405461952043,"77":0.034875799560676,"78":-0.016574970906939174,"79":-0.03285943013394196,"80":-0.17554863942259172,"81":-0.05687963207265885,"82":0.10365900531611463,"83":0.040289149321577226,"84":-0.05842896245898089,"85":0.09386050333078873,"86":0.04033737192197217,"87":-0.0542783692074967,"88":-0.036870050870510776,"89":-0.1671798315540215,"90":-0.1072310209894111,"91":0.03115912318659148,"92":-0.08076204139263089,"93":0.08903574643621781,"94":-0.03485985172499076,"95":0.10650356927861761,"96":-0.1477850908127833,"97":0.017677195546154247,"98":0.010536713571416853,"99":0.184605495091659,"100":-0.05591562134368092,"101":-0.089975858006475,"102":0.11109722833174807,"103":-0.07590385631468878,"104":0.1335513433977078,"105":0.10085032709629235,"106":0.03512055715973257,"107":-0.026256394413253312,"108":-0.028392201075279278,"109":0.058818669654644794,"110":-0.004143824328863253,"111":0.13811792764839115,"112":0.07035328196279252,"113":0.039847744760370576,"114":0.07899517947477175,"115":0.2142019041183648,"116":0.07859644627192339,"117":0.04706949548179564,"118":0.012176492292458652,"119":-0.05710706337115631,"120":0.10444960584935963,"121":0.049875676096333574,"122":-0.02752149385684069,"123":-0.07349324322995797,"124":0.0019025210207084444,"125":0.046478165717076914,"126":0.13162425859871654,"127":0.031553220717744815,"128":0.0027380619531741117,"129":0.13060063984841125,"130":0.01453826657610751,"131":0.06996961074174013,"132":0.05937432350494372,"133":0.11572323710637575,"134":-0.001326062182647226,"135":-0.023872087740488955,"136":0.029150433284290116,"137":0.09184233866395991,"138":0.07723966434245316,"139":0.08771606573005201,"140":-0.03081657119588382,"141":0.05787700109045864,"142":-0.03804778640967051,"143":0.049552105606865855,"144":-0.027906788185163536,"145":-0.00278343813842465,"146":-0.13236501679428897,"147":-0.0010474197403388802,"148":0.019312451172163972,"149":-0.013295252619783707,"150":0.1202412480647445,"151":-0.026320806055606837,"152":-0.032339187979738775,"153":0.02951902560687591,"154":-0.027774883336179217,"155":0.04591674793675591,"156":0.1399263342723847,"157":-0.019774490763441267,"158":-0.06024144751913604}},{"sx":1,"sy":1,"depth":159,"w":{"0":-0.043702165352444866,"1":-0.08830250737352979,"2":0.21039165927976453,"3":-0.004465146345373495,"4":0.0323861543983303,"5":-0.21737757947724548,"6":-0.037857680527893546,"7":0.03243344643268038,"8":-0.025720912792347554,"9":0.12386062645619862,"10":0.16630016478439663,"11":0.0948143916203939,"12":0.08624465681716878,"13":0.020747977778255787,"14":-0.03588842742873843,"15":0.007102071702835325,"16":-0.014861924509749116,"17":-0.01773553450255758,"18":0.02686640352379303,"19":-0.10928061944849496,"20":-0.00517580631320427,"21":0.04475352565212409,"22":-0.00003675391181470193,"23":-0.05567591550809137,"24":-0.0664506742616411,"25":0.04742107077523621,"26":0.11854783081270587,"27":0.03277187110400671,"28":0.009802805513696371,"29":-0.04068342645298486,"30":0.10086666385557941,"31":0.04305575608881642,"32":0.10354315777968112,"33":-0.04210170739951753,"34":0.05790289897059167,"35":0.09262768279389445,"36":-0.061145948574940594,"37":0.03625706793450814,"38":-0.00041414516482206023,"39":0.06432074344241391,"40":0.054314966086010094,"41":0.06355465479800197,"42":-0.005844589483391195,"43":0.04882078971193127,"44":-0.04572274774662986,"45":-0.00796973431376906,"46":0.11701946981327647,"47":-0.03103632859785044,"48":-0.08002512204017109,"49":0.12991739896857035,"50":-0.05702691516860398,"51":0.006887747776274797,"52":0.08730084775285596,"53":0.11730434974138491,"54":0.012045446119017266,"55":0.041940865603677234,"56":-0.0573283188418642,"57":0.06825686546857909,"58":-0.14492921599903305,"59":0.15989296507050657,"60":0.08287635711689048,"61":0.0429428811826815,"62":-0.031813795986334874,"63":0.1976544616983672,"64":0.026959246874637563,"65":-0.05957931891226022,"66":-0.03383630767029649,"67":-0.13266797512696185,"68":-0.0682504566709733,"69":0.0609918188562079,"70":-0.04562666098877671,"71":0.05187402316100634,"72":-0.033730514013586,"73":0.0024885662497040346,"74":0.04413783533324169,"75":0.017942392026957323,"76":-0.0038103796883311217,"77":-0.06186116070733937,"78":-0.06217783445942364,"79":-0.02126002976701668,"80":-0.05352320199065536,"81":0.04092167706419562,"82":-0.043168976831150806,"83":-0.0910034512557444,"84":-0.08532204178305823,"85":-0.010771074056331641,"86":0.012191156288548303,"87":-0.08462120357262837,"88":-0.09889831040580283,"89":-0.010482662237451328,"90":0.045876149544534735,"91":0.030074296709451685,"92":0.021064746131880172,"93":0.0694244132338519,"94":0.0337977888568741,"95":0.14395090560698598,"96":0.04480808812838012,"97":0.014590219045282623,"98":0.017829128020530733,"99":-0.0212970704760182,"100":-0.16353957926294277,"101":0.11465553565112611,"102":0.010893839566635803,"103":0.1963669474313368,"104":0.020479732243896806,"105":-0.061759322643791754,"106":-0.01483851990253573,"107":0.10493125143912099,"108":0.03164529358389945,"109":-0.033397603707811,"110":-0.05387086557090762,"111":-0.0608166211549605,"112":-0.07805578111768852,"113":0.09865115492667505,"114":-0.09321736684881698,"115":0.06375989470221106,"116":-0.005719355503421272,"117":0.0710854766884878,"118":-0.04561257130853302,"119":-0.07559315601234728,"120":0.035053934441470196,"121":-0.05259586149110144,"122":-0.0067818595220126635,"123":0.046837002078540184,"124":-0.0037403818236787824,"125":0.04053430428066145,"126":-0.05371878979986126,"127":0.05747222767440176,"128":-0.1216895023143689,"129":-0.011645717153154897,"130":-0.04492523354522904,"131":-0.07184575490638041,"132":0.04778398772340832,"133":-0.043226212288511326,"134":0.062327527252936284,"135":0.07989346209271599,"136":0.05198713901795643,"137":0.0747047226958986,"138":0.12367339224886127,"139":0.07312950087022893,"140":0.1840546280042241,"141":0.016960970508936583,"142":0.11120355254440484,"143":-0.06617713579964492,"144":-0.040718858472547845,"145":0.07773937883884577,"146":0.09489258257596984,"147":0.052023263255771945,"148":0.06452323896845216,"149":-0.060606115505186305,"150":0.0582957287173087,"151":-0.04663974132713876,"152":0.08254772692206679,"153":0.022395878486518733,"154":0.05344389507071723,"155":-0.06554822135587161,"156":0.2445678397827876,"157":0.029364155781064306,"158":0.11983980494542652}},{"sx":1,"sy":1,"depth":159,"w":{"0":0.000002578093903773282,"1":0.008910699632270369,"2":0.03226878877936097,"3":0.024735110482412104,"4":0.1350716836327323,"5":-0.12529973452176493,"6":-0.023806372399122037,"7":-0.09370314957629414,"8":0.03314770871265279,"9":0.04090905886627915,"10":0.019854206717223263,"11":0.016953165694704654,"12":0.027306042223197942,"13":-0.003226578832761817,"14":0.016767831810034918,"15":-0.06826562942547866,"16":0.06453888797666067,"17":-0.025504474703651425,"18":0.046153126589727506,"19":-0.07073515558506292,"20":-0.03893514110393964,"21":0.03486953488053522,"22":0.12634222215372842,"23":0.052937572709768434,"24":-0.04870861225298023,"25":-0.04637224452443753,"26":-0.052812286198759634,"27":0.10052298599112514,"28":-0.044459201420434157,"29":-0.09301062630928744,"30":-0.12184772819896858,"31":-0.013255262926402023,"32":0.08343593803480989,"33":-0.12608839378871542,"34":0.024735349401109386,"35":-0.07376762360732901,"36":0.05287292435246185,"37":0.06259559497521007,"38":-0.05409336181637931,"39":0.0873837017915381,"40":-0.09037935553390954,"41":-0.08721685590709771,"42":0.08745528549946134,"43":0.023098452685923945,"44":-0.008483049627983658,"45":-0.013295089000482587,"46":-0.10874600362302587,"47":0.0311432047036434,"48":0.04299675163395866,"49":-0.08170055895533408,"50":-0.05617819667407104,"51":-0.03222577302754441,"52":0.061828446127066124,"53":0.15495782220555226,"54":-0.03396402802988172,"55":-0.030796282509044037,"56":-0.07445502256061558,"57":0.06262883788550694,"58":0.03980855457949343,"59":0.05436268047512588,"60":0.06314321462424452,"61":-0.07010172183364487,"62":-0.012833992832883544,"63":0.021212401228305245,"64":0.04103479047149982,"65":0.06433182442709534,"66":-0.08818793037907768,"67":0.01869419727347851,"68":-0.08344174107811599,"69":0.08404458303867782,"70":-0.07289485750814068,"71":0.07075676017119714,"72":0.012531198111960282,"73":-0.18600032630810262,"74":0.03939628385675982,"75":-0.04272183846630401,"76":-0.020923831842885342,"77":0.07080875152151828,"78":-0.03353303899469237,"79":-0.08045366578897052,"80":0.06812324238437051,"81":0.038771978435679276,"82":-0.0026861516312377755,"83":0.05826776285037793,"84":-0.1420694768880352,"85":0.10620486592209685,"86":-0.05264301775809287,"87":0.005865435816718588,"88":-0.09137872465761773,"89":-0.006507856515002905,"90":0.04926558195500874,"91":0.08021066736735254,"92":0.051909459550342076,"93":-0.006817636956987103,"94":-0.15311196596834573,"95":0.16916246924530853,"96":0.07050763982580179,"97":0.056554658054630086,"98":0.002470338991367857,"99":0.0854716423455047,"100":-0.027311626020906525,"101":0.02480592980053159,"102":-0.040036033938573405,"103":0.015442614147315601,"104":-0.0666576551619238,"105":0.19561714865636434,"106":0.004894904188991874,"107":0.10140025829366678,"108":0.0535440376945948,"109":-0.16679502586531256,"110":0.015895013409094185,"111":0.07162260900852711,"112":-0.06485868651487378,"113":0.09948248047944139,"114":0.04353223886779475,"115":-0.007072119985663059,"116":0.032937486272260036,"117":0.13457674551397222,"118":-0.11108408083586521,"119":-0.18938701201125707,"120":-0.10754136568775982,"121":-0.0063397894293840094,"122":0.004670858661539863,"123":0.022934715131006825,"124":0.011005122168440507,"125":-0.05966184082730092,"126":-0.04443566756083384,"127":0.021824156585685657,"128":0.10126155734347238,"129":0.17309900440340703,"130":-0.10093387960250264,"131":-0.009009646364385063,"132":0.044162766823592506,"133":-0.057279556857509614,"134":0.003566430876633665,"135":-0.0431849967319475,"136":0.09384420993371217,"137":0.1178404566763212,"138":0.12799143856508152,"139":-0.0587220194107171,"140":0.02045356206481876,"141":0.04292720380887316,"142":-0.060538318074937814,"143":-0.004448900222585819,"144":-0.02870900877474988,"145":0.056806812088966395,"146":0.015469556435328578,"147":0.1496805748111579,"148":-0.026309984957750936,"149":-0.12416920466575572,"150":0.1323067117819542,"151":0.10215986918855696,"152":0.011852353202226981,"153":-0.11743339281104506,"154":0.015949656424299623,"155":0.028411262488560074,"156":0.013921491069908273,"157":0.06610245945745649,"158":0.04282135576446084}},{"sx":1,"sy":1,"depth":159,"w":{"0":0.16679266257033634,"1":0.10008786962410024,"2":-0.003239916229650775,"3":0.011966425371505315,"4":0.03033853568057995,"5":0.08968580278530788,"6":0.09088058511317226,"7":-0.06942754507040272,"8":0.04768831013424045,"9":-0.03972178306005722,"10":-0.07931412815042481,"11":-0.00907593759481826,"12":0.02161627284547755,"13":-0.023730051571334128,"14":-0.05613546192356115,"15":-0.041882259078182486,"16":-0.005566649053463592,"17":0.04862319039264647,"18":-0.1416477801931897,"19":-0.04478932486891748,"20":-0.11584004899923844,"21":-0.07162128416012188,"22":-0.02074736443102666,"23":-0.029768723067831133,"24":0.12561125672462412,"25":-0.050408226246327355,"26":0.052933554873876555,"27":-0.03563570546177987,"28":0.008173275339644088,"29":0.09428806878919392,"30":0.0338287988607915,"31":0.03999887368427014,"32":0.021143265302940084,"33":-0.09935857236397033,"34":-0.20477763109528405,"35":-0.05870797525580236,"36":-0.11189738789966115,"37":0.059229077337951054,"38":0.10869817390439797,"39":-0.004372540487621337,"40":-0.051791686469212346,"41":-0.017055768071424126,"42":0.08937756450943263,"43":-0.12030028709754988,"44":-0.11106942696822758,"45":-0.01005135316398843,"46":0.0788947245905404,"47":-0.09479522366268991,"48":0.09319864228523403,"49":-0.09916244532426348,"50":-0.020008643337318128,"51":0.09410303209307187,"52":0.0001601824776489153,"53":0.010042782533177317,"54":-0.0328212437715086,"55":0.06956403303001588,"56":0.11818914003853057,"57":0.04244912543565532,"58":-0.08389150731603204,"59":-0.09443286759709425,"60":0.06114717188354537,"61":0.15623158797927347,"62":-0.04908381291967495,"63":-0.015577661850810205,"64":0.006612563505694695,"65":-0.08556728271520041,"66":-0.00855159360035955,"67":0.018922231351483125,"68":0.029036143703930303,"69":0.04306200045140732,"70":0.0012715500741019813,"71":0.03731200111869099,"72":0.12539773213418362,"73":-0.08419451439586188,"74":-0.033916405827587266,"75":0.07492383738612099,"76":0.13466958575047475,"77":0.14703695210685808,"78":-0.05276777949072963,"79":0.03982748297433115,"80":0.11215936406985598,"81":-0.06291970348991834,"82":0.04439793240675611,"83":0.08329036073361709,"84":-0.080978084281296,"85":-0.060477490367891025,"86":0.09439975201025898,"87":-0.01720455759095732,"88":0.042575018661307557,"89":-0.014272346323819431,"90":-0.04360326077854907,"91":0.07674597533483545,"92":0.110651966859842,"93":0.004456164764628936,"94":0.017328408848263487,"95":-0.065891747605523,"96":0.06951625595964529,"97":-0.01953301948054677,"98":-0.1167187115178826,"99":-0.03256286763721992,"100":0.007531195840998842,"101":-0.06911847238100595,"102":0.0029614041844834124,"103":0.06387716496587031,"104":-0.11287371339268278,"105":-0.06937065883632637,"106":0.14348876785242615,"107":0.12807337315133993,"108":-0.06603787696651431,"109":0.07204541356930687,"110":-0.1552334106972263,"111":-0.1525746097367915,"112":0.07608251044355135,"113":0.02760166168390165,"114":-0.03033303179707283,"115":0.1210283770628495,"116":-0.003962609765062415,"117":0.013848794410512526,"118":0.09980204054061476,"119":-0.10190866688473976,"120":0.1027375125457349,"121":-0.046781137081112326,"122":0.03849656738226114,"123":-0.02043584480743036,"124":0.13026820518668517,"125":0.16311067334953197,"126":0.07761466389067959,"127":0.02708728941646887,"128":-0.07402692529199739,"129":0.20757934907702016,"130":-0.023156183708059226,"131":-0.037611973375935394,"132":-0.0480509593446638,"133":-0.21802716028034955,"134":0.0011876026383228773,"135":0.046312170555385807,"136":0.15771923881816552,"137":-0.14686230342902873,"138":-0.023786522974988518,"139":0.015172542088677304,"140":0.029269600740897406,"141":-0.030859538396983764,"142":0.058370991452996186,"143":0.07338920836863472,"144":-0.015663501044538963,"145":0.09894670035530562,"146":-0.0965705413856879,"147":-0.084085259957012,"148":-0.09535142136094227,"149":0.03748511670733229,"150":-0.02624879154710516,"151":-0.10059391559473246,"152":0.09156288835078984,"153":0.008956546549908809,"154":-0.02006627768817297,"155":-0.1479253272245495,"156":-0.022562033099387476,"157":-0.07164137544694618,"158":-0.05560637131153017}},{"sx":1,"sy":1,"depth":159,"w":{"0":-0.09061201277238369,"1":0.0231165428298077,"2":0.0018402631381463606,"3":0.03614681211188065,"4":-0.040422285718676156,"5":0.04059255933003529,"6":0.005857324538963839,"7":-0.055275472998196476,"8":-0.21396048193913497,"9":-0.07087962823319337,"10":0.05681961744169562,"11":-0.05041709019619216,"12":0.03940182687100251,"13":0.12727907511294628,"14":0.035938911981495576,"15":-0.06319282219109552,"16":0.04689751605566635,"17":-0.02026656938746979,"18":-0.07073661468480627,"19":-0.019723907191542208,"20":-0.017360258426161075,"21":-0.019452331231824178,"22":-0.05463482630424153,"23":-0.0015843473579619603,"24":-0.04728344046662868,"25":0.05218236773817429,"26":-0.03718883427431207,"27":0.052787174833404,"28":0.04829379319145977,"29":-0.03709443278691423,"30":-0.13173334116668514,"31":0.03477821040757086,"32":-0.010404854628925122,"33":0.09870003576726315,"34":-0.06287217143458983,"35":-0.051186302510736706,"36":0.023328499330700834,"37":-0.09839822476127588,"38":-0.015860316338716898,"39":0.056558956246295845,"40":-0.014213926933476536,"41":-0.05564810724665026,"42":0.016086041963363946,"43":-0.03956551712812498,"44":-0.10924609939916942,"45":-0.12403090355441068,"46":0.04016249965398495,"47":-0.05413248138677525,"48":-0.07495817732751923,"49":-0.05975342759779095,"50":0.0006580706645641788,"51":-0.028797497756281366,"52":-0.16230092546862077,"53":0.006854428246639413,"54":-0.04665957563553796,"55":0.13334166568247086,"56":0.06815999608127757,"57":0.1466345831482324,"58":-0.09485049652813415,"59":-0.08761557605057058,"60":0.014233460205014124,"61":-0.0015436596009901263,"62":-0.004423004833725765,"63":-0.12795379915967464,"64":0.04073365281883452,"65":-0.10289149322157133,"66":0.13083807453344032,"67":-0.11899659935851424,"68":0.055335336131770614,"69":0.06402268876961872,"70":-0.060482700858315835,"71":-0.021227791943433206,"72":-0.002169206820864326,"73":0.03671834687411467,"74":0.002613445170020472,"75":-0.020184573467298204,"76":0.07471435593446059,"77":0.04534239378375882,"78":-0.12722058380544332,"79":0.00959948462473869,"80":0.026048983614770656,"81":0.03765131320110551,"82":0.013518388749095436,"83":0.030038312426652662,"84":-0.05741917328750996,"85":0.01907756384756695,"86":0.029849376295530045,"87":-0.19868180022685278,"88":-0.06501018179153212,"89":0.17488371059090718,"90":-0.09438526728140902,"91":0.05468985884115881,"92":0.07153020781841032,"93":0.026627985393330226,"94":0.06555578567810008,"95":0.09140229065465454,"96":-0.14798516975131676,"97":0.13749993016076947,"98":-0.034411424850859386,"99":0.01900805437024094,"100":-0.01166629971738646,"101":0.017182438704021617,"102":-0.06675723079255588,"103":-0.08356498513090628,"104":0.09269584136409342,"105":-0.09190944959137526,"106":0.005766198180928017,"107":0.04236868926462596,"108":0.008196416318715576,"109":-0.08584201901137661,"110":0.0713482251825219,"111":0.022781293386119582,"112":-0.031216255829931677,"113":-0.05969275622721176,"114":0.0022733573920044325,"115":0.07302951927792016,"116":-0.1063000188387974,"117":-0.09445752404279734,"118":-0.07889694488590623,"119":0.13841322104700263,"120":-0.02886540284299409,"121":-0.0050474379053290375,"122":0.051052766941416396,"123":-0.03237834048610808,"124":-0.03007156327854591,"125":0.13027641311861932,"126":-0.0922858181364543,"127":-0.0454763474953993,"128":0.005804077717297479,"129":-0.03669877544133811,"130":-0.013788621617759024,"131":-0.030353963853255478,"132":0.1634826736353052,"133":-0.0680230516751414,"134":0.08302376838226205,"135":0.007015955311360204,"136":0.11435422710822682,"137":0.05329925277298582,"138":0.05736074824189636,"139":-0.03462750964781413,"140":0.14363536889627712,"141":0.0013339772091507417,"142":0.042965471050483796,"143":-0.07067831861784257,"144":-0.14107087924627917,"145":0.06428471693574561,"146":0.09868494506412848,"147":-0.05952827920926303,"148":-0.04636833138109962,"149":-0.07745166237658635,"150":0.04185461899263046,"151":-0.06497980120129125,"152":-0.015742037752585425,"153":-0.07961343425520981,"154":0.05881699435013978,"155":0.012679165226607185,"156":0.04788468625388841,"157":0.039245703428445786,"158":0.010725356518792417}},{"sx":1,"sy":1,"depth":159,"w":{"0":0.07251028472364102,"1":-0.13964273119587853,"2":-0.004862352634496642,"3":-0.0727311827393601,"4":-0.05382404717217786,"5":0.060794872878915364,"6":0.026437696625251913,"7":0.027633910739038616,"8":0.010748253159071307,"9":0.08839767802182603,"10":0.21653692340792763,"11":-0.09058591529643994,"12":-0.016511482005874656,"13":-0.14309359847562123,"14":0.04064538251756269,"15":0.020802340798080143,"16":0.04776485995610828,"17":0.02507380885996691,"18":-0.021404048779005053,"19":0.0016076727262136995,"20":-0.08531711736322524,"21":0.1519927704410456,"22":0.040846477100395434,"23":-0.004078697943225024,"24":0.029477763929564103,"25":0.07740562622804942,"26":-0.02377434418978653,"27":-0.12087726890929049,"28":0.12309688374785929,"29":-0.11077605545323133,"30":-0.035799014389897806,"31":0.07804786124679684,"32":-0.045828319679235466,"33":-0.033753314198132274,"34":-0.027378254969532414,"35":0.14850873888952854,"36":0.026522507801272365,"37":0.06470266010198597,"38":0.05578939533860592,"39":-0.05805608585758208,"40":0.04699751849630308,"41":0.07331438000266755,"42":-0.04233665827274854,"43":-0.042763273731968816,"44":-0.0549502066671709,"45":0.10692726969811818,"46":-0.07723268814992554,"47":0.069996545387198,"48":-0.07593275064768135,"49":-0.012265262111492823,"50":0.08868515160174878,"51":0.03727496331701814,"52":-0.006944750733579264,"53":-0.007835518229802755,"54":-0.03370854616321545,"55":0.028471945692603903,"56":-0.001408064187424041,"57":0.016747566764585838,"58":0.12779634754210273,"59":0.0510958459041832,"60":-0.007242871940055078,"61":-0.05624245233729528,"62":-0.061917002307027943,"63":-0.04312506531194931,"64":0.04556520250783441,"65":-0.020385554752317056,"66":0.05088196721091839,"67":-0.07819284433014509,"68":-0.19490815876388268,"69":-0.10135393206045065,"70":-0.014451090135972395,"71":-0.03755415087610654,"72":0.09114840415702863,"73":0.02640935264109311,"74":-0.029516577389406815,"75":0.058081336225425224,"76":-0.042697414005018655,"77":-0.011254066297240182,"78":-0.007279883685551401,"79":0.10684556011635128,"80":-0.022268173091553132,"81":-0.12058058026063609,"82":0.014163644363561117,"83":0.0055535033666920175,"84":-0.12011834852852273,"85":-0.0917909195089933,"86":-0.1586988610159468,"87":-0.013662876199622559,"88":-0.0711436377054867,"89":-0.0896880545270857,"90":-0.013116109709270223,"91":-0.012110107442002796,"92":-0.062024634803345406,"93":-0.008524940463964946,"94":0.07773682284779884,"95":0.01829920358652717,"96":-0.10519420457451122,"97":0.14869717986044811,"98":0.048982516313967765,"99":0.020359322415200554,"100":0.07873655557885981,"101":-0.02583655333147685,"102":-0.02636456137848238,"103":0.11743782442097273,"104":-0.06288929825548858,"105":-0.03213121887347349,"106":0.10711348911050664,"107":-0.05912280596892926,"108":-0.010605128262413168,"109":-0.06112178897660913,"110":0.13889269648478783,"111":-0.0682569731757853,"112":-0.08106977528947107,"113":0.03520330269839106,"114":0.08466875826526445,"115":0.15859080039923162,"116":-0.09356897770801012,"117":0.04045760237492313,"118":-0.03785381049338776,"119":-0.09318035186417475,"120":0.06554288268595211,"121":-0.059347680390016894,"122":0.00025066367516159334,"123":-0.027890349707303527,"124":0.008209316583279998,"125":0.08021350685038159,"126":0.0022083126479501857,"127":-0.027316280936951348,"128":-0.03185898296132347,"129":0.09756073056275398,"130":0.016540463952864497,"131":-0.02536914694481631,"132":0.14385080215733836,"133":-0.0847907462713312,"134":-0.03272016063028976,"135":0.01614246908510298,"136":0.028789118642788852,"137":-0.06419323542737053,"138":0.15762348887548855,"139":0.0205683487875896,"140":0.08435331403227607,"141":-0.01155382344750774,"142":-0.01662464539841476,"143":-0.023917611771332767,"144":0.10981742295623677,"145":-0.03233717097873545,"146":-0.14465575655561969,"147":0.08789165682470364,"148":0.11003816513796641,"149":-0.02390283324471904,"150":0.047833983247811934,"151":0.08990727858538855,"152":-0.14355314273714398,"153":-0.03254142212957752,"154":-0.029264672725670935,"155":0.14428577951141844,"156":-0.07489912616307666,"157":-0.08628773380805352,"158":0.06917317965515712}},{"sx":1,"sy":1,"depth":159,"w":{"0":0.052533514733660046,"1":0.05512614200436548,"2":0.12875953077950628,"3":-0.05952991977332819,"4":-0.052711014139434124,"5":-0.028429975643701706,"6":-0.10459352348823447,"7":-0.07272613385662104,"8":-0.04808063294557615,"9":-0.033588532825146046,"10":-0.1363882375878463,"11":0.012445943087885561,"12":0.09260790875356444,"13":0.06738051767646631,"14":0.10622607815971939,"15":-0.010991263147771395,"16":-0.03319199899037434,"17":-0.08338249494510885,"18":0.1954398309478232,"19":0.08966667042374483,"20":0.0009025091228946384,"21":0.05676385418111555,"22":0.05193128651317638,"23":-0.04438890200532674,"24":-0.05967586786654614,"25":0.04468886270851573,"26":-0.00021044980666206877,"27":-0.02143422942304647,"28":0.004377317679042278,"29":0.04809163428737238,"30":-0.02605134291948377,"31":0.04663895937739011,"32":-0.048116420185859814,"33":-0.09876075337705678,"34":-0.05020453744472017,"35":-0.0002632735041599194,"36":-0.022418332042480508,"37":-0.003478801100213916,"38":0.02635828434151206,"39":0.09188046849507846,"40":-0.07984960784501774,"41":-0.0012034500845198137,"42":0.047551558197829004,"43":-0.03617136045892668,"44":-0.13489153541552343,"45":0.09305475387326587,"46":-0.026606040127228874,"47":-0.08453683436626355,"48":0.020219614725603716,"49":-0.012698817093179847,"50":0.02173366283378859,"51":0.08207652912457084,"52":0.061687634944651015,"53":-0.0632395859958736,"54":-0.2131919166806018,"55":0.08222264873009255,"56":-0.2090945344533035,"57":0.1189944816066462,"58":-0.07039971770027652,"59":-0.03132797224744861,"60":0.039237140548760555,"61":-0.0979535673418326,"62":-0.029363043675623784,"63":-0.10003131030636102,"64":0.06992327933376202,"65":-0.021341081859647337,"66":0.06893456930822742,"67":-0.07793938773517081,"68":0.09905052589493643,"69":-0.07643894275013781,"70":-0.0445981378533538,"71":-0.049275473002285686,"72":0.07849977846091154,"73":0.09895936223900009,"74":0.025097052015065343,"75":-0.08487015467988687,"76":-0.034442036795730234,"77":-0.005763329986779876,"78":-0.19325057150898048,"79":0.03072924057487929,"80":-0.025514260902637427,"81":-0.051958491042602195,"82":0.021983771452705053,"83":0.031149649114200876,"84":-0.04429458770263364,"85":-0.07337635176827996,"86":-0.002581223637245916,"87":-0.03998651622428398,"88":-0.07063380133001071,"89":-0.07593000184218465,"90":-0.05758726309384908,"91":0.01536593163048609,"92":-0.022199534439182916,"93":0.02673687717846679,"94":0.027024301774865242,"95":-0.01628338002709351,"96":0.10644586464119679,"97":0.014927598130354531,"98":-0.10877594006021662,"99":0.03677210360457351,"100":-0.05547733071213054,"101":-0.02382148455604067,"102":-0.11882993699748684,"103":-0.1264397640045162,"104":-0.003201852004282379,"105":0.03153778122610137,"106":0.01436059488742235,"107":-0.10425188873498008,"108":0.031193183959595527,"109":0.08155058072028168,"110":-0.08548082569243085,"111":0.0691355116535555,"112":-0.02532741958819653,"113":-0.06549098113793679,"114":0.03631451616911022,"115":0.0724167356430603,"116":-0.02783756702298154,"117":0.15166059577337235,"118":-0.05320143577367245,"119":-0.006361441079787441,"120":-0.11957215402250469,"121":-0.0846287742277794,"122":-0.023577471342270173,"123":-0.024604376125578392,"124":0.03888246065957626,"125":0.04073704031302906,"126":0.00488831479642474,"127":0.04557068127018415,"128":-0.07111743427446786,"129":0.006646063653491356,"130":-0.0012825098611674126,"131":-0.008264675900313692,"132":0.06623540378835138,"133":0.0027670818088367122,"134":-0.08281516894568786,"135":0.07734431093113671,"136":-0.11545763471979383,"137":-0.05505727491214101,"138":0.10074677161365796,"139":-0.025219863046830677,"140":-0.024745696034043932,"141":0.011258549268564942,"142":-0.0329178456144209,"143":-0.0028044929412686793,"144":0.041407014910327326,"145":-0.06433064613115462,"146":0.02970320286204783,"147":0.07630705334089725,"148":0.030663842391751735,"149":0.09276670618557331,"150":0.04173288687940067,"151":0.008976942487090588,"152":0.10160941951334103,"153":-0.0954713539196718,"154":0.0973630675618922,"155":0.02851619255989961,"156":-0.06874166553466059,"157":0.07070016619456665,"158":0.032855321315590005}},{"sx":1,"sy":1,"depth":159,"w":{"0":-0.06778253178063261,"1":0.03647980923144463,"2":-0.13021957869472653,"3":-0.01728339300930972,"4":0.046274803909371165,"5":-0.023695324832187774,"6":-0.01893291735474791,"7":0.06187016582283074,"8":0.1943970240966826,"9":0.08025763502427864,"10":0.035634654943778175,"11":0.02007432600193293,"12":-0.010704250470161712,"13":-0.07117593085211531,"14":0.13660088258185224,"15":-0.07674803643598224,"16":-0.028184678651792788,"17":-0.06640442881868272,"18":-0.11509960734494518,"19":0.041039467081435146,"20":-0.03539259000308005,"21":-0.09016074752929623,"22":-0.09813397192362379,"23":0.019799863558944964,"24":0.047649096958297325,"25":-0.125838519049452,"26":-0.15809072464300045,"27":0.003640432804280893,"28":-0.105085037350408,"29":0.011888732289858673,"30":0.10729373340965194,"31":-0.04611279550998871,"32":0.021957496680343053,"33":0.1660833389631239,"34":-0.022169658129695815,"35":-0.11955974352475615,"36":-0.006722736295669112,"37":-0.02069699462558701,"38":0.029621057427876605,"39":-0.04305510465861044,"40":-0.006315362126521204,"41":-0.09236938047808932,"42":0.029080554725985565,"43":0.20174740917316533,"44":-0.019799050876518443,"45":0.0640762082398664,"46":0.11199003422995644,"47":0.026637610329271276,"48":0.04952299168077495,"49":0.0499842355991324,"50":0.08499724182855153,"51":0.003692260010899594,"52":-0.02810111535662854,"53":-0.015032994854331124,"54":0.1266420811521682,"55":0.011981145605424879,"56":-0.020217332468491594,"57":0.04210440806927003,"58":-0.06392766990843657,"59":-0.050786994357634146,"60":-0.016590317436570922,"61":0.04442608166742722,"62":0.13508479286485867,"63":-0.036797399349137255,"64":-0.018641638292239398,"65":0.12940727376037736,"66":0.06815949343518417,"67":0.04611408637650514,"68":-0.025725773469059663,"69":0.059174109407891834,"70":-0.08775939807230906,"71":0.11791558269366045,"72":0.02028628728559369,"73":-0.0577368615576791,"74":-0.014586157902759004,"75":0.05387315349131412,"76":-0.036575950463599606,"77":-0.10146423707475657,"78":0.0696298304700418,"79":-0.026047230150777704,"80":-0.03197664819703637,"81":0.0027457324870771,"82":0.10196192119847934,"83":0.08018042550217078,"84":0.12018370437515091,"85":0.029344620980068313,"86":0.1194322643737034,"87":0.021028751953531075,"88":-0.10926858520395999,"89":-0.12105107585757084,"90":-0.06272752121013127,"91":-0.024062433471384908,"92":0.004659556113564319,"93":0.053897895847642485,"94":-0.013202490027596108,"95":0.09207227912203736,"96":0.07831719294251412,"97":-0.08158101713988516,"98":0.09669451277284025,"99":-0.07910890648557573,"100":0.01842232128218871,"101":-0.1840884112255112,"102":0.015925391536047242,"103":-0.08633383709770338,"104":-0.03710040021129753,"105":0.02324013140726088,"106":-0.004343424858634243,"107":-0.10738291700128538,"108":0.13256458046294983,"109":-0.038589619966424626,"110":0.1430216368296794,"111":-0.057252223150532,"112":0.02340582920303059,"113":0.06566249144676475,"114":0.07006832481235485,"115":0.014171432559221143,"116":0.06404751735625677,"117":0.03185412418693921,"118":-0.07035990665054846,"119":-0.10736651996215499,"120":-0.07876701462692126,"121":0.06038667279923737,"122":0.05709049931698932,"123":-0.011251418433528311,"124":-0.07238090746071003,"125":0.050176377855956265,"126":-0.03748666987669146,"127":0.06234244369201703,"128":-0.07484099462112138,"129":-0.13371530834233947,"130":-0.023153713745393562,"131":-0.046659511733712876,"132":0.07420759986869484,"133":-0.029017572425344588,"134":-0.010024192547178195,"135":-0.026053966685865636,"136":0.13960928292132313,"137":0.05857957486466044,"138":-0.1276178085089609,"139":0.02592695362144448,"140":0.01904503374211214,"141":0.08275436647494132,"142":0.054199129103084984,"143":0.016366364173041624,"144":-0.08639456506322826,"145":-0.04446029871834006,"146":0.11077406110948497,"147":0.014778105906553821,"148":-0.25500174171013545,"149":-0.045947841353978315,"150":-0.023579879023066585,"151":0.08267300523179706,"152":-0.07753795893878758,"153":-0.024443587338254864,"154":0.016007721778190005,"155":0.04793320592602579,"156":0.01846312601524609,"157":-0.013422053020297506,"158":0.02420111859104258}},{"sx":1,"sy":1,"depth":159,"w":{"0":-0.007912357285136687,"1":0.014364847176262031,"2":-0.12830688689726757,"3":-0.14856396842592512,"4":-0.027785981067297204,"5":-0.043480122370693666,"6":0.006385295230472397,"7":-0.05269007763474243,"8":-0.08175275730228668,"9":0.1336741148251941,"10":0.004681025555046823,"11":0.03374576808713137,"12":-0.07217736657005497,"13":0.08565973044804401,"14":0.0927948493767917,"15":-0.0470619133698105,"16":-0.1599464069850116,"17":-0.14054592551623202,"18":-0.06150616456986835,"19":0.20840474140181744,"20":0.18476353593360692,"21":0.11422395768481913,"22":0.02534029180911955,"23":0.030360754484383662,"24":-0.14348113127437082,"25":-0.07484171467444145,"26":-0.0676181236817692,"27":0.029887761811327,"28":-0.043497262071887255,"29":-0.00933776231526926,"30":-0.0051591706696491645,"31":-0.053129109310321526,"32":-0.10830664151518894,"33":-0.05943282999532273,"34":-0.1158714675220281,"35":-0.10747090809448727,"36":0.04537451727581505,"37":0.046617989418549416,"38":-0.04456533594239617,"39":-0.05523442653300829,"40":0.01681920709043793,"41":0.058170354205714744,"42":0.000032969370476304205,"43":0.0838866880107218,"44":0.026724370187084425,"45":-0.03584450430412235,"46":-0.04680999593448387,"47":-0.04995812588438709,"48":-0.04870746545472999,"49":0.024648602645285445,"50":0.0918673507155884,"51":0.03865770064475387,"52":-0.09059933351045649,"53":-0.07805558411270128,"54":-0.004819147195266703,"55":-0.09148007097544071,"56":-0.03056315814921217,"57":0.03950560669014617,"58":-0.11357166098743827,"59":-0.11460311384868492,"60":-0.042420585384895695,"61":0.00006831249974386321,"62":0.027644437709495432,"63":-0.10726201333839927,"64":-0.052639461485048555,"65":-0.14659311345088108,"66":-0.08977422543641668,"67":0.17204226249761934,"68":-0.032494066773893125,"69":0.02837280150306496,"70":0.0010453288177486187,"71":-0.18120904111994876,"72":0.10325468847173341,"73":-0.1553277152151878,"74":-0.05604940721219839,"75":0.07334895473937214,"76":-0.10668598406056341,"77":-0.12124202859805404,"78":-0.11794623212507888,"79":-0.10724089388097947,"80":-0.015491003032795077,"81":-0.058935053053160574,"82":-0.11071720469612009,"83":0.051073039187239135,"84":-0.07711315228671538,"85":-0.16691682345350822,"86":0.05370818023815142,"87":-0.04688235629544168,"88":0.027635357452928416,"89":-0.045031165829497795,"90":-0.022703197815477073,"91":-0.015745454899529825,"92":0.014412585631987922,"93":0.13764186392415556,"94":-0.005383037095592436,"95":0.08373571566665432,"96":-0.06879300630643957,"97":0.1019143960858526,"98":-0.08049382868715459,"99":-0.04742991880099296,"100":-0.08167926618224407,"101":-0.13767869961027035,"102":0.0010119036365103238,"103":-0.01471098038081027,"104":0.03279049317859841,"105":0.03877730128231213,"106":0.006556035065595553,"107":0.09165503224087845,"108":-0.016121246333287643,"109":0.0277164304720206,"110":0.0254879572935791,"111":-0.04892038602161445,"112":-0.05700602251833444,"113":-0.031385678011848196,"114":0.126560052195452,"115":0.1447085558985903,"116":0.009730715929262973,"117":-0.014246597560614046,"118":-0.09281298672824055,"119":-0.04000319872442793,"120":-0.08460755306760548,"121":-0.07825954900261785,"122":0.05432232877604149,"123":0.05395735386593141,"124":-0.02325970277035167,"125":0.06897205924200915,"126":-0.0811125657095018,"127":0.035306325365460654,"128":-0.09365801087937133,"129":0.054115085512170216,"130":0.0892894539246733,"131":0.04857617309179822,"132":-0.15426564060031267,"133":0.0020367921357806506,"134":0.03954802723392597,"135":0.04700538369220899,"136":-0.124639981473136,"137":0.14553818704981583,"138":-0.014136653471188367,"139":-0.048753805185033736,"140":0.13295166741518857,"141":-0.013554824997195517,"142":-0.0777262357774975,"143":0.012681968465082205,"144":0.18754546138961475,"145":-0.01610705865401598,"146":0.1349812394322755,"147":-0.07947557531642334,"148":0.13145844505650517,"149":-0.04327543669302541,"150":-0.019759417828596405,"151":0.1202914009645886,"152":0.15236383804516568,"153":0.004441476889748039,"154":-0.026840713015548263,"155":-0.04216604157954943,"156":-0.009156124537735847,"157":-0.007842410067395113,"158":-0.04305372628755034}},{"sx":1,"sy":1,"depth":159,"w":{"0":-0.05146702580731629,"1":0.029452966003163703,"2":0.11372977795704033,"3":-0.23109381052759795,"4":0.021745142956575994,"5":0.18300473814993218,"6":0.04776217958257824,"7":0.045972735617064504,"8":-0.12238113822270473,"9":-0.10316958075420354,"10":0.16205008016991276,"11":0.0882041584979101,"12":-0.11005408660883567,"13":-0.004987797469342888,"14":0.022419952688341904,"15":0.02623742575740482,"16":-0.02688088898680993,"17":0.07062765228317772,"18":0.0077698522382501824,"19":0.0859501214441974,"20":-0.04955336909783364,"21":-0.07548812832623966,"22":0.02903466630607386,"23":-0.12797861913774053,"24":-0.08090479005338935,"25":-0.07935478865752008,"26":0.053591237774047555,"27":-0.07316273127309025,"28":0.06682195998195159,"29":-0.015446445118132635,"30":0.010437745839230848,"31":-0.043316632932430724,"32":0.0012654810177220531,"33":0.055913577066943804,"34":0.03918385827967159,"35":0.007150570942667513,"36":0.10035235727346473,"37":0.04880420315640961,"38":0.06621107894560278,"39":-0.13290004242774553,"40":0.09162821187800521,"41":-0.08630431946108032,"42":-0.05326400493337744,"43":0.04394831029022175,"44":0.001957410872568175,"45":0.002246018286414329,"46":-0.011971619315670316,"47":0.01622183421206886,"48":0.10585692013842486,"49":0.12602909892697567,"50":0.027942543287004823,"51":-0.13130210512168342,"52":0.0414238976367785,"53":0.050029736286469756,"54":-0.07524267923869728,"55":0.09766764581944495,"56":-0.13033272405270985,"57":0.06223429808865354,"58":-0.0706727255117914,"59":-0.06829436666862906,"60":-0.08319656217677135,"61":-0.05255083047407769,"62":0.013877603521601903,"63":0.037116212904442974,"64":-0.04390738752056607,"65":-0.05662132707026654,"66":-0.03425253562214141,"67":-0.036263184269620996,"68":-0.04577841729754979,"69":0.05961798220734972,"70":-0.053153633462257384,"71":-0.0813614469772055,"72":0.17505654678436988,"73":0.0019164600777428847,"74":0.021074316444782127,"75":-0.14520606380687096,"76":0.16153822647662672,"77":-0.05743457782013961,"78":0.11536246718203746,"79":0.09387565410221074,"80":0.06700094214076402,"81":0.07630009672744667,"82":-0.0802242850070096,"83":0.06031996615933079,"84":0.08674790120265254,"85":-0.051231978813405694,"86":0.021988854987140094,"87":0.0051052274570644604,"88":0.05916690166563088,"89":-0.0621003315058447,"90":0.08441161509038464,"91":0.025395102724375215,"92":0.02239611920835125,"93":0.015883592974087576,"94":-0.14246000935397016,"95":-0.013643585735166101,"96":0.06406252556520135,"97":-0.040810066377592075,"98":-0.03293803778473522,"99":0.03639695603339526,"100":-0.03475386283122441,"101":0.1520874122231175,"102":0.09936655858602775,"103":-0.12173748917988762,"104":0.003102295461846816,"105":0.04050225309935526,"106":0.10774866880104807,"107":0.03692319430638264,"108":0.0754204811451972,"109":0.040604774392791504,"110":-0.03190918990337465,"111":-0.04989256260952116,"112":-0.13726565115744407,"113":0.033749897413363955,"114":-0.022179477164145863,"115":0.0308899626615521,"116":0.11941998760200698,"117":0.11872094108488807,"118":-0.02217896276750001,"119":0.18828534349754322,"120":0.08035266635275534,"121":0.09714075331978769,"122":-0.0488960176208122,"123":0.06959686921308396,"124":0.0015096878213182033,"125":-0.0755177780678556,"126":0.03148974679783011,"127":0.01583556001847202,"128":-0.04303983361915233,"129":0.14803017171944582,"130":0.09425577846622281,"131":0.0648204636616997,"132":-0.06991792543074218,"133":-0.008189706052830292,"134":-0.10615868439583856,"135":0.006326744019436298,"136":0.11817102471147752,"137":0.042889528079226524,"138":0.03202717365265334,"139":-0.05907753834341546,"140":0.05062403404223167,"141":-0.027458310098480366,"142":0.0051010960728371645,"143":-0.006027918522440831,"144":0.07117403952906688,"145":-0.005685729207439125,"146":0.025380926011455397,"147":0.023900269987069775,"148":-0.020553264127777898,"149":-0.023079845177538208,"150":-0.053395473329010686,"151":-0.04147361237282854,"152":-0.005888733697193144,"153":0.07931024978416801,"154":0.06882186566309344,"155":0.07661209949415884,"156":0.042915846341102334,"157":0.10255523261179471,"158":-0.03821732645353952}},{"sx":1,"sy":1,"depth":159,"w":{"0":-0.06288290668614904,"1":-0.13354263772980757,"2":0.04486557337129343,"3":-0.05900039092935728,"4":0.04053279634919309,"5":0.037356934573203625,"6":0.08226116032707005,"7":0.030020098928711193,"8":-0.057522275591827925,"9":0.04182526073136043,"10":0.030064802097025146,"11":0.012966556713595048,"12":0.08183210300105148,"13":0.04865666308612129,"14":0.006672799097326731,"15":0.005696406097120526,"16":0.07795066594203791,"17":-0.0537018211987755,"18":-0.11772505178944938,"19":-0.14637191633837693,"20":0.01639271992877418,"21":0.09561866226404443,"22":-0.128493468635673,"23":0.014394809775502709,"24":-0.03325710680145556,"25":0.05183571601214304,"26":0.006658315696374666,"27":-0.1337656744328007,"28":-0.11033319609287025,"29":0.13335325968211315,"30":0.002293314464369347,"31":-0.006301463044203331,"32":-0.11463388871577301,"33":0.01595392931942845,"34":-0.009742720784704657,"35":-0.09178925351122491,"36":0.05566147594939041,"37":-0.06524150958986803,"38":-0.09895813789663999,"39":0.009503006053115421,"40":-0.09183788950730873,"41":-0.0030994515687437665,"42":-0.04214159510703542,"43":0.02922918018169731,"44":-0.013337519090216536,"45":0.022046728144071537,"46":0.06763101142249016,"47":0.016967485017169524,"48":0.05450642330291116,"49":0.0532710519917991,"50":-0.025384625036441823,"51":0.036673810520267455,"52":-0.028046424490866015,"53":-0.05845499373506314,"54":-0.054676391784147765,"55":-0.012828482486836153,"56":-0.0033796842568769667,"57":0.01289005391591782,"58":-0.06958857399334979,"59":-0.06730207053650954,"60":0.017106067031141637,"61":-0.1572684464075192,"62":0.0498490297863972,"63":-0.0966185108472901,"64":0.07019571805861573,"65":-0.10022660461333933,"66":-0.10009299593989708,"67":0.05941562653293035,"68":-0.04868571126373818,"69":-0.06990930306877312,"70":-0.14391429267381348,"71":0.0876322635582218,"72":-0.028282008463389758,"73":-0.16771789825914704,"74":-0.07606486051258406,"75":0.07747884881739425,"76":0.023847609386086523,"77":-0.05246808968150769,"78":-0.07836499855016653,"79":0.040984334017373135,"80":0.030317315640464745,"81":0.040058156329431334,"82":0.19644588416929284,"83":-0.14762789146783098,"84":0.010641924573360089,"85":0.07858089828241929,"86":-0.09558000257548925,"87":-0.019902190416227705,"88":-0.04600834086468372,"89":-0.048789927597861424,"90":-0.1111079874401425,"91":-0.0938831116742825,"92":0.014673471509132955,"93":-0.06470907892207609,"94":-0.030920895111426965,"95":-0.022127198128607972,"96":0.11012864215695918,"97":0.15401119596763113,"98":0.02588230282059353,"99":-0.010957742941744843,"100":-0.15224750758214337,"101":0.1253277077314781,"102":0.12402636045096922,"103":0.0016112655028382556,"104":0.10088489990936567,"105":0.11382079196414406,"106":-0.04747362165822112,"107":0.08690500582647465,"108":-0.04464717381772521,"109":0.11400475208020269,"110":-0.15986141693869946,"111":0.023631127575424668,"112":0.04802545252601823,"113":0.07518480894744871,"114":0.023664860037806778,"115":-0.010712338559117353,"116":0.09081364383175955,"117":0.03432993204979156,"118":-0.07684722510743626,"119":0.0018022930735309755,"120":-0.015004433194424745,"121":-0.1485460896901152,"122":-0.04969808789190149,"123":-0.06596604281070483,"124":-0.08159360333413179,"125":0.0825552536322517,"126":-0.03258121850124009,"127":-0.06361417498330867,"128":-0.031240327779006365,"129":0.12246542926294583,"130":0.105570915921778,"131":0.006964962170137293,"132":0.04852793940209106,"133":0.08220261237256217,"134":-0.17873602201513014,"135":0.014897350940488104,"136":0.031236702448448166,"137":0.01866448457220664,"138":0.07381308824984749,"139":0.038819811164817725,"140":-0.06327514531877312,"141":-0.08750326365514122,"142":0.1282121520474437,"143":-0.05887398463896066,"144":-0.0014445765583398125,"145":-0.036721206918373585,"146":-0.0036398282847648323,"147":-0.054243494618933796,"148":0.06702070077829864,"149":0.07331579733594347,"150":-0.011523108361539835,"151":0.07943695534205743,"152":0.08695619179194548,"153":0.022681591779566513,"154":0.08199840239176677,"155":-0.01357371369511046,"156":-0.03757548513052142,"157":0.011318232557940879,"158":-0.18894049081469108}},{"sx":1,"sy":1,"depth":159,"w":{"0":0.08865009735426764,"1":-0.05066500990641965,"2":-0.04219723593311276,"3":-0.008263637381614598,"4":-0.019801349144740514,"5":-0.0933333190487239,"6":-0.014320416811174467,"7":0.03635432465387982,"8":-0.043172330565560565,"9":-0.11733130796276954,"10":0.03635448369956415,"11":-0.041173985557237995,"12":-0.0175022303831035,"13":-0.019909919437113614,"14":0.0034367088000481307,"15":0.022666217246968465,"16":-0.014217427216970169,"17":-0.07662501685039103,"18":0.0694669884043703,"19":0.1355057592785458,"20":-0.06036897006971211,"21":-0.07867220596209064,"22":0.01433472772010378,"23":-0.047797327743295044,"24":-0.00007426462119102075,"25":-0.035165694870726114,"26":0.007260081262945692,"27":-0.0863576527462564,"28":0.02540844143342592,"29":-0.0816002511820592,"30":-0.028713333796147076,"31":0.019628595866095357,"32":-0.011967598180000838,"33":-0.19279829669753615,"34":0.1474232929132093,"35":-0.027938120818936946,"36":-0.02688468646156632,"37":0.05781240349141399,"38":-0.04663796311003709,"39":0.000372532617104284,"40":0.029674198843899095,"41":-0.021115119635887795,"42":-0.08779074614608538,"43":-0.10297569977316187,"44":0.01807932890132863,"45":0.09886637242098106,"46":0.005940565014394997,"47":-0.009585909937478113,"48":-0.09629246063185197,"49":0.021726281527660266,"50":0.06077154480419743,"51":-0.007620321273318317,"52":-0.004956405382880621,"53":-0.07690958066333484,"54":0.017320869965724715,"55":-0.12136612479943928,"56":0.15464934849783654,"57":0.036584259128538826,"58":-0.03247343246881331,"59":0.07986175094434952,"60":0.09132754524005442,"61":-0.08017535068133588,"62":-0.004431865358936392,"63":-0.052998200051589714,"64":-0.08805313775446039,"65":-0.11715375126583488,"66":-0.11214798901665171,"67":0.11340993014863095,"68":0.07066461166334169,"69":-0.023358889373236675,"70":0.20167234823243235,"71":-0.07927204334728492,"72":-0.09181911550894246,"73":0.021096770268010153,"74":0.10326622675593163,"75":-0.0882097518659381,"76":-0.14588743820756894,"77":-0.04246421645088125,"78":0.09745700398678066,"79":0.00811296735547811,"80":-0.07685481854834117,"81":0.1280661433785933,"82":0.06939508907808206,"83":-0.07268808374651492,"84":0.007970192970485068,"85":-0.025109555548801198,"86":-0.035312768228376486,"87":0.10042528986021128,"88":0.020135122435004656,"89":-0.11657567558059546,"90":0.017810310312416946,"91":0.08650325759279567,"92":-0.022541069982765238,"93":0.03644042633019118,"94":-0.03073094420511693,"95":0.023960867429211306,"96":-0.05255321027392208,"97":-0.012158277575380532,"98":0.057408190566622615,"99":-0.023490561924829678,"100":-0.06792986261558442,"101":-0.10759948824439543,"102":0.04163340987841466,"103":0.0014197409456136716,"104":0.044139466592119286,"105":-0.16554992303183452,"106":0.13020001248741037,"107":0.0025442799307838575,"108":-0.021103772365662264,"109":0.04865196457670464,"110":-0.03853605202200668,"111":0.03208109864046888,"112":0.1293025065262243,"113":-0.02038482441329735,"114":0.04141904517680824,"115":-0.017438166452447657,"116":0.11261963689615839,"117":0.06910490323986754,"118":0.00022736615982355096,"119":0.03383239986028116,"120":0.06582192878141041,"121":0.21025638043167608,"122":-0.05674008224879701,"123":-0.048479632746196544,"124":-0.09118801404419805,"125":-0.0636482480808484,"126":0.09361237122036142,"127":0.19932268354778543,"128":0.11091043292509907,"129":0.09175975321219348,"130":0.1517146549338071,"131":-0.09777256268047951,"132":0.060795894353253235,"133":0.06567376247216833,"134":-0.005429522746051518,"135":0.11283451558934998,"136":-0.07723213776904457,"137":0.07464179143967105,"138":-0.04329848480417632,"139":-0.11761732409791957,"140":0.038903570117286845,"141":0.040201712704552604,"142":-0.058845243923492094,"143":0.08102313569279664,"144":0.054890990752322254,"145":0.024922490689519468,"146":0.013007517506654393,"147":0.005958837713202677,"148":-0.008046413282484205,"149":0.06483882579216742,"150":-0.0347729106029411,"151":-0.0976636805716759,"152":0.1040840687855529,"153":-0.12538156526897903,"154":-0.02567978444382178,"155":-0.015589529399726578,"156":-0.0974230121271349,"157":0.09528993475726837,"158":-0.050057261225612326}},{"sx":1,"sy":1,"depth":159,"w":{"0":-0.01565964283207679,"1":0.0817577543395571,"2":0.015975959730785253,"3":0.06042155268349219,"4":0.007129486183612412,"5":0.023256998905704228,"6":0.053738610820474986,"7":-0.053270233198162355,"8":-0.09628805779843504,"9":-0.05126454376371203,"10":-0.011968459262778465,"11":-0.043797372871379595,"12":0.16168291696218848,"13":-0.06983404619898631,"14":-0.03248196634182717,"15":-0.037284474462117134,"16":0.023934980953597768,"17":0.15921209544443038,"18":0.0741556403097244,"19":0.010359069472559733,"20":0.14445524364970094,"21":0.11084627382669145,"22":0.11135553999673653,"23":0.026930371132768013,"24":-0.030139814525984375,"25":-0.02036473815050173,"26":0.04025468864072383,"27":0.01466759159569437,"28":-0.030742407033416828,"29":0.13986435038326037,"30":0.08386624151400152,"31":-0.015436845568850239,"32":0.0038020556825732596,"33":-0.06351883401982496,"34":-0.03836946490170944,"35":0.029102956785030637,"36":-0.015763510108610563,"37":0.008964898874805997,"38":-0.08771801728254593,"39":0.024934889120976706,"40":0.1567713294572374,"41":0.050366112994900944,"42":0.005430048377602808,"43":0.0002124741626776925,"44":0.15468789222935367,"45":-0.09940892363752801,"46":0.06373516655427391,"47":0.05983407103083691,"48":0.08038984827962393,"49":-0.015797304262436813,"50":0.01923291518557891,"51":0.08432490847859518,"52":-0.18838817475816494,"53":-0.023519880285728982,"54":-0.11958802221047427,"55":-0.07798523089845295,"56":0.057812652523053086,"57":0.03223636786816283,"58":0.12357035231519418,"59":-0.09125619576549299,"60":-0.0644063718798195,"61":-0.01926562716573071,"62":-0.00031062704364528753,"63":0.06271655126771415,"64":0.051308960575649334,"65":0.01591598920092484,"66":-0.0419106694178987,"67":0.03226970013312312,"68":-0.002648993033683166,"69":0.060733921000150994,"70":-0.014429268672351128,"71":-0.03657913271095174,"72":0.014568083871911991,"73":0.0286435091428384,"74":0.09883880988114298,"75":0.054637250447050215,"76":0.07374388656307204,"77":-0.017516170549110015,"78":-0.01626043457662395,"79":0.020469388800750235,"80":-0.012315600093840327,"81":0.16280156291180012,"82":0.039015477738100324,"83":-0.029377539519018944,"84":0.02682936161716272,"85":0.011807785170253961,"86":-0.14421166271516628,"87":-0.12958813826101742,"88":-0.0460990233933706,"89":0.06414192366136641,"90":-0.057060733397233776,"91":-0.05610430379136843,"92":0.02699826835976755,"93":0.05280213567836553,"94":-0.11124761158425792,"95":-0.07879742822730768,"96":-0.059011464333089354,"97":-0.046451261340971696,"98":0.1797130117877782,"99":0.031141252990151705,"100":-0.17575356437886067,"101":-0.005293235503172815,"102":0.01742032463268609,"103":-0.037510305305002906,"104":-0.10223256462399925,"105":-0.0994182568540454,"106":-0.016158201832609104,"107":0.02397500110963731,"108":0.06982622056981998,"109":-0.06598357591627657,"110":-0.041457924990369585,"111":0.0410999253128742,"112":0.08056304239248968,"113":-0.015947745932277067,"114":-0.014116245101253526,"115":0.07208170686965716,"116":0.15360838837777502,"117":-0.1081123515650182,"118":0.07801581565366007,"119":-0.0381661439692558,"120":-0.010663793322113964,"121":0.023304153362759778,"122":0.13146099500854,"123":-0.0385793365961304,"124":-0.08906748144584933,"125":-0.08249103263665604,"126":-0.04890704028101508,"127":0.029394629409772065,"128":0.13941615219910636,"129":0.03841706852465924,"130":-0.02706423465688033,"131":-0.11731873234841972,"132":-0.054960170484549854,"133":-0.057277116951242706,"134":-0.0017677934966623165,"135":0.016525523141109045,"136":-0.04250853414231956,"137":0.0010844754583358336,"138":-0.062076739089348826,"139":0.02187557105296203,"140":-0.06099497774828278,"141":0.03814230751683197,"142":-0.1777697873470985,"143":0.03662074237416988,"144":0.08314537111862505,"145":0.09882424260189429,"146":0.00035875933418461,"147":-0.1408982600876248,"148":0.08471872806046041,"149":-0.028016215574672543,"150":0.12355178025264735,"151":0.06706640476823897,"152":0.08201241768528851,"153":0.06417278641303549,"154":0.03580718300040994,"155":-0.08633948704970998,"156":0.1647382372487457,"157":-0.17658701628643053,"158":0.03369728522247146}},{"sx":1,"sy":1,"depth":159,"w":{"0":0.05516449862307484,"1":0.018126758009052436,"2":-0.06708602844364088,"3":0.10671720314926143,"4":-0.006897412194256198,"5":-0.00412970280757823,"6":0.0732907334921789,"7":-0.03543769958437084,"8":-0.03498702156919308,"9":-0.06179333234411316,"10":0.041734018969338954,"11":-0.023196904273478137,"12":-0.09869237184084895,"13":0.13567312424533287,"14":0.12116168119526428,"15":0.05271051436534801,"16":-0.03415101942240135,"17":-0.073351089996788,"18":-0.10407184059024882,"19":0.031638909056552075,"20":0.010531551940235799,"21":0.008760413268072167,"22":0.02722073124318197,"23":-0.06086050025685123,"24":0.08512049336474854,"25":-0.03997923470883981,"26":0.047289737040112356,"27":-0.03584903870543126,"28":0.09856294147426063,"29":-0.013513027027936267,"30":-0.017688850639245197,"31":-0.04218394988487201,"32":0.012115360364202013,"33":-0.02661663689069971,"34":-0.09185383497831115,"35":0.19720732050577072,"36":-0.06865484368131694,"37":0.04838605982539788,"38":0.12230907540055466,"39":-0.04539521193365441,"40":0.005312794326475134,"41":-0.057634388081889185,"42":0.022611078704603105,"43":0.01874965457089037,"44":-0.04469581524500658,"45":0.07285470461488905,"46":-0.06652514186775081,"47":0.029657425425647605,"48":-0.024131755473744278,"49":0.02293078195446213,"50":-0.012162711556814238,"51":0.07026482148158673,"52":-0.07068198936253947,"53":0.057192390488727166,"54":-0.05138558053227424,"55":-0.0013754907578014247,"56":-0.07864985394919606,"57":-0.07187576751662807,"58":0.06959939026813795,"59":0.0184450209410782,"60":0.0686489511029654,"61":0.06537344251870418,"62":0.0014564254854663445,"63":0.034932719845163114,"64":-0.09788608662442261,"65":-0.07359329342183496,"66":-0.04859931481511447,"67":-0.02580070501440514,"68":0.029465800775968838,"69":-0.018889162051898292,"70":-0.10260684564393185,"71":-0.05411946440265912,"72":-0.014553192274687723,"73":0.0200647174812015,"74":0.02210525369243542,"75":-0.0692793502115534,"76":0.07470154448129565,"77":0.06462467777917386,"78":0.07815356858329887,"79":-0.07095951649311048,"80":-0.05638212513228701,"81":0.07971804027298952,"82":0.027469757540112872,"83":0.11797929765806554,"84":0.061599305358404605,"85":0.0017973666883533735,"86":-0.12112237382573793,"87":0.03973924315634025,"88":-0.0518639245774808,"89":-0.017064089915570707,"90":-0.044461471803662736,"91":-0.019076943003087564,"92":0.01071175463593832,"93":-0.029232615026015023,"94":0.01396323920348581,"95":0.05739419880693051,"96":-0.008764053263077262,"97":-0.06257718024121638,"98":0.13405934642301578,"99":-0.04255441845511606,"100":0.015260034792491025,"101":-0.001413228548519776,"102":0.15434544363365413,"103":0.005650097207474437,"104":0.03736729614415392,"105":0.05394151187603302,"106":-0.10312443066869023,"107":0.05469139906008958,"108":0.13903099149723755,"109":-0.14887115417524824,"110":-0.11151021723875881,"111":-0.015906651532615175,"112":-0.13858531941821528,"113":0.014235667243842396,"114":0.1410699524016573,"115":0.19374013243552282,"116":-0.04675521425503836,"117":-0.04080359085058577,"118":0.046617256850445946,"119":-0.08059294404778373,"120":0.055204012819424206,"121":0.009862221407143263,"122":-0.13031338919029525,"123":0.11391894287377682,"124":-0.008650650599676022,"125":-0.014688804959917855,"126":0.1434439206226453,"127":0.014728727431376517,"128":0.07219112046339865,"129":-0.06704394893181598,"130":-0.08360759201159729,"131":-0.1842143110496863,"132":-0.023253262100167253,"133":-0.10931854962976148,"134":0.11981820178966622,"135":-0.009499254983107663,"136":-0.16988632301081882,"137":0.03666513555872764,"138":0.03625084824998507,"139":0.06599160207406234,"140":0.0790364387169288,"141":-0.10555660763250431,"142":-0.0653524248697806,"143":-0.019374055368721575,"144":0.032643859911130495,"145":0.09906739048323428,"146":-0.15727094432155542,"147":0.03688262122502074,"148":0.08993803247406505,"149":0.026639816638115113,"150":-0.005730650789390142,"151":-0.09518981926810482,"152":-0.08788922086951294,"153":-0.013104578155919826,"154":0.012685813894898673,"155":-0.00381314226975547,"156":0.0026809061073525386,"157":-0.11735299680781988,"158":-0.08666662780165466}},{"sx":1,"sy":1,"depth":159,"w":{"0":-0.10069333311941256,"1":-0.03894546216265714,"2":0.08679149479767168,"3":0.05121423009687572,"4":-0.09134920844898625,"5":-0.025631333363653273,"6":0.025848809305717153,"7":0.056141921095896975,"8":0.1181104752111658,"9":-0.0584965144078086,"10":-0.026637386715874668,"11":0.02291583050929211,"12":-0.12485751725377203,"13":0.1353990167172094,"14":-0.16193772025804964,"15":-0.03803471597759752,"16":-0.08716180336645817,"17":0.0007818777447051187,"18":-0.02791098484582888,"19":0.13844325321224704,"20":0.009153109600163613,"21":0.05850607374664397,"22":-0.07091762133573301,"23":0.08458708061582469,"24":0.10278694628761958,"25":0.09946908963642362,"26":-0.0918839039537087,"27":-0.01754493477722966,"28":-0.09733873469046289,"29":-0.014525441032383,"30":-0.04956184029721778,"31":-0.14100962140654,"32":-0.058298263022689235,"33":-0.01084141251804216,"34":0.024604392926044764,"35":0.002325196500150444,"36":0.05404394641708337,"37":0.014604390293628346,"38":-0.030825348916496693,"39":-0.013831259693392455,"40":0.012127592871601546,"41":-0.013882275048650783,"42":0.06713455169520101,"43":0.020707908372867737,"44":-0.047875253265669014,"45":-0.11014722339264586,"46":0.07519166030761343,"47":-0.03565619704793444,"48":0.04045162673525248,"49":0.07599716538340918,"50":0.06381001221820282,"51":-0.096727193960624,"52":0.08572407840926215,"53":0.05497318563752138,"54":0.0065871875442273025,"55":0.07135512526509967,"56":-0.11053782761887687,"57":-0.022133643387155753,"58":0.061134074157972465,"59":-0.01574431996959936,"60":-0.004469892529365554,"61":0.0846846001540149,"62":0.05119197789767462,"63":0.021912102976126873,"64":-0.041831686748437305,"65":-0.004381617253323516,"66":-0.11119803837748456,"67":0.08903774517315806,"68":-0.10170788890296167,"69":-0.05939190201530796,"70":0.21614993804977303,"71":-0.02878203151089918,"72":0.08496145362541509,"73":-0.08528429840423948,"74":0.037240433353644124,"75":0.008821180568350715,"76":-0.021731910009177242,"77":0.03574892443504357,"78":0.019920793744133372,"79":-0.10493398183908641,"80":-0.06696551654949322,"81":-0.011597282417048963,"82":0.08080043157712416,"83":0.055437514744071124,"84":0.09810688910201633,"85":0.08452482169891758,"86":0.06054308580629945,"87":-0.08907273692924902,"88":0.06472798666260568,"89":0.03163407566428548,"90":-0.12356112635548036,"91":0.045469177325022585,"92":-0.020430385915556057,"93":0.06159669552803354,"94":-0.0356721401851567,"95":0.033851269632387625,"96":0.04111166253173541,"97":-0.1520883822368821,"98":-0.00258401083991112,"99":-0.00006312044246836497,"100":-0.08009578983799724,"101":0.17145785435714278,"102":-0.046734092309685046,"103":-0.0025299503095917984,"104":0.0348554392368878,"105":0.016368559744260464,"106":0.047623970515734595,"107":0.0006189060061689136,"108":-0.10049841532574909,"109":-0.06078934779300448,"110":0.08759556076126349,"111":0.02915871353223579,"112":0.14829315170036925,"113":0.04300821292715014,"114":0.029973767873966467,"115":-0.11983785671042324,"116":-0.13563864158515568,"117":0.016653639035752066,"118":0.07704222148552392,"119":0.036452058117741125,"120":-0.08509548985457778,"121":-0.03029594659408203,"122":-0.07460132148091038,"123":-0.055243022825828714,"124":-0.22739552321170078,"125":0.03478288179701673,"126":0.022067890845576088,"127":-0.1389554765769434,"128":0.06905551775244327,"129":0.13453840057191058,"130":0.07710984033114193,"131":0.09727012660307617,"132":0.014942404286254624,"133":0.0284009945095931,"134":0.0025821993409506716,"135":0.007407766745470508,"136":-0.03242702073220858,"137":0.055426021559996576,"138":0.016803742457252482,"139":0.0031853941056927022,"140":-0.019085829964620302,"141":-0.02012945526818698,"142":0.14068395602796355,"143":-0.0229929891551255,"144":0.02276715246235194,"145":-0.010224019419082332,"146":0.04475330943721185,"147":0.023993998692316033,"148":0.004306533911491098,"149":0.020609452620171373,"150":0.09900590748967392,"151":-0.016000581435825084,"152":0.01663645170863343,"153":-0.0019257479821123836,"154":-0.06439460889650005,"155":0.021089921507050323,"156":-0.09863308071550665,"157":-0.10399804515900678,"158":-0.11411504576791702}},{"sx":1,"sy":1,"depth":159,"w":{"0":-0.06068179995298801,"1":0.0183011138826414,"2":0.04481962948892325,"3":-0.16661518572771114,"4":0.07280208383682706,"5":-0.02612222448580265,"6":-0.0378232245581544,"7":0.0791026260837653,"8":-0.135719409808758,"9":0.09899781664878061,"10":-0.0454443732569282,"11":0.025174028595812813,"12":-0.05318481819650747,"13":-0.0945983756956537,"14":-0.13946908092557525,"15":-0.008620590265456482,"16":0.028044726954130825,"17":0.09725701568667237,"18":-0.0790681608957335,"19":-0.05518077998184906,"20":-0.027353729997513867,"21":-0.011821836510671141,"22":-0.02724366297431185,"23":0.08015705209592411,"24":0.016923233411165466,"25":-0.017919598195293023,"26":0.0585349473246645,"27":-0.07973054189091505,"28":-0.0220295768612742,"29":0.04924691545737922,"30":0.1666074646027719,"31":0.020121744395897145,"32":-0.0022678378485177435,"33":0.05836445612871296,"34":-0.09247282354721886,"35":-0.20719574636684285,"36":-0.009619068679962216,"37":-0.04126489358469666,"38":0.007978835002169808,"39":0.04236876692813379,"40":-0.034552186126366256,"41":0.013232565770825894,"42":-0.06550355135939966,"43":-0.2103108022503795,"44":0.04951443565552299,"45":-0.11219638891066071,"46":-0.03043868151355639,"47":0.046094949263651104,"48":-0.035121486173246376,"49":-0.017242322336485705,"50":0.024128428084357036,"51":0.07847642510588815,"52":0.16071717000595048,"53":-0.006984830926720024,"54":0.05983963295120212,"55":0.08088041196097889,"56":0.020077320948995503,"57":0.10508246088514235,"58":-0.10740410941334592,"59":0.013533854228386452,"60":-0.06295169951558273,"61":-0.048693477908496374,"62":-0.03394205265777039,"63":-0.15555871981425187,"64":-0.20537693197283008,"65":-0.04774725852810502,"66":0.09257296600448278,"67":0.062481391545174646,"68":0.048577558895479864,"69":0.12268647444369499,"70":0.029550887184181383,"71":0.03402663535775446,"72":-0.15001301200087303,"73":-0.033409356895245435,"74":-0.04924544156345757,"75":-0.03820193594149386,"76":-0.030299990215897632,"77":0.03593732365182534,"78":-0.03930899730000716,"79":0.05626442070250747,"80":-0.06261453475636736,"81":0.03706973568656819,"82":-0.0055264854876565074,"83":0.07190019625241359,"84":-0.06180769185131383,"85":0.013232261508665853,"86":0.000190104296724134,"87":0.054667833641947286,"88":0.05754500101452741,"89":-0.009404306107778508,"90":0.040864347988021604,"91":0.00010143197237869124,"92":0.06305726357691942,"93":-0.005471567206455064,"94":0.013689432851481057,"95":0.0953767702075829,"96":-0.04608659944000659,"97":-0.038602667442848335,"98":-0.08632316165409047,"99":0.04245501369941963,"100":0.13508251895624426,"101":0.12512670392070646,"102":0.06272418729306928,"103":0.016336837370924298,"104":-0.06649368188042011,"105":0.06076543723562235,"106":0.1839500662329249,"107":0.05985954364315032,"108":-0.1325898985609397,"109":-0.07044419818503958,"110":-0.0314286012746809,"111":0.08295806089361342,"112":-0.008596072443119114,"113":0.13420510498159333,"114":0.12093218302565974,"115":0.13938368904723217,"116":0.1704705417290446,"117":0.02385406530316816,"118":0.04738973541361727,"119":-0.0923655421054591,"120":-0.047210500809528766,"121":-0.21872195488853644,"122":0.06603670363423332,"123":-0.02365811166005233,"124":0.07386058584064611,"125":-0.025329728825087893,"126":0.18833806795592115,"127":0.05068130561201198,"128":-0.001613872186093578,"129":-0.10676233683832477,"130":0.0022444361046788748,"131":0.026415456557054583,"132":-0.01939212066497234,"133":-0.010050605608391678,"134":0.10678899292718781,"135":-0.06423775639324562,"136":0.18169519579437687,"137":0.018308895848401254,"138":-0.0017070216518880986,"139":0.0010786104361734882,"140":0.004680763768546145,"141":-0.08440686639881613,"142":0.06322613601934092,"143":-0.024556664462068296,"144":-0.023101925028621913,"145":-0.032117661267298855,"146":-0.039365748610041384,"147":0.04880904866396501,"148":0.10887364811985191,"149":0.04589619852936373,"150":-0.10432058734918222,"151":-0.11934118559830392,"152":-0.0008488791644927959,"153":0.08001294323483138,"154":0.0845473530532892,"155":-0.11318374502927284,"156":0.005102995691487138,"157":0.027527415386387356,"158":0.014679410957917126}},{"sx":1,"sy":1,"depth":159,"w":{"0":-0.06602335884312081,"1":0.03107926518850928,"2":0.18937391764411882,"3":-0.022196099750953237,"4":-0.16101247158493268,"5":0.02694841051210443,"6":0.08914531397260454,"7":-0.11539369491611218,"8":0.03385590049636815,"9":0.10907668433032276,"10":0.04919963966187196,"11":-0.0397444685244987,"12":0.11169715894440156,"13":0.0036184868403306616,"14":0.04047860849188825,"15":0.00006579313289987706,"16":0.11675679134181777,"17":-0.030506525994645314,"18":-0.0005148845465643409,"19":-0.05755843935852537,"20":0.0008696721513145557,"21":-0.037898737065726315,"22":0.1431490240648837,"23":0.03421679265248705,"24":-0.011678822871553154,"25":0.022709983111645658,"26":-0.045391168561040786,"27":0.024717439219394257,"28":-0.05470032096905496,"29":0.14784925891769607,"30":-0.12415482559211387,"31":0.021074589216920795,"32":0.13257809537094004,"33":0.09809291258346968,"34":0.0006706413694771296,"35":0.12326563195068874,"36":-0.06968417337595686,"37":-0.10365371905155474,"38":-0.0796133365954353,"39":-0.023555045864056823,"40":-0.02784725608616697,"41":0.0966552025096765,"42":-0.05009683486324198,"43":0.007894835795880528,"44":0.035416736504973075,"45":-0.09418759770313131,"46":0.015381858325981643,"47":-0.18009348771077194,"48":0.053522120739469825,"49":-0.03205504641801529,"50":-0.023110098091211385,"51":-0.060821845303314206,"52":0.10999468166597821,"53":-0.04173346791966975,"54":-0.056573053068519084,"55":-0.024325552236852052,"56":0.057382039010579165,"57":-0.1173353208879157,"58":-0.06384223031561992,"59":-0.008858222407423958,"60":0.020454236581917674,"61":0.04059776201690079,"62":0.08433954186572533,"63":-0.11976386542418042,"64":0.0012362430612916455,"65":0.02461981379534715,"66":-0.04160309689800059,"67":-0.033327880501094406,"68":-0.03955415244310362,"69":0.13607614219066133,"70":-0.047165892591614536,"71":-0.012569633623458153,"72":-0.09306552879707776,"73":-0.02651600679146417,"74":-0.00820876140934373,"75":-0.04723404908502058,"76":-0.09061287529579197,"77":-0.12272292008602538,"78":0.051180883650226904,"79":-0.02262374648890966,"80":0.11548543567838356,"81":-0.24206983735665355,"82":0.12513398437590598,"83":-0.09934900233848824,"84":-0.04976283963324037,"85":0.00804143256912375,"86":0.029652442796853785,"87":0.027127532718392387,"88":-0.05312223556942191,"89":-0.03821960987973119,"90":0.002962171181708895,"91":-0.07337481810654325,"92":-0.042582945802935666,"93":-0.018159490381793698,"94":0.048717854368372594,"95":-0.13178649560841746,"96":0.052215255542508034,"97":0.020751376626890142,"98":0.066747207084445,"99":0.13195242613137018,"100":-0.10213696240310666,"101":0.048514143583252525,"102":0.01784232361523247,"103":-0.10077429134988095,"104":-0.05576351408580826,"105":-0.040641243139369634,"106":-0.012493177798268511,"107":0.0649508900288427,"108":0.06961074737893626,"109":0.03446122469552032,"110":-0.13755738331376058,"111":-0.09234150868288048,"112":-0.025943241864372583,"113":0.08280415119745535,"114":-0.07670183179563857,"115":0.14447246965467234,"116":-0.08957043795369658,"117":-0.1104383970008339,"118":-0.016041818226595922,"119":0.02125238966718903,"120":0.06215791363233613,"121":0.03390500193476084,"122":-0.04037937494612765,"123":0.07931561210476083,"124":0.1023468345191639,"125":0.0540250328337455,"126":0.10942866735419558,"127":-0.0948862048172067,"128":-0.049739941521440616,"129":0.04293604115302254,"130":0.10745119781009399,"131":0.047439079809442466,"132":-0.045749367031069445,"133":0.04941005171693486,"134":-0.022590923035773994,"135":0.0806259602462829,"136":0.06340405067730928,"137":-0.013858099698772422,"138":0.09944133095389669,"139":0.04190914482846844,"140":-0.11448277121895734,"141":-0.17023232462348703,"142":0.001098215758161562,"143":0.019494756166943752,"144":-0.06809389231847139,"145":-0.023855103923308623,"146":-0.14494467179789017,"147":0.056422576177164466,"148":-0.028477033120478015,"149":0.12764607987527157,"150":0.04241228324690791,"151":-0.04874407610950353,"152":-0.13905198320905832,"153":0.03239021069356391,"154":-0.10537742754589888,"155":-0.038611222714542384,"156":0.06536189643042611,"157":-0.14499404516461792,"158":0.04261153443071735}},{"sx":1,"sy":1,"depth":159,"w":{"0":0.016699688642258424,"1":0.007655326993541137,"2":-0.005607568522322305,"3":-0.023503040040336837,"4":0.0358664656880699,"5":0.14955370812779617,"6":-0.07655396168851371,"7":0.136122708429832,"8":0.1042244938609374,"9":0.000911760699364544,"10":-0.00023267142445726802,"11":-0.107516586956398,"12":-0.07605604307462932,"13":0.009449184652953328,"14":-0.10742739895245897,"15":0.08343137807231117,"16":-0.1941393961242686,"17":-0.062295090842809896,"18":-0.005820227028072784,"19":-0.08550835724062077,"20":0.0585098437297778,"21":-0.03903796257109329,"22":-0.01467393382999813,"23":-0.09045055937180536,"24":0.09340268116152786,"25":-0.03210348150004034,"26":0.0030314483959853968,"27":-0.02976820166628452,"28":-0.09383657090098252,"29":-0.016204243777731903,"30":0.10526724623684904,"31":0.01105211962506228,"32":0.03662007853137089,"33":-0.06282831636751526,"34":0.05212295507438475,"35":-0.14095321577904785,"36":-0.06194650962595208,"37":-0.00806111850465402,"38":-0.06716638724296098,"39":0.06386729060463876,"40":-0.018771136372143313,"41":0.11709090245123593,"42":0.07113957245659817,"43":-0.04290686482542486,"44":0.03489135327335306,"45":0.04561238672980444,"46":0.06393221163447187,"47":0.03698081398871565,"48":-0.03221096599318983,"49":0.03748234058734329,"50":-0.017479471963982696,"51":-0.06841156405116303,"52":-0.028538987962280854,"53":0.015969328608780177,"54":-0.04838145560804139,"55":-0.08699414530038534,"56":0.0256018315450318,"57":-0.08854863234311472,"58":-0.11049857621804622,"59":0.0905054407413979,"60":-0.028271911390666975,"61":0.0003051870726436486,"62":0.06144249015914664,"63":0.00954687357828322,"64":-0.10425979723253159,"65":-0.061009312904715604,"66":0.10948492535850493,"67":0.0000766006120912983,"68":-0.1302222975294841,"69":-0.049169872822649875,"70":-0.06499279187902142,"71":0.09577220015309296,"72":0.032562013122053514,"73":0.056006480098411957,"74":0.08211965693532364,"75":0.0577172547298374,"76":0.03114872019278915,"77":-0.07068903063652693,"78":0.018467980059088354,"79":0.18407009499933352,"80":-0.1506571050312026,"81":-0.07558542417197939,"82":0.11799978067357356,"83":-0.020434975081984344,"84":0.035725688941070435,"85":0.10648914826859888,"86":-0.04564972808371936,"87":0.04776894469413486,"88":-0.012153523016269572,"89":-0.031979937304315004,"90":-0.0686811860998609,"91":-0.03790727332330722,"92":-0.12280520667298059,"93":0.08129164638741145,"94":-0.07414882976904984,"95":-0.014761338767827347,"96":0.019464431592019965,"97":-0.12569559251580645,"98":-0.023296964653089156,"99":-0.16748870053149986,"100":0.03660179609596148,"101":0.0763058365548468,"102":0.04390065290721579,"103":0.02034963210857319,"104":0.022299384044568195,"105":-0.21494322340786712,"106":-0.016475024411918598,"107":0.19140400883429087,"108":-0.004597984531756377,"109":0.021690661133111907,"110":0.02090037775513147,"111":-0.02658229946007153,"112":-0.04418590825678759,"113":0.04038250204343252,"114":0.08973018835222989,"115":-0.07783465207927728,"116":0.006319734996599766,"117":-0.12697392409329375,"118":0.009320671502615837,"119":0.014571301783435941,"120":0.021286688565884445,"121":-0.0421205961597972,"122":0.06332085825773476,"123":-0.05660423527145674,"124":0.07448140037982778,"125":0.07386802867936829,"126":0.07544350229996469,"127":-0.04792682528758019,"128":0.12714944124851205,"129":-0.05638079531593068,"130":-0.08494493537373043,"131":-0.03626771750196726,"132":-0.024141686956089453,"133":0.18070291259455828,"134":-0.020179046956306457,"135":0.08287232615556758,"136":-0.08617862063318849,"137":0.00137904838522967,"138":0.04244938695371323,"139":0.019622353652371156,"140":0.014646100566563415,"141":0.09482261163854216,"142":-0.06343740518378,"143":0.02876594058440014,"144":-0.03966100025220548,"145":0.025595586164790147,"146":0.2913965284609836,"147":0.009790955040217314,"148":-0.05027917777599534,"149":0.1819169058183845,"150":0.1172845699093641,"151":-0.00952757357940408,"152":-0.1327915630029238,"153":-0.17349764482099675,"154":0.2250429870218241,"155":0.02894757562903792,"156":-0.0025661639735357357,"157":0.024259854757781977,"158":-0.03589594179935439}},{"sx":1,"sy":1,"depth":159,"w":{"0":-0.06040573475748441,"1":0.034869894455877314,"2":0.0526460284576146,"3":-0.10172369877153734,"4":-0.025861540107391688,"5":0.021589285171802208,"6":-0.07585788090418331,"7":0.051646236172235405,"8":0.10454404204801795,"9":0.016765930447040184,"10":0.07059146178426987,"11":0.015237996855745783,"12":-0.031621583655765055,"13":-0.10211843170047943,"14":-0.11423052542934799,"15":0.04173359443905839,"16":-0.04941423569892223,"17":-0.08856421709687298,"18":-0.061277884131108504,"19":0.04559705128316584,"20":-0.008450347809509156,"21":0.022807917700015983,"22":-0.07904759819706082,"23":-0.03308089296453739,"24":0.039112033004656974,"25":0.03734686042867001,"26":-0.10070228329776898,"27":-0.10906215006858114,"28":-0.10592069187178521,"29":-0.13648805228221922,"30":-0.09820601486377352,"31":-0.09609135652827226,"32":-0.11899118094123354,"33":-0.10525085439425827,"34":-0.005708284446857285,"35":-0.007211265072690672,"36":-0.0009322591277674871,"37":0.0953753282758398,"38":0.019788133919489394,"39":0.08870739764515972,"40":-0.15070630689046183,"41":-0.16505649186168941,"42":-0.05279414288773257,"43":0.10129863955057881,"44":-0.0864456209207504,"45":0.1554572070510161,"46":0.02399425097188465,"47":-0.15776611889244657,"48":-0.12663752302265194,"49":0.015789425739657914,"50":-0.22164102373295344,"51":0.08266673018890222,"52":0.04894129955543251,"53":0.012660833196027373,"54":-0.08383621611999394,"55":0.03730047369629368,"56":0.13286042304237722,"57":-0.10170034288335189,"58":-0.03522396740565449,"59":0.12621114285623594,"60":-0.024830297278952605,"61":-0.11900065570935618,"62":-0.12692635235480482,"63":-0.10045286910972963,"64":-0.03437068216184276,"65":0.08529678528422283,"66":0.008408612637937513,"67":0.17999760395679149,"68":0.009363604389244965,"69":-0.052927558666903796,"70":0.039999746035927354,"71":-0.0418403889966348,"72":0.05773222225500272,"73":-0.0880790746891552,"74":0.030166031221496477,"75":-0.03109987674777575,"76":-0.041495106816891975,"77":-0.04420282840541698,"78":-0.11626167522245692,"79":-0.03694009600775838,"80":0.010768373528314789,"81":-0.07176002133567459,"82":-0.10223082784818441,"83":0.07258919425945586,"84":-0.041456633040210744,"85":-0.09073173836236677,"86":0.05715486255348925,"87":-0.05775119817494371,"88":0.015321521870923688,"89":0.0063618942650930195,"90":-0.10334714989753652,"91":0.16305392930750406,"92":-0.0340308435112274,"93":-0.1058788623451897,"94":0.008906048769382826,"95":0.12298218220390789,"96":-0.0022608181691980414,"97":0.08456839038163375,"98":-0.16193697592673637,"99":-0.07518397937544516,"100":0.09229561755081313,"101":0.023975222209724034,"102":-0.08615341309418845,"103":0.05565731381362988,"104":-0.1772005913330271,"105":-0.011774747179117615,"106":0.1635913819282852,"107":-0.0018427772672669203,"108":-0.05807967946687119,"109":0.08749335762289681,"110":0.0865493794842878,"111":-0.08389892625633175,"112":0.0460193534798086,"113":-0.07630395422457405,"114":-0.04814099629231187,"115":-0.05041716068132371,"116":-0.03652540304916385,"117":0.054194825217959104,"118":-0.11053743942261322,"119":0.05128491511679908,"120":0.10566822901910206,"121":0.046364583723606356,"122":0.06371847403028283,"123":-0.10969178144551257,"124":-0.07247922007338067,"125":-0.025872602683065047,"126":-0.15133188944306677,"127":-0.08668912220935368,"128":-0.09752612739043422,"129":-0.033413971106890344,"130":-0.0933636752449567,"131":0.050380950995488914,"132":0.014411056718159053,"133":0.09619173618464438,"134":-0.04044989865579135,"135":-0.0023758987692778606,"136":0.028581932853706336,"137":0.03636545655186511,"138":0.15924274437739627,"139":0.14804498022449214,"140":0.030802068894699768,"141":0.18793658561224919,"142":0.08248817838322627,"143":-0.05261622106636663,"144":0.012668761981171008,"145":-0.06076104524270864,"146":0.07518590895115591,"147":0.06468249498503745,"148":0.024264763014889872,"149":-0.1042343606294693,"150":0.03634726706519792,"151":-0.012131843970718115,"152":-0.09715862477340322,"153":-0.06194704918541669,"154":-0.0636066001420175,"155":0.06211866579315436,"156":0.024739456815979655,"157":-0.0037879857051005216,"158":-0.018111159447318653}},{"sx":1,"sy":1,"depth":159,"w":{"0":0.006962161047234165,"1":-0.06676411496295427,"2":-0.048121782492812806,"3":0.0781048589455407,"4":0.012885814512097356,"5":-0.043475409725730996,"6":-0.07982056899045446,"7":0.06651349389811209,"8":-0.02253293155980781,"9":-0.06175890460064466,"10":-0.00040124419942641514,"11":-0.03769470787466019,"12":-0.10316946485862953,"13":-0.16032446316140833,"14":0.048575152193417966,"15":-0.07182040625074641,"16":-0.08951904402260845,"17":-0.009772464725010631,"18":-0.17577076286749194,"19":-0.03885226213278803,"20":-0.12829142786991007,"21":0.05536746619261141,"22":-0.07135738851169023,"23":0.019241944929140952,"24":-0.04696318314095349,"25":0.07906799472984877,"26":-0.19759304773415545,"27":0.08516740823109416,"28":0.1352026037856154,"29":0.05598197040378143,"30":-0.01578133509332032,"31":0.0694867639090125,"32":0.025042121720782618,"33":-0.029481867948464652,"34":-0.11982697784827198,"35":0.10348846040519277,"36":0.04103354389547546,"37":-0.07779715624417263,"38":-0.005555468788873554,"39":0.03779569233104236,"40":-0.014800476714954002,"41":0.1880165641839015,"42":0.06277211368570235,"43":0.03337079412878365,"44":-0.04985104191614769,"45":-0.10302919679815108,"46":-0.008469636832150141,"47":-0.14123567657486036,"48":-0.035989236509897424,"49":-0.05312707285588805,"50":-0.017538338507012075,"51":-0.08223899073112309,"52":-0.031028554298898618,"53":0.06999431160028072,"54":0.08883125452016702,"55":0.061464387160323736,"56":0.11202361346283225,"57":-0.07285989777104804,"58":-0.041280173227339435,"59":0.0030624107993607384,"60":0.0653164385363429,"61":0.0021527474796159667,"62":-0.11524739107881946,"63":0.08670537405905661,"64":-0.0675439133088789,"65":0.11272484274257802,"66":-0.004552121008628554,"67":0.10988066841325062,"68":-0.1065324136461191,"69":-0.17636221937314947,"70":0.06572207790044252,"71":0.02226245188807702,"72":-0.04540379969958313,"73":0.05464358917663757,"74":0.08787165111835751,"75":-0.15017011428982893,"76":-0.024862583762501767,"77":0.006930652554806601,"78":0.04621674597532635,"79":0.04510455712765412,"80":-0.03889364216267882,"81":-0.0004938952063169418,"82":-0.12620324747961065,"83":0.07922626957298722,"84":-0.004166778964490351,"85":-0.00040943933406761124,"86":0.07059312294156836,"87":-0.08654034352016923,"88":-0.08632895954656625,"89":-0.06167816240700549,"90":-0.0000561891168535631,"91":0.03586688640770432,"92":0.04499912498252804,"93":-0.06459837339461087,"94":-0.057243344541706015,"95":-0.048563883189839514,"96":0.07631505339251367,"97":-0.10431566803643648,"98":-0.011557008648152404,"99":-0.019117212961392096,"100":-0.014348435164898355,"101":0.015885527439211625,"102":0.02317962324451883,"103":-0.008822016968922786,"104":-0.041018180383414385,"105":0.024459255970420115,"106":0.007155360479246283,"107":-0.05484429219327342,"108":-0.035454643824469674,"109":0.08961349313692309,"110":0.04997940260987954,"111":-0.05044085728896945,"112":0.033405567076876516,"113":0.02582926246588904,"114":0.10194187733570952,"115":0.032699844741338906,"116":0.05269560640475239,"117":-0.05901078127763813,"118":0.07599834225328732,"119":0.028391052802699022,"120":0.12331107476167577,"121":0.00447760502243537,"122":0.0880122688301913,"123":-0.06363180027644708,"124":0.012026467766112499,"125":0.06486941727269754,"126":-0.0528056465461355,"127":-0.03223957499618126,"128":-0.0035672774055457157,"129":-0.10128991013345683,"130":-0.09367778015958247,"131":0.06851476409493294,"132":0.013719293337914476,"133":0.013705276425267044,"134":-0.1785967267701727,"135":0.020396266463035877,"136":0.05091065981032344,"137":0.00853057371926374,"138":-0.028356118658360865,